{"learner":{"attributes":{"best_iteration":"82","best_score":"0.6418201804428761"},"feature_names":["bias_5","bias_20","bias_60","rsi_6","rsi_14","atr_pct","vol_ratio","macd_norm","macdsignal_norm","macdhist_norm","bb_pos","rs_20d","rel_vol"],"feature_types":[],"gradient_booster":{"model":{"cats":{"enc":[],"feature_segments":[],"sorted_idx":[]},"gbtree_model_param":{"num_parallel_tree":"1","num_trees":"103"},"iteration_indptr":[0,1,2,3,4,5,6,7,8,9,10,11,12,13,14,15,16,17,18,19,20,21,22,23,24,25,26,27,28,29,30,31,32,33,34,35,36,37,38,39,40,41,42,43,44,45,46,47,48,49,50,51,52,53,54,55,56,57,58,59,60,61,62,63,64,65,66,67,68,69,70,71,72,73,74,75,76,77,78,79,80,81,82,83,84,85,86,87,88,89,90,91,92,93,94,95,96,97,98,99,100,101,102,103],"tree_info":[0,0,0,0,0,0,0,0,0,0,0,0,0,0,0,0,0,0,0,0,0,0,0,0,0,0,0,0,0,0,0,0,0,0,0,0,0,0,0,0,0,0,0,0,0,0,0,0,0,0,0,0,0,0,0,0,0,0,0,0,0,0,0,0,0,0,0,0,0,0,0,0,0,0,0,0,0,0,0,0,0,0,0,0,0,0,0,0,0,0,0,0,0,0,0,0,0,0,0,0,0,0,0],"trees":[{"base_weights":[1.5177491E-2,-3.3022162E-1,3.2194036E-1,2.1602581E-1,-4.18393E-1,1.9190672E-1,7.0686483E-1,1.3260496E0,1.4105129E-1,-5.2378035E-1,1.6412182E-1,9.1203237E-1,9.006519E-2,1.2491106E0,6.3455325E-1,1.471844E0,-5.4440945E-2,3.159239E-2,1.0355538E0,-5.848135E-1,-2.6245293E-1,1.061415E0,3.1118726E-2,8.2296056E-1,1.3133047E0,3.647983E-2,4.0335622E-1,9.6582997E-1,9.578072E-2,4.65357E-1,8.6605114E-1,8.0826215E-2,-8.728902E-3,1.9433148E-2,-7.1535963E-3,2.4498327E-2,8.019633E-2,-1.0673619E-2,-3.188779E-2,-1.6635612E-2,3.1108407E-2,2.4276495E-2,8.985944E-2,-7.0902877E-3,2.6787212E-2,4.9532972E-2,2.4458995E-2,6.7409985E-2,-1.1796722E-2,-8.108281E-5,2.4966879E-2,1.6948948E-2,6.03497E-2,1.8504268E-2,5.532196E-2,1.8042337E-2,4.125085E-2,4.7196E-2,-1.9616013E-2],"categories":[],"categories_nodes":[],"categories_segments":[],"categories_sizes":[],"default_left":[0,0,0,0,0,0,0,0,0,0,0,0,0,0,0,0,0,0,0,0,0,0,0,0,0,0,0,0,0,0,0,0,0,0,0,0,0,0,0,0,0,0,0,0,0,0,0,0,0,0,0,0,0,0,0,0,0,0,0],"id":0,"left_children":[1,3,5,7,9,11,13,15,17,19,21,23,25,27,29,31,-1,33,35,37,39,41,43,45,47,49,51,53,-1,55,57,-1,-1,-1,-1,-1,-1,-1,-1,-1,-1,-1,-1,-1,-1,-1,-1,-1,-1,-1,-1,-1,-1,-1,-1,-1,-1,-1,-1],"loss_changes":[7.5546387E2,1.616217E2,1.8887393E2,3.8659412E1,1.7738242E2,2.0702762E2,3.658145E1,1.1958328E1,4.288758E1,3.885663E1,5.28613E1,1.1421265E1,4.153902E1,1.913028E1,3.2617676E1,6.9910164E0,0E0,2.4478561E1,1.4024826E1,3.8828186E1,2.9101158E1,2.3357971E1,3.384888E1,1.5687851E1,3.6623306E0,3.729656E1,1.8289738E1,6.2914886E0,0E0,1.809124E1,3.5138336E1,0E0,0E0,0E0,0E0,0E0,0E0,0E0,0E0,0E0,0E0,0E0,0E0,0E0,0E0,0E0,0E0,0E0,0E0,0E0,0E0,0E0,0E0,0E0,0E0,0E0,0E0,0E0,0E0],"parents":[2147483647,0,0,1,1,2,2,3,3,4,4,5,5,6,6,7,7,8,8,9,9,10,10,11,11,12,12,13,13,14,14,15,15,17,17,18,18,19,19,20,20,21,21,22,22,23,23,24,24,25,25,26,26,27,27,29,29,30,30],"right_children":[2,4,6,8,10,12,14,16,18,20,22,24,26,28,30,32,-1,34,36,38,40,42,44,46,48,50,52,54,-1,56,58,-1,-1,-1,-1,-1,-1,-1,-1,-1,-1,-1,-1,-1,-1,-1,-1,-1,-1,-1,-1,-1,-1,-1,-1,-1,-1,-1,-1],"split_conditions":[1.3552715E0,-4.7589637E-2,1.4291841E-2,-1.1447128E-1,5.738855E-2,-9.494219E-2,4.741392E-1,3.3282217E-1,-9.092174E-3,1.1422555E0,5.781238E-1,-1.6895115E-2,2.0966787E0,3.8081456E-2,6.61745E1,-5.91716E-3,-5.4440945E-2,-2.050978E-2,2.8062643E-2,-1.0108865E-2,5.3733166E-2,2.2274876E-2,1.0105568E0,-3.3970505E-2,8.2559265E1,7.252042E1,1.63869E-2,2.3671104E-2,9.578072E-2,3.645815E-2,3.0342573E-1,8.0826215E-2,-8.728902E-3,1.9433148E-2,-7.1535963E-3,2.4498327E-2,8.019633E-2,-1.0673619E-2,-3.188779E-2,-1.6635612E-2,3.1108407E-2,2.4276495E-2,8.985944E-2,-7.0902877E-3,2.6787212E-2,4.9532972E-2,2.4458995E-2,6.7409985E-2,-1.1796722E-2,-8.108281E-5,2.4966879E-2,1.6948948E-2,6.03497E-2,1.8504268E-2,5.532196E-2,1.8042337E-2,4.125085E-2,4.7196E-2,-1.9616013E-2],"split_indices":[12,2,7,2,2,2,10,10,8,12,10,11,12,8,4,0,0,8,10,0,11,7,10,7,3,3,8,8,0,8,2,0,0,0,0,0,0,0,0,0,0,0,0,0,0,0,0,0,0,0,0,0,0,0,0,0,0,0,0],"split_type":[0,0,0,0,0,0,0,0,0,0,0,0,0,0,0,0,0,0,0,0,0,0,0,0,0,0,0,0,0,0,0,0,0,0,0,0,0,0,0,0,0,0,0,0,0,0,0,0,0,0,0,0,0,0,0,0,0,0,0],"sum_hessian":[7.128E3,3.3528206E3,3.7751792E3,4.6577267E2,2.887048E3,2.8230173E3,9.521617E2,2.8413551E1,4.373591E2,2.4448345E3,4.4221353E2,3.487855E2,2.474232E3,1.1012079E2,8.420409E2,2.7164064E1,1.2494855E0,3.905976E2,4.676151E1,1.9809459E3,4.6388852E2,5.618516E1,3.8602838E2,2.8792474E2,6.0860764E1,2.113803E3,3.6042883E2,7.899505E1,3.1125742E1,4.882217E2,3.538192E2,2.498652E1,2.1775446E0,1.2790107E2,2.6269653E2,2.4809065E1,2.1952446E1,2.4781136E2,1.7331346E3,4.3033398E2,3.355455E1,3.2448124E1,2.3737036E1,2.880416E2,9.798677E1,1.9033047E2,9.759427E1,5.964704E1,1.2137208E0,1.9539541E3,1.5984895E2,3.350136E2,2.5415241E1,1.5777915E1,6.3217133E1,3.798484E2,1.0837333E2,3.3343585E2,2.0383358E1],"tree_param":{"num_deleted":"0","num_feature":"13","num_nodes":"59","size_leaf_vector":"1"}},{"base_weights":[-2.4014784E-3,-2.7201995E-1,4.6996307E-1,-3.6837828E-1,4.44656E-1,1.0162383E0,3.9357483E-1,-6.487729E-1,-1.4077365E-1,-5.0129116E-2,6.6830575E-1,1.4584209E0,8.912987E-1,3.0715746E-1,6.5725195E-1,2.8530085E-1,-6.823559E-1,8.899983E-2,-2.2239941E-1,5.32451E-1,-2.5184885E-1,-1.1791915E-1,7.684131E-1,-2.2234385E-1,1.603041E0,5.919399E-1,1.1978314E0,1.9456002E-1,5.745083E-1,7.4559957E-1,-4.635196E-1,4.7817223E-2,-7.2876327E-3,-4.0254693E-2,-2.4558721E-2,-4.011004E-3,1.5804932E-2,-2.2806227E-2,-7.7908407E-3,5.6177E-3,6.1930742E-2,-3.830972E-2,1.2172002E-2,-1.2927639E-2,5.0122924E-2,1.2969782E-2,4.510633E-2,-3.9287757E-2,4.296132E-2,7.092963E-2,9.171723E-2,2.2324461E-2,6.243753E-2,8.825926E-2,5.4890133E-2,4.8368823E-2,7.593611E-3,1.863103E-2,3.66894E-2,4.7683887E-2,3.1919662E-2,-7.0523717E-3,-7.104249E-2],"categories":[],"categories_nodes":[],"categories_segments":[],"categories_sizes":[],"default_left":[0,0,0,0,0,0,0,0,0,0,0,0,0,0,0,0,0,0,0,0,0,0,0,0,0,0,0,0,0,0,0,0,0,0,0,0,0,0,0,0,0,0,0,0,0,0,0,0,0,0,0,0,0,0,0,0,0,0,0,0,0,0,0],"id":1,"left_children":[1,3,5,7,9,11,13,15,17,19,21,23,25,27,29,31,33,35,37,39,41,43,45,47,49,51,53,55,57,59,61,-1,-1,-1,-1,-1,-1,-1,-1,-1,-1,-1,-1,-1,-1,-1,-1,-1,-1,-1,-1,-1,-1,-1,-1,-1,-1,-1,-1,-1,-1,-1,-1],"loss_changes":[9.130726E2,3.153544E2,1.0831079E2,2.567027E2,5.9942245E1,1.63219E1,5.1914703E1,5.673871E1,4.169882E1,2.0049112E1,2.9442017E1,1.705516E1,2.2348282E1,5.1800827E1,5.6161087E1,1.8438663E1,4.044055E1,2.2438282E1,2.5450935E1,1.2886079E1,3.242686E1,7.032287E0,2.229013E1,4.52696E0,1.0173035E-1,1.1775776E1,5.052292E0,3.99343E1,1.6143875E1,1.105542E1,1.2705142E1,0E0,0E0,0E0,0E0,0E0,0E0,0E0,0E0,0E0,0E0,0E0,0E0,0E0,0E0,0E0,0E0,0E0,0E0,0E0,0E0,0E0,0E0,0E0,0E0,0E0,0E0,0E0,0E0,0E0,0E0,0E0,0E0],"parents":[2147483647,0,0,1,1,2,2,3,3,4,4,5,5,6,6,7,7,8,8,9,9,10,10,11,11,12,12,13,13,14,14,15,15,16,16,17,17,18,18,19,19,20,20,21,21,22,22,23,23,24,24,25,25,26,26,27,27,28,28,29,29,30,30],"right_children":[2,4,6,8,10,12,14,16,18,20,22,24,26,28,30,32,34,36,38,40,42,44,46,48,50,52,54,56,58,60,62,-1,-1,-1,-1,-1,-1,-1,-1,-1,-1,-1,-1,-1,-1,-1,-1,-1,-1,-1,-1,-1,-1,-1,-1,-1,-1,-1,-1,-1,-1,-1,-1],"split_conditions":[2.2814434E-2,6.005921E-2,-2.6687598E-2,1.5257581E-2,7.4234293E-3,-9.0217605E-2,3.3075295E-2,-4.8153456E-3,-4.5902006E-2,5.7627304E1,-3.5587188E-3,-5.597917E-1,-6.0466304E-3,3.8070798E-2,1.1134447E-1,-3.246895E-2,1.2458263E-2,-1.8423101E-2,-7.906721E-3,-3.9761432E-4,7.456132E1,6.4871765E1,1.1887653E-2,1.2579437E-1,-7.267077E-2,3.9434757E-2,7.2114176E-1,-6.2291805E-2,9.5039815E-1,-5.487257E-2,2.2280718E-1,4.7817223E-2,-7.2876327E-3,-4.0254693E-2,-2.4558721E-2,-4.011004E-3,1.5804932E-2,-2.2806227E-2,-7.7908407E-3,5.6177E-3,6.1930742E-2,-3.830972E-2,1.2172002E-2,-1.2927639E-2,5.0122924E-2,1.2969782E-2,4.510633E-2,-3.9287757E-2,4.296132E-2,7.092963E-2,9.171723E-2,2.2324461E-2,6.243753E-2,8.825926E-2,5.4890133E-2,4.8368823E-2,7.593611E-3,1.863103E-2,3.66894E-2,4.7683887E-2,3.1919662E-2,-7.0523717E-3,-7.104249E-2],"split_indices":[5,2,0,5,11,1,5,9,2,3,0,2,11,11,1,2,2,11,0,0,3,3,5,10,11,5,6,1,6,2,11,0,0,0,0,0,0,0,0,0,0,0,0,0,0,0,0,0,0,0,0,0,0,0,0,0,0,0,0,0,0,0,0],"split_type":[0,0,0,0,0,0,0,0,0,0,0,0,0,0,0,0,0,0,0,0,0,0,0,0,0,0,0,0,0,0,0,0,0,0,0,0,0,0,0,0,0,0,0,0,0,0,0,0,0,0,0,0,0,0,0,0,0,0,0,0,0,0,0],"sum_hessian":[7.1673228E3,4.563163E3,2.6041597E3,4.0227793E3,5.4038367E2,3.179684E2,2.2861912E3,1.8015421E3,2.2212373E3,1.6846367E2,3.7191998E2,6.769863E1,2.5026978E2,1.723498E3,5.626932E2,6.2263317E1,1.7392788E3,5.8221985E2,1.6390175E3,4.29067E1,1.2555697E2,4.1986668E1,3.2993332E2,5.3209963E0,6.237764E1,1.2809941E2,1.22170364E2,1.2139562E3,5.095419E2,5.2188873E2,4.080445E1,2.3875875E1,3.8387444E1,1.0572905E3,6.819883E2,3.339946E2,2.4822525E2,3.6209695E2,1.2769204E3,2.7629192E1,1.5277507E1,6.1325237E1,6.423173E1,3.7987564E1,3.9991024E0,6.925079E1,2.6068253E2,3.6783676E0,1.6426289E0,3.867225E1,2.3705387E1,1.06250114E2,2.18493E1,1.5816108E1,1.0635426E2,6.241102E1,1.1515452E3,2.2618764E2,2.8335428E2,1.747733E2,3.4711545E2,3.1381182E1,9.423269E0],"tree_param":{"num_deleted":"0","num_feature":"13","num_nodes":"63","size_leaf_vector":"1"}},{"base_weights":[-3.1381228E-3,-3.8998166E-1,2.8392076E-1,-4.6867844E-1,2.6124772E-1,9.539351E-2,5.460602E-1,-6.751324E-1,-2.5180128E-1,4.852198E-3,5.905529E-1,4.1996896E-2,7.1443146E-1,1.1698781E0,4.8130876E-1,6.115517E-1,-7.1522427E-1,6.973024E-1,-2.7256536E-1,-6.959394E-1,1.3062602E-1,-3.9999124E-1,6.851988E-1,6.6182584E-1,3.9982772E-3,6.153668E-1,1.593078E0,1.2207117E0,-7.26062E-2,7.8979903E-1,4.126377E-1,1.4434993E-3,6.380307E-2,1.0674039E-3,-3.702363E-2,6.502523E-2,1.0737269E-2,-1.1724797E-2,-3.706126E-2,3.287165E-2,-5.2380126E-2,1.9778041E-2,-1.4936258E-2,4.6101656E-2,-4.9122762E-2,5.2342486E-2,2.1201229E-2,-3.2264814E-2,3.89771E-2,-9.0661375E-3,4.177034E-3,-6.9850065E-2,3.2671656E-2,-2.2778584E-2,8.979634E-2,4.9642223E-4,6.59252E-2,6.573728E-2,3.4551557E-2,1.4651875E-2,3.0952364E-2],"categories":[],"categories_nodes":[],"categories_segments":[],"categories_sizes":[],"default_left":[0,0,0,0,0,0,0,0,0,0,0,0,0,0,0,0,0,0,0,0,0,0,0,0,0,0,0,0,0,0,0,0,0,0,0,0,0,0,0,0,0,0,0,0,0,0,0,0,0,0,0,0,0,0,0,0,0,0,0,0,0],"id":2,"left_children":[1,3,5,7,9,11,13,15,17,19,21,23,25,27,29,31,33,35,37,39,41,43,45,47,49,51,53,55,-1,57,59,-1,-1,-1,-1,-1,-1,-1,-1,-1,-1,-1,-1,-1,-1,-1,-1,-1,-1,-1,-1,-1,-1,-1,-1,-1,-1,-1,-1,-1,-1],"loss_changes":[7.9024817E2,1.5547607E2,2.0183228E2,1.2094006E2,2.7645535E1,7.855244E1,6.845584E1,7.18902E1,2.6217865E1,1.6407701E1,1.3712425E1,5.156913E1,1.5446266E1,2.3095871E1,3.250348E1,1.637812E1,2.5005554E1,8.032963E0,2.2898308E1,1.417036E1,1.8067257E1,1.1018706E1,1.1949219E1,1.9963799E1,3.0442728E1,1.4029358E1,8.50288E0,1.8633621E1,0E0,1.3664093E1,3.116159E1,0E0,0E0,0E0,0E0,0E0,0E0,0E0,0E0,0E0,0E0,0E0,0E0,0E0,0E0,0E0,0E0,0E0,0E0,0E0,0E0,0E0,0E0,0E0,0E0,0E0,0E0,0E0,0E0,0E0,0E0],"parents":[2147483647,0,0,1,1,2,2,3,3,4,4,5,5,6,6,7,7,8,8,9,9,10,10,11,11,12,12,13,13,14,14,15,15,16,16,17,17,18,18,19,19,20,20,21,21,22,22,23,23,24,24,25,25,26,26,27,27,29,29,30,30],"right_children":[2,4,6,8,10,12,14,16,18,20,22,24,26,28,30,32,34,36,38,40,42,44,46,48,50,52,54,56,-1,58,60,-1,-1,-1,-1,-1,-1,-1,-1,-1,-1,-1,-1,-1,-1,-1,-1,-1,-1,-1,-1,-1,-1,-1,-1,-1,-1,-1,-1,-1,-1],"split_conditions":[1.8117629E-2,5.738855E-2,2.6261752E-2,1.3938281E-2,9.389291E-1,6.777954E1,-1.12465825E-2,-1.5212176E-2,-4.6926696E-2,-1.1062449E-3,7.353827E1,-9.494219E-2,1.20173E0,4.82515E-1,-2.0327218E-2,3.004416E1,-4.4005155E-3,-6.698E-3,1.0346004E-2,1.1490139E-2,1.9347068E-2,9.4932914E-1,3.7236772E-3,-9.639616E-2,-2.290635E-2,-8.226246E-3,8.597638E1,-2.4261525E-1,-7.26062E-2,-1.3992533E-1,3.788464E-3,1.4434993E-3,6.380307E-2,1.0674039E-3,-3.702363E-2,6.502523E-2,1.0737269E-2,-1.1724797E-2,-3.706126E-2,3.287165E-2,-5.2380126E-2,1.9778041E-2,-1.4936258E-2,4.6101656E-2,-4.9122762E-2,5.2342486E-2,2.1201229E-2,-3.2264814E-2,3.89771E-2,-9.0661375E-3,4.177034E-3,-6.9850065E-2,3.2671656E-2,-2.2778584E-2,8.979634E-2,4.9642223E-4,6.59252E-2,6.573728E-2,3.4551557E-2,1.4651875E-2,3.0952364E-2],"split_indices":[5,2,5,5,10,4,9,7,1,11,3,2,10,10,0,3,9,9,7,5,7,10,9,11,11,0,3,7,0,2,9,0,0,0,0,0,0,0,0,0,0,0,0,0,0,0,0,0,0,0,0,0,0,0,0,0,0,0,0,0,0],"split_type":[0,0,0,0,0,0,0,0,0,0,0,0,0,0,0,0,0,0,0,0,0,0,0,0,0,0,0,0,0,0,0,0,0,0,0,0,0,0,0,0,0,0,0,0,0,0,0,0,0,0,0,0,0,0,0,0,0,0,0,0,0],"sum_hessian":[7.1143506E3,3.0303118E3,4.0840386E3,2.7038499E3,3.2646204E2,2.3763574E3,1.707681E3,1.3841294E3,1.3197205E3,1.8412099E2,1.4234105E2,2.188639E3,1.877185E2,1.5898134E2,1.5486997E3,4.1394264E1,1.3427351E3,2.7556599E1,1.2921638E3,2.7326857E1,1.5679413E2,1.2133031E1,1.3020801E2,1.2547579E2,2.063163E3,1.7022636E2,1.7492134E1,1.5648201E2,2.4993362E0,2.8006512E2,1.2686346E3,2.261102E1,1.8783247E1,4.450621E1,1.2982289E3,1.1493968E1,1.6062632E1,1.1964741E3,9.5689705E1,5.4568224E0,2.1870033E1,9.701123E1,5.97829E1,3.5324368E0,8.600594E0,5.3339684E1,7.686833E1,9.996191E0,1.154796E2,6.192141E2,1.4439491E3,2.497492E0,1.6772887E2,1.4637077E0,1.6028427E1,1.1776507E1,1.447055E2,4.239996E1,2.3766516E2,8.0475433E2,4.6388028E2],"tree_param":{"num_deleted":"0","num_feature":"13","num_nodes":"61","size_leaf_vector":"1"}},{"base_weights":[-2.5539254E-3,-3.066171E-1,2.8139624E-1,4.5275697E-1,-3.5913676E-1,1.7640765E-1,6.3652295E-1,1.3969895E0,2.40625E-1,-4.2264816E-1,6.097111E-2,7.5772965E-1,9.849197E-2,1.1650162E0,5.603572E-1,3.423116E-3,1.4521866E0,1.5257221E-1,1.3665617E0,-3.2911524E-2,-4.9737355E-1,7.8177214E-1,-6.290071E-2,1.2040322E0,6.0448706E-1,2.8274762E-2,3.3262488E-1,4.4080296E-1,1.3333325E0,3.6393264E-1,7.643735E-1,5.0591208E-2,7.97677E-2,3.453092E-2,-6.6149547E-3,8.582502E-2,-5.4740567E-2,-2.8823495E-2,2.9233114E-3,-2.8106067E-2,-1.2957798E-2,1.3595397E-2,9.112131E-2,-1.4033288E-2,2.7025476E-2,1.4321278E-2,6.6330194E-2,2.1736985E-2,4.9886134E-2,2.8471677E-2,-7.797841E-4,5.8713872E-2,1.1563695E-2,-1.1825155E-2,6.3862555E-2,8.048581E-2,5.26887E-2,-9.0055205E-3,2.4561798E-2,4.2128675E-2,-2.4855983E-2],"categories":[],"categories_nodes":[],"categories_segments":[],"categories_sizes":[],"default_left":[0,0,0,0,0,0,0,0,0,0,0,0,0,0,0,0,0,0,0,0,0,0,0,0,0,0,0,0,0,0,0,0,0,0,0,0,0,0,0,0,0,0,0,0,0,0,0,0,0,0,0,0,0,0,0,0,0,0,0,0,0],"id":3,"left_children":[1,3,5,7,9,11,13,15,17,19,21,23,25,27,29,-1,31,33,35,37,39,41,43,45,47,49,51,53,55,57,59,-1,-1,-1,-1,-1,-1,-1,-1,-1,-1,-1,-1,-1,-1,-1,-1,-1,-1,-1,-1,-1,-1,-1,-1,-1,-1,-1,-1,-1,-1],"loss_changes":[6.150799E2,1.3736374E2,1.3723758E2,4.4327087E1,8.5892365E1,1.2877179E2,3.3167603E1,2.8849182E0,1.7962484E1,8.1403076E1,3.78625E1,2.2256363E1,4.124881E1,1.2200272E1,2.922763E1,0E0,8.4607697E-1,2.631876E1,1.322135E1,2.2427418E1,3.60365E1,3.2497494E1,4.7761406E1,9.167694E0,1.639904E1,4.5869072E1,4.911006E1,1.2356638E1,4.8427277E0,2.6201115E1,3.5957535E1,0E0,0E0,0E0,0E0,0E0,0E0,0E0,0E0,0E0,0E0,0E0,0E0,0E0,0E0,0E0,0E0,0E0,0E0,0E0,0E0,0E0,0E0,0E0,0E0,0E0,0E0,0E0,0E0,0E0,0E0],"parents":[2147483647,0,0,1,1,2,2,3,3,4,4,5,5,6,6,7,7,8,8,9,9,10,10,11,11,12,12,13,13,14,14,16,16,17,17,18,18,19,19,20,20,21,21,22,22,23,23,24,24,25,25,26,26,27,27,28,28,29,29,30,30],"right_children":[2,4,6,8,10,12,14,16,18,20,22,24,26,28,30,-1,32,34,36,38,40,42,44,46,48,50,52,54,56,58,60,-1,-1,-1,-1,-1,-1,-1,-1,-1,-1,-1,-1,-1,-1,-1,-1,-1,-1,-1,-1,-1,-1,-1,-1,-1,-1,-1,-1,-1,-1],"split_conditions":[1.3741459E0,-5.536375E-3,6.8088196E-2,-2.7502313E-2,5.865676E-2,-9.494219E-2,-3.9298222E-3,-8.226053E-2,8.8202454E-2,-4.5043983E-2,5.4312157E1,-8.741137E-3,3.930403E-3,2.3210121E-2,6.61745E1,3.423116E-3,1.0038495E0,3.543713E1,1.2352204E-1,2.954473E1,1.1332932E0,2.85731E-2,1.0105568E0,-5.597917E-1,3.6578945E1,-9.028354E-3,-6.4274445E-2,-6.3789226E-3,-1.12465825E-2,8.9714965E-3,3.0342573E-1,5.0591208E-2,7.97677E-2,3.453092E-2,-6.6149547E-3,8.582502E-2,-5.4740567E-2,-2.8823495E-2,2.9233114E-3,-2.8106067E-2,-1.2957798E-2,1.3595397E-2,9.112131E-2,-1.4033288E-2,2.7025476E-2,1.4321278E-2,6.6330194E-2,2.1736985E-2,4.9886134E-2,2.8471677E-2,-7.797841E-4,5.8713872E-2,1.1563695E-2,-1.1825155E-2,6.3862555E-2,8.048581E-2,5.26887E-2,-9.0055205E-3,2.4561798E-2,4.2128675E-2,-2.4855983E-2],"split_indices":[12,9,2,0,2,2,1,11,2,2,3,9,9,8,4,0,12,4,2,4,12,8,10,2,4,9,2,9,9,11,2,0,0,0,0,0,0,0,0,0,0,0,0,0,0,0,0,0,0,0,0,0,0,0,0,0,0,0,0,0,0],"split_type":[0,0,0,0,0,0,0,0,0,0,0,0,0,0,0,0,0,0,0,0,0,0,0,0,0,0,0,0,0,0,0,0,0,0,0,0,0,0,0,0,0,0,0,0,0,0,0,0,0,0,0,0,0,0,0,0,0,0,0,0,0],"sum_hessian":[7.122028E3,3.4391707E3,3.682857E3,2.219796E2,3.217191E3,2.843662E3,8.391948E2,3.9696922E1,1.8228267E2,2.7946875E3,4.2250345E2,3.3506287E2,2.5085994E3,1.0390828E2,7.3528656E2,1.6728888E0,3.8024033E1,1.7011453E2,1.2168137E1,4.4985764E2,2.3448298E3,6.118152E1,3.6132193E2,8.388878E1,2.511741E2,1.9306978E3,5.7790155E2,2.0277843E1,8.363043E1,3.7603156E2,3.59255E2,1.1308405E1,2.6715628E1,5.8395905E1,1.11718636E2,1.091846E1,1.2496766E0,6.3977913E1,3.8587973E2,1.8426393E3,5.021907E2,4.1909443E1,1.9272076E1,2.6589706E2,9.5424866E1,1.027842E1,7.361036E1,1.7691225E2,7.426186E1,1.4388171E2,1.786816E3,6.097322E1,5.1692834E2,1.1601162E1,8.676681E0,3.9661385E1,4.396905E1,7.122591E1,3.0480563E2,3.3859744E2,2.0657578E1],"tree_param":{"num_deleted":"0","num_feature":"13","num_nodes":"61","size_leaf_vector":"1"}},{"base_weights":[4.44602E-3,-3.6051473E-1,2.6777792E-1,-4.251355E-1,2.9398364E-1,1.021448E-1,4.8577517E-1,-5.599771E-1,-1.9773093E-1,1.1874129E-1,8.654874E-1,1.5434395E-2,3.6776215E-1,8.387087E-1,3.9003626E-1,-5.7984406E-1,2.9117933E-1,-2.5430065E-1,4.14274E-1,-5.443725E-2,6.284423E-1,9.378472E-1,-6.300865E-2,1.2223443E-1,-2.663875E-1,-1.7771207E-1,4.827075E-1,1.1985496E0,7.250432E-1,-3.1519195E-1,4.5494202E-1,-3.008067E-2,1.5457965E-2,-3.3333804E-2,2.7867382E-2,2.5403429E-2,-1.4679479E-2,-6.7176E-3,5.117277E-2,1.8068163E-2,-1.9771408E-2,-5.6539993E-3,4.7659732E-2,2.5923282E-2,5.9467655E-2,4.35774E-2,4.5015006E-3,-2.457798E-2,7.913875E-3,3.9689563E-2,-1.8355219E-2,2.1023408E-2,5.169884E-2,6.632019E-2,2.0817954E-2,2.3745349E-2,4.4964418E-2,2.2627259E-2,-3.3271365E-2,2.3806227E-2,-1.7416662E-2],"categories":[],"categories_nodes":[],"categories_segments":[],"categories_sizes":[],"default_left":[0,0,0,0,0,0,0,0,0,0,0,0,0,0,0,0,0,0,0,0,0,0,0,0,0,0,0,0,0,0,0,0,0,0,0,0,0,0,0,0,0,0,0,0,0,0,0,0,0,0,0,0,0,0,0,0,0,0,0,0,0],"id":4,"left_children":[1,3,5,7,9,11,13,15,17,19,21,23,25,27,29,31,33,35,37,39,41,43,-1,45,47,49,51,53,55,57,59,-1,-1,-1,-1,-1,-1,-1,-1,-1,-1,-1,-1,-1,-1,-1,-1,-1,-1,-1,-1,-1,-1,-1,-1,-1,-1,-1,-1,-1,-1],"loss_changes":[6.838225E2,1.26254456E2,1.4918689E2,8.3129364E1,2.6795385E1,5.4116676E1,5.996045E1,2.897638E1,3.5142773E1,1.8279972E1,1.0851807E1,5.338576E1,3.634397E1,1.466745E1,6.447151E1,3.2410034E1,1.0447858E1,2.7915848E1,2.888335E1,2.2148556E1,1.275046E1,5.856716E0,0E0,3.0958004E1,4.6690033E1,1.8944937E1,1.5962387E1,8.413513E0,1.2264816E1,3.2307617E1,2.2070282E1,0E0,0E0,0E0,0E0,0E0,0E0,0E0,0E0,0E0,0E0,0E0,0E0,0E0,0E0,0E0,0E0,0E0,0E0,0E0,0E0,0E0,0E0,0E0,0E0,0E0,0E0,0E0,0E0,0E0,0E0],"parents":[2147483647,0,0,1,1,2,2,3,3,4,4,5,5,6,6,7,7,8,8,9,9,10,10,11,11,12,12,13,13,14,14,15,15,16,16,17,17,18,18,19,19,20,20,21,21,23,23,24,24,25,25,26,26,27,27,28,28,29,29,30,30],"right_children":[2,4,6,8,10,12,14,16,18,20,22,24,26,28,30,32,34,36,38,40,42,44,-1,46,48,50,52,54,56,58,60,-1,-1,-1,-1,-1,-1,-1,-1,-1,-1,-1,-1,-1,-1,-1,-1,-1,-1,-1,-1,-1,-1,-1,-1,-1,-1,-1,-1,-1,-1],"split_conditions":[1.8057454E-2,6.809263E1,2.5985558E-2,1.5118714E-2,1.183649E0,5.7660572E1,-2.0327218E-2,1.462772E0,1.7436942E0,2.0762749E-2,8.526131E1,3.591599E-4,1.1925106E0,-4.450262E-2,1.3802631E0,1.6077928E-2,-2.1585412E-3,3.1538303E1,4.8717274E-3,8.53258E-1,1.2143312E-2,3.3401098E-2,-6.300865E-2,2.5790487E1,1.1641278E-2,5.8739277E1,1.1137878E0,2.7976363E0,-2.4623191E-2,-5.31511E-3,5.4149367E-2,-3.008067E-2,1.5457965E-2,-3.3333804E-2,2.7867382E-2,2.5403429E-2,-1.4679479E-2,-6.7176E-3,5.117277E-2,1.8068163E-2,-1.9771408E-2,-5.6539993E-3,4.7659732E-2,2.5923282E-2,5.9467655E-2,4.35774E-2,4.5015006E-3,-2.457798E-2,7.913875E-3,3.9689563E-2,-1.8355219E-2,2.1023408E-2,5.169884E-2,6.632019E-2,2.0817954E-2,2.3745349E-2,4.4964418E-2,2.2627259E-2,-3.3271365E-2,2.3806227E-2,-1.7416662E-2],"split_indices":[5,4,5,5,12,4,0,12,12,0,4,8,12,0,12,8,8,4,8,12,5,11,0,4,8,4,10,12,11,0,7,0,0,0,0,0,0,0,0,0,0,0,0,0,0,0,0,0,0,0,0,0,0,0,0,0,0,0,0,0,0],"split_type":[0,0,0,0,0,0,0,0,0,0,0,0,0,0,0,0,0,0,0,0,0,0,0,0,0,0,0,0,0,0,0,0,0,0,0,0,0,0,0,0,0,0,0,0,0,0,0,0,0,0,0,0,0,0,0,0,0,0,0,0,0],"sum_hessian":[7.1133037E3,2.9811946E3,4.1321094E3,2.7136204E3,2.6757422E2,2.348898E3,1.7832113E3,1.702591E3,1.0110295E3,2.0570569E2,6.1868534E1,1.7716147E3,5.772831E2,3.7885046E2,1.4043608E3,1.6640685E3,3.8522472E1,9.2601886E2,8.5010635E1,1.5420532E2,5.150037E1,6.0372196E1,1.4963385E0,1.285155E3,4.8645978E2,1.0038049E2,4.769026E2,8.865213E1,2.9019833E2,1.1803247E2,1.2863284E3,1.6246095E3,3.9459057E1,8.0496435E0,3.047283E1,4.479903E1,8.812198E2,4.513853E1,3.9872105E1,6.945406E1,8.475126E1,1.58838415E1,3.5616528E1,2.3780346E1,3.659185E1,5.1884056E1,1.233271E3,3.1779587E2,1.6866391E2,1.5855772E1,8.452473E1,4.3010556E2,4.6797E1,7.559919E1,1.3052937E1,1.2068111E2,1.6951723E2,3.6885372E1,8.11471E1,1.2536759E3,3.265243E1],"tree_param":{"num_deleted":"0","num_feature":"13","num_nodes":"61","size_leaf_vector":"1"}},{"base_weights":[-7.3934114E-3,-2.3721321E-1,3.6637837E-1,-4.7193918E-1,-4.6949103E-2,9.901941E-1,3.203059E-1,-5.454314E-1,1.8765175E-1,-8.558708E-2,6.4688087E-1,7.811662E-2,1.0912576E0,2.3253179E-1,6.057268E-1,-5.746299E-1,5.918729E-1,2.6524039E-2,7.4596167E-1,1.0679461E0,-9.5387086E-2,1.6164178E-1,9.331788E-1,5.8322394E-1,-7.2460383E-1,1.3341072E0,8.4319127E-1,1.2265577E-1,4.7470832E-1,6.8238306E-1,-2.799475E-1,2.4478529E-2,-2.9758334E-2,1.1797133E-2,6.767189E-2,2.8508916E-2,-7.876596E-3,-1.1005888E-2,5.9246745E-2,6.4178295E-2,-5.8233775E-2,-1.4383224E-2,-1.5775843E-3,-7.337486E-3,5.4985102E-2,5.0062586E-2,-1.3898313E-2,-2.51848E-2,6.936669E-2,-4.387531E-3,-7.649361E-2,6.815857E-2,-1.7400794E-2,-2.2644741E-2,4.4308607E-2,5.255381E-3,5.679478E-2,1.3781597E-2,3.217401E-2,4.095574E-2,2.3905372E-2,3.2278907E-2,-3.828587E-2],"categories":[],"categories_nodes":[],"categories_segments":[],"categories_sizes":[],"default_left":[0,0,0,0,0,0,0,0,0,0,0,0,0,0,0,0,0,0,0,0,0,0,0,0,0,0,0,0,0,0,0,0,0,0,0,0,0,0,0,0,0,0,0,0,0,0,0,0,0,0,0,0,0,0,0,0,0,0,0,0,0,0,0],"id":5,"left_children":[1,3,5,7,9,11,13,15,17,19,21,23,25,27,29,31,33,35,37,39,41,43,45,47,49,51,53,55,57,59,61,-1,-1,-1,-1,-1,-1,-1,-1,-1,-1,-1,-1,-1,-1,-1,-1,-1,-1,-1,-1,-1,-1,-1,-1,-1,-1,-1,-1,-1,-1,-1,-1],"loss_changes":[6.125068E2,1.97173E2,7.771265E1,9.592062E1,6.54626E1,1.708255E1,6.3234802E1,5.9408203E1,1.7873632E1,2.6238253E1,1.7744991E1,8.3921995E0,8.971222E0,5.146692E1,4.054326E1,3.820465E1,1.1882958E1,1.56391E1,1.91371E1,1.0910355E1,2.8140926E1,1.43397045E1,6.940605E0,1.1727268E1,3.9876022E0,4.5306854E0,5.171112E0,2.3588451E1,2.0115799E1,1.4895004E1,2.2098845E1,0E0,0E0,0E0,0E0,0E0,0E0,0E0,0E0,0E0,0E0,0E0,0E0,0E0,0E0,0E0,0E0,0E0,0E0,0E0,0E0,0E0,0E0,0E0,0E0,0E0,0E0,0E0,0E0,0E0,0E0,0E0,0E0],"parents":[2147483647,0,0,1,1,2,2,3,3,4,4,5,5,6,6,7,7,8,8,9,9,10,10,11,11,12,12,13,13,14,14,15,15,16,16,17,17,18,18,19,19,20,20,21,21,22,22,23,23,24,24,25,25,26,26,27,27,28,28,29,29,30,30],"right_children":[2,4,6,8,10,12,14,16,18,20,22,24,26,28,30,32,34,36,38,40,42,44,46,48,50,52,54,56,58,60,62,-1,-1,-1,-1,-1,-1,-1,-1,-1,-1,-1,-1,-1,-1,-1,-1,-1,-1,-1,-1,-1,-1,-1,-1,-1,-1,-1,-1,-1,-1,-1,-1],"split_conditions":[2.2240683E-2,1.5257581E-2,-7.158647E-2,6.809263E1,7.036835E1,-2.4261525E-1,3.3075295E-2,1.4733299E0,2.0762749E-2,2.3273388E1,4.4526555E-2,1.3201626E1,-9.0217605E-2,3.17168E-2,1.1134447E-1,-4.06122E-2,1.6875609E0,7.530411E1,1.1887653E-2,2.1808283E-2,-2.347011E-2,4.0009942E-2,2.142353E0,1.667507E-1,-1.6615896E-3,3.7403E1,-5.011013E-2,8.014676E1,9.526841E-1,5.374372E1,-4.0936028E-3,2.4478529E-2,-2.9758334E-2,1.1797133E-2,6.767189E-2,2.8508916E-2,-7.876596E-3,-1.1005888E-2,5.9246745E-2,6.4178295E-2,-5.8233775E-2,-1.4383224E-2,-1.5775843E-3,-7.337486E-3,5.4985102E-2,5.0062586E-2,-1.3898313E-2,-2.51848E-2,6.936669E-2,-4.387531E-3,-7.649361E-2,6.815857E-2,-1.7400794E-2,-2.2644741E-2,4.4308607E-2,5.255381E-3,5.679478E-2,1.3781597E-2,3.217401E-2,4.095574E-2,2.3905372E-2,3.2278907E-2,-3.828587E-2],"split_indices":[5,5,1,4,4,7,5,12,0,4,11,3,1,11,1,1,12,3,5,5,11,0,12,10,0,3,0,3,6,3,0,0,0,0,0,0,0,0,0,0,0,0,0,0,0,0,0,0,0,0,0,0,0,0,0,0,0,0,0,0,0,0,0],"split_type":[0,0,0,0,0,0,0,0,0,0,0,0,0,0,0,0,0,0,0,0,0,0,0,0,0,0,0,0,0,0,0,0,0,0,0,0,0,0,0,0,0,0,0,0,0,0,0,0,0,0,0,0,0,0,0,0,0,0,0,0,0,0,0],"sum_hessian":[7.1284385E3,4.4144844E3,2.7139539E3,1.975661E3,2.4388235E3,1.8524654E2,2.5287073E3,1.777755E3,1.9790598E2,2.3110051E3,1.278185E2,1.8655682E1,1.6659085E2,1.9353524E3,5.933549E2,1.7337388E3,4.4016273E1,1.5439519E2,4.3510796E1,1.8558512E1,2.2924465E3,4.8010796E1,7.98077E1,1.1618344E1,7.0373373E0,8.196827E1,8.462258E1,1.3323629E3,6.029895E2,5.4630133E2,4.705356E1,3.2391624E1,1.701347E3,3.0889402E1,1.3126869E1,3.8519768E1,1.1587541E2,1.3749613E1,2.9761183E1,1.7311687E1,1.2468245E0,5.7051196E2,1.7219346E3,3.676703E1,1.1243766E1,7.572485E1,4.082843E0,5.0992527E0,6.5190916E0,4.5488286E0,2.4885087E0,8.076244E1,1.205823E0,2.4100637E0,8.221252E1,1.3107657E3,2.1597225E1,2.7786475E2,3.2512473E2,3.2545108E2,2.2085028E2,1.6082666E1,3.0970894E1],"tree_param":{"num_deleted":"0","num_feature":"13","num_nodes":"63","size_leaf_vector":"1"}},{"base_weights":[7.6125056E-4,-2.1847303E-1,3.8458642E-1,-2.9445297E-1,3.275938E-1,9.31349E-1,3.3761808E-1,-5.0544614E-1,-1.2523715E-1,1.1310041E-1,7.728426E-1,1.0304737E0,3.8433164E-1,2.496705E-1,7.073034E-1,-5.3314805E-1,5.236059E-1,-6.2072773E-2,-3.693312E-1,5.03093E-3,8.465738E-1,-9.120421E-1,8.184744E-1,1.3058285E0,7.7383566E-1,6.598164E-1,-1.1368798E0,8.5960925E-2,4.6271196E-1,1.3162764E0,5.50414E-1,1.817132E-2,-2.8081954E-2,5.4003175E-2,7.638421E-3,5.2064504E-3,-7.0734373E-3,-3.102923E-2,-9.87613E-3,1.7942494E-2,-7.611909E-3,-1.8541874E-2,5.284483E-2,3.061447E-2,-7.571685E-2,4.259131E-2,-6.851063E-2,6.804519E-2,7.9488935E-4,2.5317061E-3,4.5030575E-2,3.9396908E-2,-5.882287E-2,-1.1038084E-2,-7.86312E-2,1.3106759E-2,-1.7004954E-3,3.939536E-2,1.8388476E-2,7.033413E-2,3.494419E-2,3.2760303E-2,-9.696199E-3],"categories":[],"categories_nodes":[],"categories_segments":[],"categories_sizes":[],"default_left":[0,0,0,0,0,0,0,0,0,0,0,0,0,0,0,0,0,0,0,0,0,0,0,0,0,0,0,0,0,0,0,0,0,0,0,0,0,0,0,0,0,0,0,0,0,0,0,0,0,0,0,0,0,0,0,0,0,0,0,0,0,0,0],"id":6,"left_children":[1,3,5,7,9,11,13,15,17,19,21,23,25,27,29,31,33,35,37,39,41,43,45,47,49,51,53,55,57,59,61,-1,-1,-1,-1,-1,-1,-1,-1,-1,-1,-1,-1,-1,-1,-1,-1,-1,-1,-1,-1,-1,-1,-1,-1,-1,-1,-1,-1,-1,-1,-1,-1],"loss_changes":[5.939357E2,1.8648354E2,6.558011E1,1.4075565E2,5.2361694E1,1.0579498E1,7.670093E1,5.0309753E1,3.3743965E1,2.9467623E1,1.4461044E1,1.1057053E1,1.4431665E1,6.663284E1,4.263855E1,4.3873047E1,9.432902E0,2.2989386E1,1.9303802E1,1.8142984E1,1.2616024E1,5.6798596E0,1.3883369E1,5.7275696E0,8.283237E0,7.5789776E0,1.7976913E0,2.2882286E1,2.5350021E1,4.166336E0,2.8410828E1,0E0,0E0,0E0,0E0,0E0,0E0,0E0,0E0,0E0,0E0,0E0,0E0,0E0,0E0,0E0,0E0,0E0,0E0,0E0,0E0,0E0,0E0,0E0,0E0,0E0,0E0,0E0,0E0,0E0,0E0,0E0,0E0],"parents":[2147483647,0,0,1,1,2,2,3,3,4,4,5,5,6,6,7,7,8,8,9,9,10,10,11,11,12,12,13,13,14,14,15,15,16,16,17,17,18,18,19,19,20,20,21,21,22,22,23,23,24,24,25,25,26,26,27,27,28,28,29,29,30,30],"right_children":[2,4,6,8,10,12,14,16,18,20,22,24,26,28,30,32,34,36,38,40,42,44,46,48,50,52,54,56,58,60,62,-1,-1,-1,-1,-1,-1,-1,-1,-1,-1,-1,-1,-1,-1,-1,-1,-1,-1,-1,-1,-1,-1,-1,-1,-1,-1,-1,-1,-1,-1,-1,-1],"split_conditions":[2.2814434E-2,6.005921E-2,-6.815293E-2,1.5257581E-2,1.5433792E0,3.0826666E0,2.6803697E-2,1.4568214E0,4.1136425E-3,1.096996E0,5.5512764E1,2.8399128E1,-4.8914542E-3,1.6522182E-3,-5.4471972E-3,-5.097301E-3,-4.6975172E-5,1.2171575E0,7.493776E-3,9.853839E-1,2.5482536E-3,1.7436942E0,2.2653012E0,1.2952498E-1,2.7629102E-2,4.0370193E-1,-3.9494134E-2,-3.312586E-2,-6.79593E-2,2.5546384E0,2.682157E-1,1.817132E-2,-2.8081954E-2,5.4003175E-2,7.638421E-3,5.2064504E-3,-7.0734373E-3,-3.102923E-2,-9.87613E-3,1.7942494E-2,-7.611909E-3,-1.8541874E-2,5.284483E-2,3.061447E-2,-7.571685E-2,4.259131E-2,-6.851063E-2,6.804519E-2,7.9488935E-4,2.5317061E-3,4.5030575E-2,3.9396908E-2,-5.882287E-2,-1.1038084E-2,-7.86312E-2,1.3106759E-2,-1.7004954E-3,3.939536E-2,1.8388476E-2,7.033413E-2,3.494419E-2,3.2760303E-2,-9.696199E-3],"split_indices":[5,2,1,5,12,12,8,12,8,10,4,4,8,9,1,9,9,12,8,12,9,12,12,10,5,10,10,2,2,12,2,0,0,0,0,0,0,0,0,0,0,0,0,0,0,0,0,0,0,0,0,0,0,0,0,0,0,0,0,0,0,0,0],"split_type":[0,0,0,0,0,0,0,0,0,0,0,0,0,0,0,0,0,0,0,0,0,0,0,0,0,0,0,0,0,0,0,0,0,0,0,0,0,0,0,0,0,0,0,0,0,0,0,0,0,0,0,0,0,0,0,0,0,0,0,0,0,0,0],"sum_hessian":[7.0562593E3,4.4913237E3,2.5649355E3,3.9431355E3,5.481885E2,2.0141507E2,2.3635205E3,1.7540475E3,2.189088E3,3.7080942E2,1.7737907E2,1.6976775E2,3.1647326E1,1.9106542E3,4.528664E2,1.7085359E3,4.551154E1,1.7400646E3,4.4902338E2,3.2406827E2,4.674114E1,4.176628E0,1.7320245E2,7.9925285E1,8.984247E1,2.7274323E1,4.3730044E0,1.0812114E3,8.294427E2,9.12573E1,3.616091E2,5.2259014E1,1.6562769E3,1.743583E1,2.8075712E1,5.624212E2,1.1776433E3,1.8129094E2,2.6773245E2,9.932603E1,2.2474225E2,6.7731175E0,3.996802E1,1.1781888E0,2.998439E0,1.712044E2,1.9980508E0,7.659973E1,3.3255491E0,1.3608903E1,7.623357E1,2.6029106E1,1.2452166E0,1.8951759E0,2.4778283E0,4.375277E2,6.436838E2,1.8578754E2,6.4365515E2,7.8486E1,1.2771303E1,3.170875E2,4.4521595E1],"tree_param":{"num_deleted":"0","num_feature":"13","num_nodes":"63","size_leaf_vector":"1"}},{"base_weights":[1.1415632E-3,-2.3118466E-1,3.222369E-1,-4.2891657E-1,-6.1680894E-2,9.698072E-1,2.8245026E-1,-5.089422E-1,2.5585273E-1,-1.2144143E-1,2.850812E-1,1.0057333E0,-6.9332466E-2,1.6995564E-1,4.3844894E-1,-5.406008E-1,1.398786E-1,1.4085135E-1,1.0899334E0,-5.8075458E-2,-3.9408547E-1,-9.182186E-2,6.3837403E-1,1.1454525E0,3.035118E-1,-8.233545E-3,3.5050833E-1,-7.3110324E-1,4.6506602E-1,2.9531196E-2,-2.8062526E-2,-4.0372755E-2,1.2695054E-2,-1.2895936E-2,1.9430472E-2,7.3633455E-2,8.157889E-3,5.505202E-3,-8.493204E-3,-2.449505E-2,1.7519046E-2,4.2903807E-2,-1.6922647E-2,-1.7966142E-2,4.258531E-2,5.8936846E-2,-4.0640317E-2,3.3620093E-2,-2.5034914E-2,1.9063927E-2,-5.295511E-3,3.475151E-2,1.5861068E-2,2.5528837E-2,-8.611103E-2,2.0165695E-2,3.600934E-2],"categories":[],"categories_nodes":[],"categories_segments":[],"categories_sizes":[],"default_left":[0,0,0,0,0,0,0,0,0,0,0,0,0,0,0,0,0,0,0,0,0,0,0,0,0,0,0,0,0,0,0,0,0,0,0,0,0,0,0,0,0,0,0,0,0,0,0,0,0,0,0,0,0,0,0,0,0],"id":7,"left_children":[1,3,5,7,9,11,13,15,17,19,21,23,-1,25,27,29,31,33,35,37,39,41,43,45,47,49,51,53,55,-1,-1,-1,-1,-1,-1,-1,-1,-1,-1,-1,-1,-1,-1,-1,-1,-1,-1,-1,-1,-1,-1,-1,-1,-1,-1,-1,-1],"loss_changes":[5.2799347E2,1.3760909E2,7.6279144E1,1.03989136E2,4.587856E1,1.5919861E1,4.9074417E1,3.493921E1,1.8932724E1,3.259051E1,4.3402596E1,1.6290298E1,0E0,5.2407574E1,3.6849457E1,3.8139465E1,8.820374E0,1.749052E1,8.259367E0,2.8838497E1,2.5553204E1,3.739167E1,3.609379E1,1.0153397E1,9.08883E0,3.1267778E1,9.058228E0,3.3474285E1,1.7784698E1,0E0,0E0,0E0,0E0,0E0,0E0,0E0,0E0,0E0,0E0,0E0,0E0,0E0,0E0,0E0,0E0,0E0,0E0,0E0,0E0,0E0,0E0,0E0,0E0,0E0,0E0,0E0,0E0],"parents":[2147483647,0,0,1,1,2,2,3,3,4,4,5,5,6,6,7,7,8,8,9,9,10,10,11,11,13,13,14,14,15,15,16,16,17,17,18,18,19,19,20,20,21,21,22,22,23,23,24,24,25,25,26,26,27,27,28,28],"right_children":[2,4,6,8,10,12,14,16,18,20,22,24,-1,26,28,30,32,34,36,38,40,42,44,46,48,50,52,54,56,-1,-1,-1,-1,-1,-1,-1,-1,-1,-1,-1,-1,-1,-1,-1,-1,-1,-1,-1,-1,-1,-1,-1,-1,-1,-1,-1,-1],"split_conditions":[2.1188729E-2,1.5118714E-2,-1.12465825E-2,6.809263E1,1.1849411E-2,-3.0237855E-3,2.835013E-2,1.3346868E0,1.1739866E0,4.1136425E-3,1.4101995E0,2.7976363E0,-6.9332466E-2,6.734654E-5,1.1739866E0,-4.1413162E-2,-2.0904688E-2,9.582478E-3,1.4216319E0,1.2780606E0,1.3681728E-2,1.2026186E-2,8.6878035E-3,2.5806075E-2,-6.8441755E-3,3.5155407E1,4.069038E1,-5.4641166E-3,3.493764E-2,2.9531196E-2,-2.8062526E-2,-4.0372755E-2,1.2695054E-2,-1.2895936E-2,1.9430472E-2,7.3633455E-2,8.157889E-3,5.505202E-3,-8.493204E-3,-2.449505E-2,1.7519046E-2,4.2903807E-2,-1.6922647E-2,-1.7966142E-2,4.258531E-2,5.8936846E-2,-4.0640317E-2,3.3620093E-2,-2.5034914E-2,1.9063927E-2,-5.295511E-3,3.475151E-2,1.5861068E-2,2.5528837E-2,-8.611103E-2,2.0165695E-2,3.600934E-2],"split_indices":[5,5,9,4,8,1,5,12,12,8,12,12,0,9,12,1,1,0,12,12,7,7,1,0,8,4,4,0,8,0,0,0,0,0,0,0,0,0,0,0,0,0,0,0,0,0,0,0,0,0,0,0,0,0,0,0,0],"split_type":[0,0,0,0,0,0,0,0,0,0,0,0,0,0,0,0,0,0,0,0,0,0,0,0,0,0,0,0,0,0,0,0,0,0,0,0,0,0,0,0,0,0,0,0,0,0,0,0,0,0,0,0,0,0,0,0,0],"sum_hessian":[7.0757695E3,4.105526E3,2.9702437E3,1.8942677E3,2.211258E3,1.7057512E2,2.7996685E3,1.6962877E3,1.9797997E2,1.886748E3,3.2450995E2,1.685782E2,1.9969096E0,1.6278639E3,1.1718047E3,1.6175287E3,7.8759056E1,1.7501773E2,2.2962227E1,1.5319226E3,3.5482544E2,1.5736668E2,1.6714325E2,1.4007639E2,2.8501818E1,8.197747E2,8.080892E2,2.5485954E1,1.1463187E3,2.8502714E1,1.589026E3,7.807812E0,7.095124E1,6.705338E1,1.07964355E2,1.5834105E1,7.128123E0,6.116882E2,9.2023444E2,3.1466843E2,4.0157032E1,3.1925735E1,1.2544095E2,2.9323029E1,1.3782022E2,1.3812672E2,1.9496686E0,1.9651567E1,8.850249E0,1.6377484E2,6.559999E2,6.94455E1,7.386437E2,1.1528191E1,1.3957763E1,9.2500226E2,2.2131642E2],"tree_param":{"num_deleted":"0","num_feature":"13","num_nodes":"57","size_leaf_vector":"1"}},{"base_weights":[3.707383E-3,-3.074522E-1,2.2607996E-1,-3.7356618E-1,2.5529325E-1,8.641886E-2,4.3216044E-1,-4.999555E-1,-2.363202E-1,4.838297E-2,5.492361E-1,4.477454E-2,4.9610245E-1,9.422489E-1,3.691481E-1,5.7720184E-1,-5.3339845E-1,-2.1040745E-1,-1.0040431E0,-2.7206826E-1,2.4780422E-1,4.064144E-2,6.9073385E-1,2.1590947E-1,-4.4695117E-2,-4.8777202E-1,5.5371374E-1,9.753671E-1,-7.0986414E-1,2.5904703E-1,5.737775E-1,4.7385026E-4,6.6057704E-2,-2.9511789E-2,-5.2287267E-3,-1.24552585E-2,2.375436E-2,-2.157734E-2,-7.917152E-2,3.30916E-2,-3.413934E-2,-3.172721E-2,1.896692E-2,-4.8569664E-2,2.3049755E-2,6.696465E-2,2.8989375E-2,1.1648296E-2,-5.422012E-2,-2.0850051E-2,1.7840991E-3,3.7036133E-3,-6.4494595E-2,2.3456521E-2,6.2019106E-2,4.247601E-2,7.307496E-2,-6.877213E-2,2.6829803E-2,1.0458327E-2,3.182969E-2,3.260795E-2,-1.1330075E-2],"categories":[],"categories_nodes":[],"categories_segments":[],"categories_sizes":[],"default_left":[0,0,0,0,0,0,0,0,0,0,0,0,0,0,0,0,0,0,0,0,0,0,0,0,0,0,0,0,0,0,0,0,0,0,0,0,0,0,0,0,0,0,0,0,0,0,0,0,0,0,0,0,0,0,0,0,0,0,0,0,0,0,0],"id":8,"left_children":[1,3,5,7,9,11,13,15,17,19,21,23,25,27,29,31,33,35,37,39,41,43,45,47,49,51,53,55,57,59,61,-1,-1,-1,-1,-1,-1,-1,-1,-1,-1,-1,-1,-1,-1,-1,-1,-1,-1,-1,-1,-1,-1,-1,-1,-1,-1,-1,-1,-1,-1,-1,-1],"loss_changes":[4.8908487E2,1.0970447E2,1.18608826E2,4.561978E1,1.884718E1,4.1920048E1,5.3166565E1,4.9723267E1,2.4973747E1,1.1776054E1,9.190815E0,3.4194386E1,1.3122017E1,1.0673325E1,3.327516E1,1.7636831E1,3.2378387E1,3.263797E1,1.2939388E1,2.7593008E1,1.3408848E1,1.2761382E1,6.4303513E0,1.7256386E1,4.391361E1,5.9875145E0,1.1885849E1,9.7247925E0,4.192273E0,1.8065819E1,3.265419E1,0E0,0E0,0E0,0E0,0E0,0E0,0E0,0E0,0E0,0E0,0E0,0E0,0E0,0E0,0E0,0E0,0E0,0E0,0E0,0E0,0E0,0E0,0E0,0E0,0E0,0E0,0E0,0E0,0E0,0E0,0E0,0E0],"parents":[2147483647,0,0,1,1,2,2,3,3,4,4,5,5,6,6,7,7,8,8,9,9,10,10,11,11,12,12,13,13,14,14,15,15,16,16,17,17,18,18,19,19,20,20,21,21,22,22,23,23,24,24,25,25,26,26,27,27,28,28,29,29,30,30],"right_children":[2,4,6,8,10,12,14,16,18,20,22,24,26,28,30,32,34,36,38,40,42,44,46,48,50,52,54,56,58,60,62,-1,-1,-1,-1,-1,-1,-1,-1,-1,-1,-1,-1,-1,-1,-1,-1,-1,-1,-1,-1,-1,-1,-1,-1,-1,-1,-1,-1,-1,-1,-1,-1],"split_conditions":[1.8000139E-2,5.738855E-2,2.6402555E-2,1.3938281E-2,9.442887E-1,6.61745E1,-1.0620833E-2,-1.5212176E-2,1.2492823E-2,8.1463605E-3,9.3645823E-1,-4.2004E-2,-8.166569E-3,4.862641E-1,4.2341154E-2,-2.86195E-2,3.9866228E-2,4.8580226E-2,6.1000973E1,7.2319454E-1,7.2114176E-1,2.3569714E-3,1.1339663E-2,2.0205053E-2,-6.986105E-3,6.5842997E-3,4.7283284E-2,2.9820433E-1,5.565297E-3,3.9434757E-2,2.682157E-1,4.7385026E-4,6.6057704E-2,-2.9511789E-2,-5.2287267E-3,-1.24552585E-2,2.375436E-2,-2.157734E-2,-7.917152E-2,3.30916E-2,-3.413934E-2,-3.172721E-2,1.896692E-2,-4.8569664E-2,2.3049755E-2,6.696465E-2,2.8989375E-2,1.1648296E-2,-5.422012E-2,-2.0850051E-2,1.7840991E-3,3.7036133E-3,-6.4494595E-2,2.3456521E-2,6.2019106E-2,4.247601E-2,7.307496E-2,-6.877213E-2,2.6829803E-2,1.0458327E-2,3.182969E-2,3.260795E-2,-1.1330075E-2],"split_indices":[5,2,5,5,10,4,9,7,7,11,6,2,11,10,11,1,2,11,4,10,6,11,0,1,7,9,0,10,1,5,2,0,0,0,0,0,0,0,0,0,0,0,0,0,0,0,0,0,0,0,0,0,0,0,0,0,0,0,0,0,0,0,0],"split_type":[0,0,0,0,0,0,0,0,0,0,0,0,0,0,0,0,0,0,0,0,0,0,0,0,0,0,0,0,0,0,0,0,0,0,0,0,0,0,0,0,0,0,0,0,0,0,0,0,0,0,0,0,0,0,0,0,0,0,0,0,0,0,0],"sum_hessian":[7.0663745E3,2.9450574E3,4.1213174E3,2.6357349E3,3.0932245E2,2.4573716E3,1.6639456E3,1.3707622E3,1.2649727E3,1.8221999E2,1.27102455E2,2.2316353E3,2.2573633E2,1.814163E2,1.4825293E3,4.0787453E1,1.3299749E3,1.224903E3,4.0069744E1,6.975921E1,1.12460785E2,2.7945023E1,9.915743E1,7.6567035E2,1.4659648E3,1.2073903E1,2.1366243E2,1.7825267E2,3.1636271E0,9.653743E2,5.1715497E2,2.370808E1,1.7079372E1,1.1739945E3,1.5598036E2,1.160052E3,6.4850945E1,2.1032366E1,1.903738E1,2.1121439E1,4.8637768E1,1.4093769E1,9.836702E1,7.816144E0,2.012888E1,1.2867338E1,8.629009E1,7.5656714E2,9.103204E0,2.5954892E2,1.206416E3,7.6341925E0,4.4397106E0,1.9172862E2,2.1933802E1,1.4377942E2,3.447325E1,1.9949142E0,1.1687129E0,8.5408844E2,1.1128592E2,4.711957E2,4.5959248E1],"tree_param":{"num_deleted":"0","num_feature":"13","num_nodes":"63","size_leaf_vector":"1"}},{"base_weights":[1.6471847E-3,-2.1581548E-1,2.9591954E-1,-2.8817764E-1,3.425733E-1,2.1726984E-1,5.5596256E-1,-4.7075188E-1,-1.255721E-1,1.3289796E-1,8.997689E-1,9.951406E-1,1.9093633E-1,6.149184E-1,-2.3308474E-1,-5.149054E-1,-1.7542908E-3,3.127441E-2,-2.3310347E-1,2.6455365E-2,8.4501326E-1,-1.4477551E-1,1.0052694E0,4.9208516E-1,1.4714115E0,9.394695E-2,3.8909963E-1,6.685092E-1,8.451746E-2,1.3163991E-1,-9.8161674E-1,-1.8623346E-2,-3.2440472E-2,-3.242118E-3,5.4799493E-2,-7.855869E-3,1.6138816E-2,-8.363004E-3,-2.636381E-2,-1.3529956E-2,1.3694401E-2,-2.4625834E-4,5.6741208E-2,3.2328084E-2,-5.7185024E-2,1.5681591E-3,5.435424E-2,-8.3238736E-2,3.6077034E-2,7.6883964E-2,1.951398E-2,1.0713779E-2,-6.188096E-3,1.1327315E-2,2.6858572E-2,4.3478098E-2,2.2147797E-2,-6.659797E-3,5.3185668E-2,-6.89032E-2,2.931023E-2,2.8970106E-2,-5.712772E-2],"categories":[],"categories_nodes":[],"categories_segments":[],"categories_sizes":[],"default_left":[0,0,0,0,0,0,0,0,0,0,0,0,0,0,0,0,0,0,0,0,0,0,0,0,0,0,0,0,0,0,0,0,0,0,0,0,0,0,0,0,0,0,0,0,0,0,0,0,0,0,0,0,0,0,0,0,0,0,0,0,0,0,0],"id":9,"left_children":[1,3,5,7,9,11,13,15,17,19,21,23,25,27,29,31,33,35,37,39,41,43,45,47,49,51,53,55,57,59,61,-1,-1,-1,-1,-1,-1,-1,-1,-1,-1,-1,-1,-1,-1,-1,-1,-1,-1,-1,-1,-1,-1,-1,-1,-1,-1,-1,-1,-1,-1,-1,-1],"loss_changes":[4.511462E2,1.6390709E2,6.115155E1,1.0650409E2,5.4270912E1,4.6960648E1,3.247609E1,3.5006927E1,3.2051414E1,2.5706646E1,1.4153755E1,1.7277649E1,4.2778976E1,1.8334137E1,1.3519393E1,2.9227936E1,1.0214449E1,4.2536835E1,2.1746563E1,2.1854563E1,1.0870031E1,1.0648425E1,9.175461E0,2.0028622E1,2.1289902E0,3.924205E1,1.749038E1,2.625595E1,1.3043023E1,2.4044432E1,4.72859E0,0E0,0E0,0E0,0E0,0E0,0E0,0E0,0E0,0E0,0E0,0E0,0E0,0E0,0E0,0E0,0E0,0E0,0E0,0E0,0E0,0E0,0E0,0E0,0E0,0E0,0E0,0E0,0E0,0E0,0E0,0E0,0E0],"parents":[2147483647,0,0,1,1,2,2,3,3,4,4,5,5,6,6,7,7,8,8,9,9,10,10,11,11,12,12,13,13,14,14,15,15,16,16,17,17,18,18,19,19,20,20,21,21,22,22,23,23,24,24,25,25,26,26,27,27,28,28,29,29,30,30],"right_children":[2,4,6,8,10,12,14,16,18,20,22,24,26,28,30,32,34,36,38,40,42,44,46,48,50,52,54,56,58,60,62,-1,-1,-1,-1,-1,-1,-1,-1,-1,-1,-1,-1,-1,-1,-1,-1,-1,-1,-1,-1,-1,-1,-1,-1,-1,-1,-1,-1,-1,-1,-1,-1],"split_conditions":[2.1188729E-2,6.005921E-2,3.3075295E-2,1.5118714E-2,1.5818368E0,-7.622556E-2,1.1134447E-1,1.2008243E0,1.2780606E0,1.096996E0,-4.752376E-3,-7.267077E-2,2.608187E-2,3.0826666E0,3.0342573E-1,9.853839E-1,3.3794433E-2,1.8000139E-2,4.8138984E-3,1.3352466E-2,1.0038495E0,1.8268943E-2,7.863377E-3,2.4433233E-2,-1.692597E-2,5.261073E-4,9.6215284E-1,-8.56898E-4,9.080744E-2,4.1206427E-2,-2.5882352E-2,-1.8623346E-2,-3.2440472E-2,-3.242118E-3,5.4799493E-2,-7.855869E-3,1.6138816E-2,-8.363004E-3,-2.636381E-2,-1.3529956E-2,1.3694401E-2,-2.4625834E-4,5.6741208E-2,3.2328084E-2,-5.7185024E-2,1.5681591E-3,5.435424E-2,-8.3238736E-2,3.6077034E-2,7.6883964E-2,1.951398E-2,1.0713779E-2,-6.188096E-3,1.1327315E-2,2.6858572E-2,4.3478098E-2,2.2147797E-2,-6.659797E-3,5.3185668E-2,-6.89032E-2,2.931023E-2,2.8970106E-2,-5.712772E-2],"split_indices":[5,2,5,5,12,1,1,12,12,10,0,11,11,12,2,12,1,5,7,11,12,1,8,5,0,8,6,0,2,11,0,0,0,0,0,0,0,0,0,0,0,0,0,0,0,0,0,0,0,0,0,0,0,0,0,0,0,0,0,0,0,0,0],"split_type":[0,0,0,0,0,0,0,0,0,0,0,0,0,0,0,0,0,0,0,0,0,0,0,0,0,0,0,0,0,0,0,0,0,0,0,0,0,0,0,0,0,0,0,0,0,0,0,0,0,0,0,0,0,0,0,0,0,0,0,0,0,0,0],"sum_hessian":[7.0479043E3,4.0530388E3,2.9948657E3,3.588487E3,4.6455173E2,2.3008208E3,6.940449E2,1.6895536E3,1.8989335E3,3.3843542E2,1.2611632E2,7.4135254E1,2.2266855E3,6.459981E2,4.8046806E1,1.5440884E3,1.454652E2,7.7264856E2,1.126285E3,2.9532864E2,4.3106754E1,1.1535257E1,1.1458106E2,3.704262E1,3.7092632E1,1.4959696E3,7.307158E2,5.864808E2,5.9517384E1,3.2859867E1,1.5186941E1,7.5003314E2,7.940553E2,1.3844936E2,7.015843E0,4.6961005E2,3.0303848E2,9.215803E2,2.0470467E2,1.341644E2,1.6116426E2,1.1210969E1,3.1895786E1,6.6332293E0,4.9020276E0,8.986911E0,1.05594154E2,2.960344E0,3.408228E1,3.4552456E1,2.540177E0,9.634708E2,5.324988E2,3.495307E2,3.8118512E2,3.0857193E2,2.779088E2,4.9398212E1,1.0119172E1,7.134175E0,2.572569E1,1.1763865E0,1.4010554E1],"tree_param":{"num_deleted":"0","num_feature":"13","num_nodes":"63","size_leaf_vector":"1"}},{"base_weights":[5.2337362E-3,-1.9179171E-1,2.7714068E-1,-2.6315767E-1,3.2098767E-1,8.939677E-1,2.4094437E-1,-4.3391255E-1,-1.13061585E-1,6.1832037E-2,6.406511E-1,9.301067E-1,-6.726862E-2,6.514252E-1,2.0268144E-1,4.3032467E-1,-4.6029067E-1,-4.844479E-2,-3.7185425E-1,2.516761E-1,-4.586841E-1,6.716782E-1,-7.512375E-2,7.077064E-1,1.3944693E0,7.2954094E-1,-1.720845E-1,1.4530316E-1,4.97254E-1,5.2825224E-2,-1.5734768E-3,-2.9097944E-2,-1.3516794E-2,-7.273342E-3,5.8832164E-3,-2.8478488E-2,1.9589574E-3,1.5643043E-2,-4.9257543E-2,5.7080266E-5,-5.5611875E-2,3.573651E-2,-3.9468452E-2,4.5276247E-2,-1.4719277E-2,2.598824E-2,7.086509E-2,3.0603666E-2,6.845106E-2,8.733515E-3,-4.536911E-2,6.0532143E-4,1.551713E-2,4.8184596E-2,1.9294193E-2],"categories":[],"categories_nodes":[],"categories_segments":[],"categories_sizes":[],"default_left":[0,0,0,0,0,0,0,0,0,0,0,0,0,0,0,0,0,0,0,0,0,0,0,0,0,0,0,0,0,0,0,0,0,0,0,0,0,0,0,0,0,0,0,0,0,0,0,0,0,0,0,0,0,0,0],"id":10,"left_children":[1,3,5,7,9,11,13,15,17,19,21,23,-1,25,27,29,31,33,35,37,39,41,-1,43,45,47,49,51,53,-1,-1,-1,-1,-1,-1,-1,-1,-1,-1,-1,-1,-1,-1,-1,-1,-1,-1,-1,-1,-1,-1,-1,-1,-1,-1],"loss_changes":[3.758982E2,1.4897293E2,6.5605835E1,9.1500916E1,4.117551E1,1.4445709E1,4.3626022E1,3.828418E1,3.179405E1,2.737572E1,1.5813934E1,1.56445465E1,0E0,1.5378265E1,4.3026848E1,1.4491103E1,3.732187E1,2.4569038E1,3.0899223E1,1.5654099E1,2.2263763E1,1.4412361E1,0E0,2.2254562E1,2.8431702E-1,1.5444168E1,5.6024694E0,4.6943203E1,2.120185E1,0E0,0E0,0E0,0E0,0E0,0E0,0E0,0E0,0E0,0E0,0E0,0E0,0E0,0E0,0E0,0E0,0E0,0E0,0E0,0E0,0E0,0E0,0E0,0E0,0E0,0E0],"parents":[2147483647,0,0,1,1,2,2,3,3,4,4,5,5,6,6,7,7,8,8,9,9,10,10,11,11,13,13,14,14,15,15,16,16,17,17,18,18,19,19,20,20,21,21,23,23,24,24,25,25,26,26,27,27,28,28],"right_children":[2,4,6,8,10,12,14,16,18,20,22,24,-1,26,28,30,32,34,36,38,40,42,-1,44,46,48,50,52,54,-1,-1,-1,-1,-1,-1,-1,-1,-1,-1,-1,-1,-1,-1,-1,-1,-1,-1,-1,-1,-1,-1,-1,-1,-1,-1],"split_conditions":[2.1188729E-2,5.738855E-2,-1.12465825E-2,1.5118714E-2,1.183649E0,4.82515E-1,-1.1014985E-1,-5.097301E-3,4.1136425E-3,1.6497904E-2,3.2314133E-2,4.2404957E-2,-6.726862E-2,3.0826666E0,2.6803697E-2,-3.246895E-2,1.2458263E-2,-3.9148135E-3,1.0146092E-2,1.1257652E0,8.204985E-2,2.2207024E0,-7.512375E-2,-6.489374E-2,1.4919763E0,3.9434757E-2,3.458737E1,1.1824957E-3,4.601942E1,5.2825224E-2,-1.5734768E-3,-2.9097944E-2,-1.3516794E-2,-7.273342E-3,5.8832164E-3,-2.8478488E-2,1.9589574E-3,1.5643043E-2,-4.9257543E-2,5.7080266E-5,-5.5611875E-2,3.573651E-2,-3.9468452E-2,4.5276247E-2,-1.4719277E-2,2.598824E-2,7.086509E-2,3.0603666E-2,6.845106E-2,8.733515E-3,-4.536911E-2,6.0532143E-4,1.551713E-2,4.8184596E-2,1.9294193E-2],"split_indices":[5,2,9,5,12,10,2,9,8,5,8,2,0,12,8,2,2,8,8,12,2,12,0,1,12,5,3,9,3,0,0,0,0,0,0,0,0,0,0,0,0,0,0,0,0,0,0,0,0,0,0,0,0,0,0],"split_type":[0,0,0,0,0,0,0,0,0,0,0,0,0,0,0,0,0,0,0,0,0,0,0,0,0,0,0,0,0,0,0,0,0,0,0,0,0,0,0,0,0,0,0,0,0,0,0,0,0,0,0,0,0,0,0],"sum_hessian":[7.0146226E3,4.0675474E3,2.9470752E3,3.571036E3,4.9651132E2,1.6203928E2,2.785036E3,1.6696682E3,1.9013677E3,2.7486658E2,2.2164476E2,1.6004114E2,1.9981328E0,2.3610472E2,2.5489312E3,4.8998432E1,1.6206698E3,1.5224269E3,3.7894086E2,2.0178682E2,7.307975E1,2.1915848E2,2.4862766E0,1.099203E2,5.012084E1,2.1575311E2,2.0351608E1,2.1346309E3,4.143004E2,2.0250927E1,2.8747505E1,9.866473E2,6.3402246E2,9.611542E2,5.6127264E2,2.5560425E2,1.233366E2,1.9298697E2,8.799852E0,4.348378E1,2.9595974E1,2.1338168E2,5.7767997E0,9.18792E1,1.8041098E1,1.8795599E0,4.8241276E1,1.839247E2,3.1828415E1,1.4347841E1,6.0037665E0,1.1818667E3,9.527642E2,7.837965E1,3.3592078E2],"tree_param":{"num_deleted":"0","num_feature":"13","num_nodes":"55","size_leaf_vector":"1"}},{"base_weights":[-2.9146476E-4,-1.718777E-1,3.0197394E-1,-2.3563232E-1,2.9695877E-1,8.2500947E-1,2.6596746E-1,-4.3719703E-1,-1.2593046E-1,1.0240099E-1,6.784603E-1,8.5951173E-1,-6.505179E-2,1.8020326E-1,4.210948E-1,5.436741E-1,-4.687267E-1,2.4615617E-1,-1.5493764E-1,-6.424814E-2,4.6139625E-1,-1.1589122E0,7.2087955E-1,6.375765E-1,1.2752331E0,1.3487203E-1,7.905665E-1,4.4921958E-1,-7.066145E-1,-9.454093E-3,5.6874197E-2,-2.8489968E-2,-1.3428807E-2,5.5015005E-2,6.1481684E-3,-2.1333799E-2,-6.1806208E-3,1.8156512E-2,-9.530063E-3,-7.042114E-2,2.8931135E-2,-7.0241995E-2,-1.3672425E-2,3.7395936E-2,-6.333297E-2,4.4079587E-2,-1.4023297E-2,4.1522745E-2,7.2789274E-2,3.367257E-2,4.0087425E-3,5.2791905E-2,1.8558247E-2,3.2462057E-2,1.5956538E-2,-7.591693E-2,-3.369888E-3],"categories":[],"categories_nodes":[],"categories_segments":[],"categories_sizes":[],"default_left":[0,0,0,0,0,0,0,0,0,0,0,0,0,0,0,0,0,0,0,0,0,0,0,0,0,0,0,0,0,0,0,0,0,0,0,0,0,0,0,0,0,0,0,0,0,0,0,0,0,0,0,0,0,0,0,0,0],"id":11,"left_children":[1,3,5,7,9,11,13,15,17,19,21,23,-1,25,27,29,31,33,35,37,39,41,43,45,47,49,51,53,55,-1,-1,-1,-1,-1,-1,-1,-1,-1,-1,-1,-1,-1,-1,-1,-1,-1,-1,-1,-1,-1,-1,-1,-1,-1,-1,-1,-1],"loss_changes":[3.6300687E2,1.3352129E2,4.751111E1,8.686249E1,3.9632477E1,1.3057381E1,3.1491241E1,4.3086487E1,2.7526577E1,2.1292877E1,1.4901787E1,1.4019638E1,0E0,4.2217712E1,2.7086105E1,1.9184069E1,2.7002441E1,1.9286362E1,2.006395E1,1.3224503E1,2.5540411E1,5.862117E-1,1.0460686E1,2.417463E1,3.204155E0,4.1929016E1,1.1351021E1,2.1235611E1,1.0755242E1,0E0,0E0,0E0,0E0,0E0,0E0,0E0,0E0,0E0,0E0,0E0,0E0,0E0,0E0,0E0,0E0,0E0,0E0,0E0,0E0,0E0,0E0,0E0,0E0,0E0,0E0,0E0,0E0],"parents":[2147483647,0,0,1,1,2,2,3,3,4,4,5,5,6,6,7,7,8,8,9,9,10,10,11,11,13,13,14,14,15,15,16,16,17,17,18,18,19,19,20,20,21,21,22,22,23,23,24,24,25,25,26,26,27,27,28,28],"right_children":[2,4,6,8,10,12,14,16,18,20,22,24,-1,26,28,30,32,34,36,38,40,42,44,46,48,50,52,54,56,-1,-1,-1,-1,-1,-1,-1,-1,-1,-1,-1,-1,-1,-1,-1,-1,-1,-1,-1,-1,-1,-1,-1,-1,-1,-1,-1,-1],"split_conditions":[2.2814434E-2,6.005921E-2,-1.12465825E-2,1.4021647E-2,1.5433792E0,4.82515E-1,2.8308495E-3,-1.5212176E-2,9.6355426E-1,9.82349E-1,4.4303905E1,3.4295045E-2,-6.505179E-2,3.8495775E-2,3.0342573E-1,2.6731012E1,1.8724589E-2,-5.9287418E-2,1.5118714E-2,1.509078E-2,7.38726E1,2.1278841E-2,2.2653012E0,-4.0594213E-2,3.6641352E-2,2.2984829E1,5.457454E-2,7.2319454E-1,1.5328739E-2,-9.454093E-3,5.6874197E-2,-2.8489968E-2,-1.3428807E-2,5.5015005E-2,6.1481684E-3,-2.1333799E-2,-6.1806208E-3,1.8156512E-2,-9.530063E-3,-7.042114E-2,2.8931135E-2,-7.0241995E-2,-1.3672425E-2,3.7395936E-2,-6.333297E-2,4.4079587E-2,-1.4023297E-2,4.1522745E-2,7.2789274E-2,3.367257E-2,4.0087425E-3,5.2791905E-2,1.8558247E-2,3.2462057E-2,1.5956538E-2,-7.591693E-2,-3.369888E-3],"split_indices":[5,2,9,5,12,10,9,7,12,10,3,2,0,7,2,3,2,11,5,1,3,5,12,2,5,3,1,10,9,0,0,0,0,0,0,0,0,0,0,0,0,0,0,0,0,0,0,0,0,0,0,0,0,0,0,0,0],"split_type":[0,0,0,0,0,0,0,0,0,0,0,0,0,0,0,0,0,0,0,0,0,0,0,0,0,0,0,0,0,0,0,0,0,0,0,0,0,0,0,0,0,0,0,0,0,0,0,0,0,0,0,0,0,0,0,0,0],"sum_hessian":[6.9971265E3,4.463675E3,2.5334517E3,3.929782E3,5.3389307E2,1.6176189E2,2.3716897E3,1.3839484E3,2.5458335E3,3.5441647E2,1.7947656E2,1.597649E2,1.9970015E0,1.5286932E3,8.429965E2,4.2595078E1,1.3413533E3,1.8357375E2,2.3622598E3,2.426138E2,1.1180267E2,3.4561136E0,1.7602045E2,1.0581083E2,5.395406E1,1.4241442E3,1.0454916E2,8.23071E2,1.9925522E1,1.9371902E1,2.3223175E1,8.900474E2,4.5130588E2,2.2139612E1,1.6143413E2,2.4286316E2,2.1193967E3,5.493319E1,1.8768062E2,5.946029E0,1.0585664E2,2.2458072E0,1.2103064E0,1.7427327E2,1.7471783E0,8.362346E1,2.2187368E1,1.719497E1,3.675909E1,1.3025615E2,1.293888E3,6.3112812E1,4.1436348E1,3.2278046E2,5.0029053E2,8.172357E0,1.1753165E1],"tree_param":{"num_deleted":"0","num_feature":"13","num_nodes":"57","size_leaf_vector":"1"}},{"base_weights":[1.5306987E-3,-2.4337003E-1,1.4347045E-1,2.55829E-1,-3.1916746E-1,8.687755E-2,5.716853E-1,1.0767926E-1,7.1770793E-1,-3.9221844E-1,-8.169597E-2,6.767597E-1,4.7536604E-2,6.411157E-1,-9.01675E-2,4.1433236E-1,-3.6818826E-1,-1.1258637E0,8.1854314E-1,-2.0178868E-2,-4.503383E-1,2.0576096E-1,-3.253824E-1,7.504282E-1,-1.12022065E-1,-7.729384E-2,2.0975642E-1,4.8831758E-1,8.5481673E-1,9.913875E-1,-4.088739E-1,3.641479E-2,3.3500057E-3,-2.4707913E-2,3.0611968E-2,-1.11203985E-2,-6.8808034E-2,-4.8274614E-2,4.587644E-2,-2.3882562E-2,9.105955E-3,-3.584626E-2,-1.9564895E-2,-4.0319056E-4,2.4741E-2,-2.0206308E-2,2.79508E-2,2.127085E-2,4.2995784E-2,-3.7722345E-2,3.1618506E-2,-1.0342524E-2,1.2075835E-3,2.823299E-2,7.0811445E-3,4.3047808E-2,1.6889151E-2,6.796944E-2,3.781837E-2,6.322961E-2,-2.7908096E-2,-3.7708543E-2,1.7265288E-2],"categories":[],"categories_nodes":[],"categories_segments":[],"categories_sizes":[],"default_left":[0,0,0,0,0,0,0,0,0,0,0,0,0,0,0,0,0,0,0,0,0,0,0,0,0,0,0,0,0,0,0,0,0,0,0,0,0,0,0,0,0,0,0,0,0,0,0,0,0,0,0,0,0,0,0,0,0,0,0,0,0,0,0],"id":12,"left_children":[1,3,5,7,9,11,13,15,17,19,21,23,25,27,29,31,33,35,37,39,41,43,45,47,49,51,53,55,57,59,61,-1,-1,-1,-1,-1,-1,-1,-1,-1,-1,-1,-1,-1,-1,-1,-1,-1,-1,-1,-1,-1,-1,-1,-1,-1,-1,-1,-1,-1,-1,-1,-1],"loss_changes":[2.4432329E2,9.766408E1,1.07783394E2,2.322349E1,3.881659E1,9.120268E1,2.3918457E1,3.794715E1,1.6261948E1,3.7016663E1,3.7059586E1,1.4362999E1,7.467182E1,1.4931747E1,1.7700712E1,1.7178068E1,1.2903118E1,7.5684977E-1,1.4805088E1,2.15951E1,2.3028473E1,1.5017144E1,2.0156689E1,7.636101E0,1.0930773E1,2.739732E1,3.8694397E1,1.5215134E1,8.640747E0,5.664118E0,1.0537261E1,0E0,0E0,0E0,0E0,0E0,0E0,0E0,0E0,0E0,0E0,0E0,0E0,0E0,0E0,0E0,0E0,0E0,0E0,0E0,0E0,0E0,0E0,0E0,0E0,0E0,0E0,0E0,0E0,0E0,0E0,0E0,0E0],"parents":[2147483647,0,0,1,1,2,2,3,3,4,4,5,5,6,6,7,7,8,8,9,9,10,10,11,11,12,12,13,13,14,14,15,15,16,16,17,17,18,18,19,19,20,20,21,21,22,22,23,23,24,24,25,25,26,26,27,27,28,28,29,29,30,30],"right_children":[2,4,6,8,10,12,14,16,18,20,22,24,26,28,30,32,34,36,38,40,42,44,46,48,50,52,54,56,58,60,62,-1,-1,-1,-1,-1,-1,-1,-1,-1,-1,-1,-1,-1,-1,-1,-1,-1,-1,-1,-1,-1,-1,-1,-1,-1,-1,-1,-1,-1,-1,-1,-1],"split_conditions":[1.1504273E0,-3.6910884E-3,2.4384605E-2,5.1675728E-3,8.525387E-3,-6.2291805E-2,2.682157E-1,1.2952498E-1,-5.6541584E-2,-4.4267457E-2,9.9904037E-1,-3.5569211E-3,1.4058427E-3,3.645815E-2,-7.4221793E-4,-5.4140734E-3,1.2725627E0,-1.02294594E-1,7.4533623E-1,-1.383201E-3,-6.29449E-3,5.2374505E-2,1.0555228E0,8.791824E-1,-8.814152E-2,-2.290635E-2,-5.867309E-2,2.337547E-2,-1.017087E-2,2.4189904E0,1.0105568E0,3.641479E-2,3.3500057E-3,-2.4707913E-2,3.0611968E-2,-1.11203985E-2,-6.8808034E-2,-4.8274614E-2,4.587644E-2,-2.3882562E-2,9.105955E-3,-3.584626E-2,-1.9564895E-2,-4.0319056E-4,2.4741E-2,-2.0206308E-2,2.79508E-2,2.127085E-2,4.2995784E-2,-3.7722345E-2,3.1618506E-2,-1.0342524E-2,1.2075835E-3,2.823299E-2,7.0811445E-3,4.3047808E-2,1.6889151E-2,6.796944E-2,3.781837E-2,6.322961E-2,-2.7908096E-2,-3.7708543E-2,1.7265288E-2],"split_indices":[12,9,8,7,8,1,2,10,11,2,12,9,9,8,9,9,6,11,12,9,7,11,10,6,11,11,2,11,1,12,10,0,0,0,0,0,0,0,0,0,0,0,0,0,0,0,0,0,0,0,0,0,0,0,0,0,0,0,0,0,0,0,0],"split_type":[0,0,0,0,0,0,0,0,0,0,0,0,0,0,0,0,0,0,0,0,0,0,0,0,0,0,0,0,0,0,0,0,0,0,0,0,0,0,0,0,0,0,0,0,0,0,0,0,0,0,0,0,0,0,0,0,0,0,0,0,0,0,0],"sum_hessian":[7.026627E3,2.5779524E3,4.448675E3,3.3951886E2,2.2384333E3,3.9304314E3,5.182432E2,2.57998E2,8.152089E1,1.7113396E3,5.270938E2,2.4472954E2,3.685702E3,4.6906787E2,4.9175327E1,1.5697272E2,1.0102525E2,3.700435E0,7.782046E1,2.3140523E2,1.4799343E3,2.4189992E2,2.8519388E2,2.238698E2,2.0859753E1,2.083185E3,1.6025168E3,2.7542303E2,1.9364484E2,1.071215E1,3.8463177E1,8.1870674E1,7.510205E1,8.9962425E1,1.1062823E1,1.2124894E0,2.4879456E0,3.630656E0,7.41898E1,7.053584E1,1.6086938E2,2.6631076E2,1.2136237E3,1.3960353E2,1.02296394E2,2.6237592E2,2.2817976E1,5.76431E1,1.6622668E2,1.1189495E1,9.670257E0,9.143827E2,1.1688024E3,2.5692468E2,1.3455922E3,7.78906E1,1.9753244E2,2.9523474E1,1.6412137E2,9.262885E0,1.4492643E0,2.6383602E1,1.2079574E1],"tree_param":{"num_deleted":"0","num_feature":"13","num_nodes":"63","size_leaf_vector":"1"}},{"base_weights":[1.2521126E-3,-2.3277235E-1,1.3602473E-1,4.6566707E-1,-2.767001E-1,6.740303E-2,4.0387294E-1,8.823718E-1,1.8704423E-1,-3.3033562E-1,-7.995672E-3,3.7774453E-1,-1.0077984E-2,1.0498451E0,3.6062646E-1,6.27439E-1,1.375467E0,-6.5619336E-3,1.4036963E0,-4.015994E-1,-1.0721034E-1,1.149535E0,-3.4804728E-2,6.774854E-1,2.9297638E-1,-4.9286626E-2,3.2364163E-1,1.1683464E0,2.8693113E-1,1.889123E-1,5.333616E-1,4.4745196E-2,-1.6173648E-2,2.8796721E-2,7.5084664E-2,3.0211104E-2,-1.845042E-2,8.048785E-2,-1.5111304E-2,1.2396336E-2,-2.1238415E-2,3.7413388E-3,-2.6223725E-2,-9.566177E-3,7.6081425E-2,-3.9399113E-3,3.405518E-2,-1.6014681E-3,3.8878534E-2,7.041083E-3,2.9696438E-2,2.2777406E-2,-3.419858E-3,4.4026013E-2,9.234994E-3,2.929488E-3,6.0690254E-2,5.5131186E-2,-4.80928E-2,1.1124879E-2,-4.8729695E-2,2.7537275E-2,-3.718279E-2],"categories":[],"categories_nodes":[],"categories_segments":[],"categories_sizes":[],"default_left":[0,0,0,0,0,0,0,0,0,0,0,0,0,0,0,0,0,0,0,0,0,0,0,0,0,0,0,0,0,0,0,0,0,0,0,0,0,0,0,0,0,0,0,0,0,0,0,0,0,0,0,0,0,0,0,0,0,0,0,0,0,0,0],"id":13,"left_children":[1,3,5,7,9,11,13,15,17,19,21,23,25,27,29,31,33,35,37,39,41,43,45,47,49,51,53,55,57,59,61,-1,-1,-1,-1,-1,-1,-1,-1,-1,-1,-1,-1,-1,-1,-1,-1,-1,-1,-1,-1,-1,-1,-1,-1,-1,-1,-1,-1,-1,-1,-1,-1],"loss_changes":[2.2105171E2,7.8709076E1,8.171648E1,1.7474106E1,3.473465E1,8.516251E1,2.4954483E1,6.7558937E0,2.1754658E1,3.1904785E1,1.2517551E1,1.7779915E1,3.7110794E1,4.7616386E0,2.5154083E1,1.0918617E1,1.1351013E0,1.8074518E1,4.9432487E0,2.3016571E1,3.708671E1,4.8468285E0,1.2461288E1,1.1047989E1,2.5254791E1,2.4514854E1,2.2909746E1,2.3742142E0,1.0131595E1,1.6962528E1,9.820244E0,0E0,0E0,0E0,0E0,0E0,0E0,0E0,0E0,0E0,0E0,0E0,0E0,0E0,0E0,0E0,0E0,0E0,0E0,0E0,0E0,0E0,0E0,0E0,0E0,0E0,0E0,0E0,0E0,0E0,0E0,0E0,0E0],"parents":[2147483647,0,0,1,1,2,2,3,3,4,4,5,5,6,6,7,7,8,8,9,9,10,10,11,11,12,12,13,13,14,14,15,15,16,16,17,17,18,18,19,19,20,20,21,21,22,22,23,23,24,24,25,25,26,26,27,27,28,28,29,29,30,30],"right_children":[2,4,6,8,10,12,14,16,18,20,22,24,26,28,30,32,34,36,38,40,42,44,46,48,50,52,54,56,58,60,62,-1,-1,-1,-1,-1,-1,-1,-1,-1,-1,-1,-1,-1,-1,-1,-1,-1,-1,-1,-1,-1,-1,-1,-1,-1,-1,-1,-1,-1,-1,-1,-1],"split_conditions":[1.1422555E0,-5.66245E-3,6.8088196E-2,-1.5678747E-2,1.2784188E0,-6.920217E-2,-1.5705945E-2,2.8520091E-3,1.9347068E-2,8.525387E-3,-2.332337E-2,-7.158647E-2,5.2374505E-2,2.5546384E0,9.8517275E-1,-6.274049E-3,-8.499308E-3,9.948237E-1,1.8173497E-2,-7.398871E-2,1.0405244E0,-3.6185856E-3,1.7850941E-2,-2.4261525E-1,1.6022879E-3,-9.725482E-3,-9.693406E-3,5.885749E-1,-1.12465825E-2,3.0342573E-1,2.3588527E-2,4.4745196E-2,-1.6173648E-2,2.8796721E-2,7.5084664E-2,3.0211104E-2,-1.845042E-2,8.048785E-2,-1.5111304E-2,1.2396336E-2,-2.1238415E-2,3.7413388E-3,-2.6223725E-2,-9.566177E-3,7.6081425E-2,-3.9399113E-3,3.405518E-2,-1.6014681E-3,3.8878534E-2,7.041083E-3,2.9696438E-2,2.2777406E-2,-3.419858E-3,4.4026013E-2,9.234994E-3,2.929488E-3,6.0690254E-2,5.5131186E-2,-4.80928E-2,1.1124879E-2,-4.8729695E-2,2.7537275E-2,-3.718279E-2],"split_indices":[12,9,2,0,6,2,1,11,7,8,7,1,11,12,6,9,9,12,0,2,12,9,8,7,9,9,0,6,9,2,9,0,0,0,0,0,0,0,0,0,0,0,0,0,0,0,0,0,0,0,0,0,0,0,0,0,0,0,0,0,0,0,0],"split_type":[0,0,0,0,0,0,0,0,0,0,0,0,0,0,0,0,0,0,0,0,0,0,0,0,0,0,0,0,0,0,0,0,0,0,0,0,0,0,0,0,0,0,0,0,0,0,0,0,0,0,0,0,0,0,0,0,0,0,0,0,0,0,0],"sum_hessian":[7.0065913E3,2.560212E3,4.4463794E3,1.5092616E2,2.4092856E3,3.5405547E3,9.05825E2,5.9608925E1,9.131724E1,2.0082032E3,4.010824E2,7.065745E2,2.83398E3,5.5377407E1,8.504476E2,4.07918E1,1.8817123E1,7.9638885E1,1.16783495E1,1.5214641E3,4.8673907E2,8.131041E0,3.9295135E2,1.5422864E2,5.523459E2,2.536786E3,2.971941E2,4.7472248E1,7.9051595E0,4.2753412E2,4.2291345E2,3.1882927E1,8.908874E0,3.3241658E0,1.5492958E1,2.9410357E1,5.0228527E1,1.0470033E1,1.2083174E0,5.2067997E1,1.4693961E3,3.39464E2,1.4727509E2,1.8717853E0,6.2592554E0,3.7104037E2,2.1910978E1,1.9150284E1,1.3507835E2,3.6784146E2,1.8450441E2,9.169447E1,2.4450916E3,5.8278107E1,2.38916E2,1.9581432E0,4.5514103E1,4.8525662E0,3.052593E0,4.1632544E2,1.1208701E1,4.1779477E2,5.1186666E0],"tree_param":{"num_deleted":"0","num_feature":"13","num_nodes":"63","size_leaf_vector":"1"}},{"base_weights":[-7.032136E-3,-1.6361511E-1,2.580259E-1,-3.3198038E-1,-4.2429425E-2,4.2638257E-1,1.3062464E-1,-4.0532944E-1,2.1034382E-1,-6.736882E-2,4.4650492E-1,3.6389157E-1,8.027131E-1,-6.832192E-1,1.8442537E-1,-4.4202554E-1,-1.8807132E-2,-9.132046E-2,4.5371604E-1,-2.497474E-1,-1.8163137E-2,-1.1065179E-1,7.7000666E-1,5.920095E-1,2.1112517E-1,9.5160866E-1,2.7398315E-1,-4.1877168E-1,-1.4173076E0,1.0860358E-1,3.536953E-1,-1.58249E-2,-2.8521389E-2,-4.4289645E-2,3.8891141E-3,-4.2898316E-2,6.150262E-3,3.1181008E-2,-8.370139E-3,4.3202866E-2,-1.50723895E-2,3.7073657E-2,-1.8461274E-3,-2.0711957E-2,3.9662268E-2,4.1877463E-2,-1.5435708E-2,3.1488568E-2,-1.8537905E-3,1.5088458E-3,2.4288492E-2,3.2074083E-2,5.878943E-2,-2.174396E-2,3.1590126E-2,-3.191247E-2,2.7613545E-2,-9.1663346E-2,-2.6201615E-2,1.4307431E-2,7.493802E-4,2.0417737E-2,-2.4236469E-2],"categories":[],"categories_nodes":[],"categories_segments":[],"categories_sizes":[],"default_left":[0,0,0,0,0,0,0,0,0,0,0,0,0,0,0,0,0,0,0,0,0,0,0,0,0,0,0,0,0,0,0,0,0,0,0,0,0,0,0,0,0,0,0,0,0,0,0,0,0,0,0,0,0,0,0,0,0,0,0,0,0,0,0],"id":14,"left_children":[1,3,5,7,9,11,13,15,17,19,21,23,25,27,29,31,33,35,37,39,41,43,45,47,49,51,53,55,57,59,61,-1,-1,-1,-1,-1,-1,-1,-1,-1,-1,-1,-1,-1,-1,-1,-1,-1,-1,-1,-1,-1,-1,-1,-1,-1,-1,-1,-1,-1,-1,-1,-1],"loss_changes":[2.905829E2,8.978742E1,5.5713165E1,7.335512E1,3.1250473E1,2.6037292E1,6.49945E1,2.3009613E1,1.6200336E1,2.186502E1,2.2505602E1,3.3398514E1,1.2225594E1,1.7281326E1,1.7806885E1,2.370752E1,1.1939714E1,1.6390787E1,1.2977724E1,3.007267E1,2.739169E1,1.3107475E1,6.0015717E0,9.175751E0,2.8694735E1,7.8216095E0,9.470636E0,1.5081717E1,7.944275E0,1.5980679E1,1.9890255E1,0E0,0E0,0E0,0E0,0E0,0E0,0E0,0E0,0E0,0E0,0E0,0E0,0E0,0E0,0E0,0E0,0E0,0E0,0E0,0E0,0E0,0E0,0E0,0E0,0E0,0E0,0E0,0E0,0E0,0E0,0E0,0E0],"parents":[2147483647,0,0,1,1,2,2,3,3,4,4,5,5,6,6,7,7,8,8,9,9,10,10,11,11,12,12,13,13,14,14,15,15,16,16,17,17,18,18,19,19,20,20,21,21,22,22,23,23,24,24,25,25,26,26,27,27,28,28,29,29,30,30],"right_children":[2,4,6,8,10,12,14,16,18,20,22,24,26,28,30,32,34,36,38,40,42,44,46,48,50,52,54,56,58,60,62,-1,-1,-1,-1,-1,-1,-1,-1,-1,-1,-1,-1,-1,-1,-1,-1,-1,-1,-1,-1,-1,-1,-1,-1,-1,-1,-1,-1,-1,-1,-1,-1],"split_conditions":[2.2565497E-2,1.5118714E-2,-4.6005854E-3,6.741616E1,7.036835E1,6.0595844E-2,1.1739866E0,1.2008243E0,1.05228E-2,-2.8437197E-2,4.3435756E-2,-5.867309E-2,7.145252E-1,2.6116483E-2,6.778236E1,9.9704003E-1,7.1364623E-1,-8.139971E-4,9.002989E1,-1.02294594E-1,-4.8281293E-2,4.0009942E-2,1.8322073E0,3.0826666E0,3.2714844E-2,1.0185663E-2,5.8063465E1,1.2387015E0,2.6816763E-3,-3.8425643E-2,1.666128E0,-1.58249E-2,-2.8521389E-2,-4.4289645E-2,3.8891141E-3,-4.2898316E-2,6.150262E-3,3.1181008E-2,-8.370139E-3,4.3202866E-2,-1.50723895E-2,3.7073657E-2,-1.8461274E-3,-2.0711957E-2,3.9662268E-2,4.1877463E-2,-1.5435708E-2,3.1488568E-2,-1.8537905E-3,1.5088458E-3,2.4288492E-2,3.2074083E-2,5.878943E-2,-2.174396E-2,3.1590126E-2,-3.191247E-2,2.7613545E-2,-9.1663346E-2,-2.6201615E-2,1.4307431E-2,7.493802E-4,2.0417737E-2,-2.4236469E-2],"split_indices":[5,5,0,4,4,11,12,12,0,11,11,2,10,5,3,12,6,11,3,11,1,0,6,12,2,1,3,6,11,2,6,0,0,0,0,0,0,0,0,0,0,0,0,0,0,0,0,0,0,0,0,0,0,0,0,0,0,0,0,0,0,0,0],"split_type":[0,0,0,0,0,0,0,0,0,0,0,0,0,0,0,0,0,0,0,0,0,0,0,0,0,0,0,0,0,0,0,0,0,0,0,0,0,0,0,0,0,0,0,0,0,0,0,0,0,0,0,0,0,0,0,0,0,0,0,0,0,0,0],"sum_hessian":[6.999376E3,4.400289E3,2.599087E3,1.840924E3,2.559365E3,1.1185769E3,1.4805101E3,1.6218254E3,2.1909845E2,2.4359739E3,1.2339112E2,9.609712E2,1.5760567E2,9.1077736E1,1.3894324E3,1.4810702E3,1.4075523E2,9.8111824E1,1.2098662E2,5.167157E2,1.9192582E3,4.556828E1,7.782284E1,3.8427646E2,5.7669476E2,1.2235069E2,3.5254967E1,6.8111694E1,2.2966043E1,9.6073016E2,4.2870224E2,7.5067053E2,7.3039966E2,1.3290361E1,1.2746487E2,2.077965E1,7.733218E1,9.49967E1,2.5989925E1,2.2223875E1,4.9449185E2,4.532584E1,1.8739324E3,3.4516964E1,1.1051316E1,7.3447586E1,4.375251E0,3.6251483E2,2.1761614E1,3.4831747E2,2.283773E2,5.2955006E1,6.939569E1,1.1754066E1,2.3500898E1,5.5834538E1,1.2277153E1,1.4951491E1,8.014552E0,3.3097372E2,6.297565E2,4.0294592E2,2.5756302E1],"tree_param":{"num_deleted":"0","num_feature":"13","num_nodes":"63","size_leaf_vector":"1"}},{"base_weights":[4.31489E-3,-1.6518715E-1,1.6155533E-1,3.7006187E-1,-2.0895088E-1,1.0953601E-1,5.215685E-1,9.2111546E-1,1.9084616E-1,-2.6600868E-1,3.9556123E-2,5.007351E-1,6.789329E-2,5.932443E-1,-1.2508859E-1,9.9678224E-1,-6.515617E-2,2.518014E-1,-1.0018528E0,-8.8678813E-1,-2.4595231E-1,5.486974E-1,-8.756793E-2,5.760581E-1,-2.7219083E-2,1.8235547E-2,4.3475804E-1,9.391546E-1,4.9280614E-1,-6.619471E-1,4.0043268E-1,5.1969595E-2,-2.1580191E-2,1.426074E-3,3.590178E-2,-6.282012E-2,6.36151E-3,5.36051E-2,-4.7064837E-2,-1.0715439E-2,-2.3585178E-2,5.774628E-3,6.1958898E-2,-1.0453186E-2,2.4467831E-2,6.2391516E-2,2.4567993E-2,8.861062E-3,-8.844365E-2,-1.2915531E-3,1.2628115E-2,-9.933799E-3,2.7509362E-2,-7.0382565E-2,4.9643826E-2,-1.429061E-2,2.8380478E-2,4.8604455E-2,-4.5296073E-2,5.9634566E-2,-1.4252248E-2],"categories":[],"categories_nodes":[],"categories_segments":[],"categories_sizes":[],"default_left":[0,0,0,0,0,0,0,0,0,0,0,0,0,0,0,0,0,0,0,0,0,0,0,0,0,0,0,0,0,0,0,0,0,0,0,0,0,0,0,0,0,0,0,0,0,0,0,0,0,0,0,0,0,0,0,0,0,0,0,0,0],"id":15,"left_children":[1,3,5,7,9,11,13,15,17,19,21,23,25,27,29,31,-1,33,35,37,39,41,43,45,47,49,51,53,55,57,59,-1,-1,-1,-1,-1,-1,-1,-1,-1,-1,-1,-1,-1,-1,-1,-1,-1,-1,-1,-1,-1,-1,-1,-1,-1,-1,-1,-1,-1,-1],"loss_changes":[1.8603035E2,7.8759285E1,6.775313E1,2.4932537E1,4.4047318E1,5.152565E1,2.125E1,1.1755875E1,1.4291609E1,3.1231094E1,3.7639694E1,1.2118393E1,5.212476E1,1.3832275E1,1.3359517E1,4.1402435E0,0E0,1.9188162E1,2.9161673E0,9.409328E0,1.7388138E1,3.460844E1,3.273934E1,1.4543694E1,1.4183483E1,2.6043827E1,2.5051064E1,1.293132E1,1.885685E1,1.018369E1,1.3415653E1,0E0,0E0,0E0,0E0,0E0,0E0,0E0,0E0,0E0,0E0,0E0,0E0,0E0,0E0,0E0,0E0,0E0,0E0,0E0,0E0,0E0,0E0,0E0,0E0,0E0,0E0,0E0,0E0,0E0,0E0],"parents":[2147483647,0,0,1,1,2,2,3,3,4,4,5,5,6,6,7,7,8,8,9,9,10,10,11,11,12,12,13,13,14,14,15,15,17,17,18,18,19,19,20,20,21,21,22,22,23,23,24,24,25,25,26,26,27,27,28,28,29,29,30,30],"right_children":[2,4,6,8,10,12,14,16,18,20,22,24,26,28,30,32,-1,34,36,38,40,42,44,46,48,50,52,54,56,58,60,-1,-1,-1,-1,-1,-1,-1,-1,-1,-1,-1,-1,-1,-1,-1,-1,-1,-1,-1,-1,-1,-1,-1,-1,-1,-1,-1,-1,-1,-1],"split_conditions":[1.3741459E0,-3.6415618E-2,2.4384605E-2,-5.744491E-2,4.772488E-2,-9.848127E-2,2.682157E-1,1.3552715E0,4.7965012E-3,4.6824282E-1,5.4312157E1,3.0826666E0,7.252042E1,-3.9298222E-3,1.0032915E0,-3.0467163E-3,-6.515617E-2,2.8479387E1,-3.768216E-2,-1.4205799E-2,6.889994E1,2.3210121E-2,1.0555228E0,-1.0134941E-1,2.4730389E1,2.1121328E0,-5.5513694E-3,-7.622556E-2,7.3723746E-3,-2.9797034E-2,1.1134447E-1,5.1969595E-2,-2.1580191E-2,1.426074E-3,3.590178E-2,-6.282012E-2,6.36151E-3,5.36051E-2,-4.7064837E-2,-1.0715439E-2,-2.3585178E-2,5.774628E-3,6.1958898E-2,-1.0453186E-2,2.4467831E-2,6.2391516E-2,2.4567993E-2,8.861062E-3,-8.844365E-2,-1.2915531E-3,1.2628115E-2,-9.933799E-3,2.7509362E-2,-7.0382565E-2,4.9643826E-2,-1.429061E-2,2.8380478E-2,4.8604455E-2,-4.5296073E-2,5.9634566E-2,-1.4252248E-2],"split_indices":[12,1,8,1,2,2,2,12,0,12,3,12,3,1,6,0,0,3,1,8,3,8,10,1,4,12,8,1,1,0,1,0,0,0,0,0,0,0,0,0,0,0,0,0,0,0,0,0,0,0,0,0,0,0,0,0,0,0,0,0,0],"split_type":[0,0,0,0,0,0,0,0,0,0,0,0,0,0,0,0,0,0,0,0,0,0,0,0,0,0,0,0,0,0,0,0,0,0,0,0,0,0,0,0,0,0,0,0,0,0,0,0,0,0,0,0,0,0,0,0,0,0,0,0,0],"sum_hessian":[6.977825E3,3.3579607E3,3.6198647E3,2.532424E2,3.1047183E3,3.1639944E3,4.558703E2,6.1132404E1,1.9211E2,2.5249202E3,5.797982E2,3.0334E2,2.8606543E3,4.1045755E2,4.541274E1,5.9654846E1,1.4775546E0,1.8351973E2,8.5902605E0,7.767049E1,2.4472495E3,1.15179504E2,4.6461874E2,2.6538635E2,3.7953644E1,2.5205322E3,3.4012216E2,9.048289E1,3.1997467E2,2.2335642E1,2.3077097E1,5.8191296E1,1.4635537E0,1.24809525E2,5.871021E1,6.917875E0,1.6723852E0,1.597358E0,7.607313E1,2.1481E3,2.991495E2,7.1492584E1,4.3686916E1,3.843213E2,8.029744E1,2.8176407E1,2.3720996E2,3.4770435E1,3.183208E0,2.1223086E3,3.9822363E2,5.231499E1,2.8780716E2,1.460922E0,8.9021965E1,2.7798897E1,2.9217578E2,2.513942E0,1.9821701E1,1.0361538E1,1.2715559E1],"tree_param":{"num_deleted":"0","num_feature":"13","num_nodes":"61","size_leaf_vector":"1"}},{"base_weights":[3.2324558E-3,-1.4485487E-1,2.6105306E-1,-1.9859757E-1,2.2239931E-1,5.041524E-1,1.7443119E-1,-3.5128933E-1,-8.0045365E-2,5.467344E-3,4.4999832E-1,8.825177E-1,4.2831716E-1,9.359822E-2,3.4425572E-1,-3.5761923E-1,9.095664E-2,-1.3433272E-2,-2.9575598E-1,-7.1207255E-1,1.21175855E-1,3.7644702E-1,1.0510843E0,-2.494361E-1,9.729693E-1,3.4073403E-1,7.997761E-1,1.8401029E-2,4.0630913E-1,3.9476836E-1,-5.9183913E-1,1.6235325E-2,-1.8872283E-2,-8.448499E-3,3.1904173E-3,6.6534564E-2,-1.5857438E-2,1.24849165E-2,-4.8441794E-2,8.05228E-3,-6.386323E-2,1.9908322E-2,-6.912923E-2,-2.7433643E-2,5.765537E-2,-6.1243773E-2,5.294575E-2,-6.4736353E-3,5.2955497E-2,2.5469512E-2,3.2266409E-3,4.7455784E-2,-2.6016803E-3,-2.3780381E-2,2.6907932E-3,3.0288601E-2,8.102878E-3,3.7046246E-2,1.6599165E-2,-5.8957625E-2,-9.118834E-3],"categories":[],"categories_nodes":[],"categories_segments":[],"categories_sizes":[],"default_left":[0,0,0,0,0,0,0,0,0,0,0,0,0,0,0,0,0,0,0,0,0,0,0,0,0,0,0,0,0,0,0,0,0,0,0,0,0,0,0,0,0,0,0,0,0,0,0,0,0,0,0,0,0,0,0,0,0,0,0,0,0],"id":16,"left_children":[1,3,5,7,9,11,13,15,17,19,21,23,25,27,29,31,-1,33,35,37,39,41,43,45,47,49,51,53,55,57,59,-1,-1,-1,-1,-1,-1,-1,-1,-1,-1,-1,-1,-1,-1,-1,-1,-1,-1,-1,-1,-1,-1,-1,-1,-1,-1,-1,-1,-1,-1],"loss_changes":[2.6569144E2,8.7284966E1,5.3373764E1,6.978E1,2.7879988E1,1.8744751E1,2.5684292E1,2.3802872E1,3.1207914E1,2.4176157E1,1.1787655E1,1.1539078E1,1.7852562E1,2.9870903E1,2.8782082E1,2.2865295E1,0E0,1.9962458E1,1.8252747E1,1.022772E1,1.418434E1,9.990536E0,5.445175E0,1.2731706E1,9.858742E0,2.1049038E1,1.3476746E1,1.796427E1,1.1899612E1,1.2216988E1,7.314824E0,0E0,0E0,0E0,0E0,0E0,0E0,0E0,0E0,0E0,0E0,0E0,0E0,0E0,0E0,0E0,0E0,0E0,0E0,0E0,0E0,0E0,0E0,0E0,0E0,0E0,0E0,0E0,0E0,0E0,0E0],"parents":[2147483647,0,0,1,1,2,2,3,3,4,4,5,5,6,6,7,7,8,8,9,9,10,10,11,11,12,12,13,13,14,14,15,15,17,17,18,18,19,19,20,20,21,21,22,22,23,23,24,24,25,25,26,26,27,27,28,28,29,29,30,30],"right_children":[2,4,6,8,10,12,14,16,18,20,22,24,26,28,30,32,-1,34,36,38,40,42,44,46,48,50,52,54,56,58,60,-1,-1,-1,-1,-1,-1,-1,-1,-1,-1,-1,-1,-1,-1,-1,-1,-1,-1,-1,-1,-1,-1,-1,-1,-1,-1,-1,-1,-1,-1],"split_conditions":[2.2814434E-2,5.738855E-2,-1.4548761E-2,1.5257581E-2,9.0466267E-1,-1.0620833E-2,4.3936805E-3,3.5743892E-2,2.7935756E-3,-3.3636256E-3,4.0009942E-2,-5.597917E-1,2.85731E-2,3.4291923E-2,2.682157E-1,-5.097301E-3,9.095664E-2,-2.290635E-2,-9.725482E-3,-3.7315957E-2,3.3662934E-2,1.3510237E-2,8.3369194E1,1.667507E-1,2.6261752E-2,1.1527004E-3,7.270452E-1,6.638235E-1,-4.0678754E-3,-2.9730445E-2,8.201539E1,1.6235325E-2,-1.8872283E-2,-8.448499E-3,3.1904173E-3,6.6534564E-2,-1.5857438E-2,1.24849165E-2,-4.8441794E-2,8.05228E-3,-6.386323E-2,1.9908322E-2,-6.912923E-2,-2.7433643E-2,5.765537E-2,-6.1243773E-2,5.294575E-2,-6.4736353E-3,5.2955497E-2,2.5469512E-2,3.2266409E-3,4.7455784E-2,-2.6016803E-3,-2.3780381E-2,2.6907932E-3,3.0288601E-2,8.102878E-3,3.7046246E-2,1.6599165E-2,-5.8957625E-2,-9.118834E-3],"split_indices":[5,2,0,5,10,9,9,0,8,11,0,2,8,5,2,9,0,11,9,11,8,9,3,10,5,8,10,6,9,11,3,0,0,0,0,0,0,0,0,0,0,0,0,0,0,0,0,0,0,0,0,0,0,0,0,0,0,0,0,0,0],"split_type":[0,0,0,0,0,0,0,0,0,0,0,0,0,0,0,0,0,0,0,0,0,0,0,0,0,0,0,0,0,0,0,0,0,0,0,0,0,0,0,0,0,0,0,0,0,0,0,0,0,0,0,0,0,0,0,0,0,0,0,0,0],"sum_hessian":[6.9569316E3,4.419114E3,2.5378179E3,3.855389E3,5.6372485E2,6.654501E2,1.8723679E3,1.684211E3,2.1711777E3,2.8915036E2,2.745745E2,1.09330315E2,5.561198E2,1.2696106E3,6.027573E2,1.6801462E3,4.064801E0,1.6597151E3,5.1146277E2,3.943697E1,2.497134E2,2.4608841E2,2.8486095E1,7.9598117E0,1.0137051E2,4.5156616E2,1.04553635E2,1.0243462E3,2.4526436E2,5.7244586E2,3.0311491E1,4.7007584E1,1.6331387E3,5.503405E2,1.1093745E3,5.8454084E0,5.0561737E2,8.315753E0,3.1121216E1,2.4365169E2,6.061707E0,2.4385114E2,2.2372751E0,1.4453051E0,2.704079E1,4.5966144E0,3.3631976E0,7.310204E0,9.40603E1,2.7984232E2,1.7172383E2,8.886037E1,1.569327E1,6.769034E1,9.566558E2,1.3419595E2,1.11068405E2,8.622968E1,4.8621616E2,1.1679385E1,1.8632105E1],"tree_param":{"num_deleted":"0","num_feature":"13","num_nodes":"61","size_leaf_vector":"1"}},{"base_weights":[1.4660273E-2,-1.8500303E-1,1.608493E-1,-2.2018133E-1,2.9989904E-1,4.798085E-2,2.7971822E-1,2.364807E-1,-2.531326E-1,1.0204649E0,4.135112E-2,-6.508434E-5,3.205743E-1,5.582307E-1,2.0793393E-1,-3.91745E-2,5.374557E-1,-3.0785254E-1,4.171475E-2,1.5261408E0,4.8560345E-1,-1.850936E-1,8.3942E-1,2.3781285E-1,-1.2807931E-1,-3.0666384E-1,5.111765E-1,5.857238E-1,-3.918523E-1,-2.4564499E-1,2.573353E-1,-3.0066809E-2,1.8157553E-2,6.082333E-2,1.2692695E-2,-1.5713021E-2,9.35329E-2,1.2297152E-2,-1.0398287E-2,5.1155012E-2,8.914878E-2,3.2879815E-2,-6.49976E-2,1.7024617E-3,-5.4083478E-2,5.622211E-2,-3.0864535E-2,1.3879147E-2,-4.3100454E-2,-8.292726E-3,1.9522509E-2,2.218293E-2,-4.30125E-2,2.7255714E-2,-3.8969535E-2,2.3649978E-2,4.4496797E-2,-6.2221684E-2,4.384533E-2,1.8152872E-2,-3.1647217E-2,2.0876916E-2,5.5990047E-3],"categories":[],"categories_nodes":[],"categories_segments":[],"categories_sizes":[],"default_left":[0,0,0,0,0,0,0,0,0,0,0,0,0,0,0,0,0,0,0,0,0,0,0,0,0,0,0,0,0,0,0,0,0,0,0,0,0,0,0,0,0,0,0,0,0,0,0,0,0,0,0,0,0,0,0,0,0,0,0,0,0,0,0],"id":17,"left_children":[1,3,5,7,9,11,13,15,17,19,21,23,25,27,29,31,33,35,37,39,41,43,45,47,49,51,53,55,57,59,61,-1,-1,-1,-1,-1,-1,-1,-1,-1,-1,-1,-1,-1,-1,-1,-1,-1,-1,-1,-1,-1,-1,-1,-1,-1,-1,-1,-1,-1,-1,-1,-1],"loss_changes":[2.0314824E2,5.0249207E1,5.389328E1,4.134288E1,3.7108868E1,2.7008512E1,3.9004593E1,1.5382574E1,4.1305252E1,1.3489708E1,2.6865316E1,5.3448357E1,3.7099464E1,1.0687958E1,3.4959343E1,2.2287136E1,1.6749088E1,3.0724258E1,2.0524855E1,1.6098137E0,9.157885E0,2.2818586E1,1.4332464E1,2.7099293E1,2.2416088E1,3.0554335E1,1.0821255E1,1.2936844E1,1.3920015E1,3.6410362E1,3.2667694E1,0E0,0E0,0E0,0E0,0E0,0E0,0E0,0E0,0E0,0E0,0E0,0E0,0E0,0E0,0E0,0E0,0E0,0E0,0E0,0E0,0E0,0E0,0E0,0E0,0E0,0E0,0E0,0E0,0E0,0E0,0E0,0E0],"parents":[2147483647,0,0,1,1,2,2,3,3,4,4,5,5,6,6,7,7,8,8,9,9,10,10,11,11,12,12,13,13,14,14,15,15,16,16,17,17,18,18,19,19,20,20,21,21,22,22,23,23,24,24,25,25,26,26,27,27,28,28,29,29,30,30],"right_children":[2,4,6,8,10,12,14,16,18,20,22,24,26,28,30,32,34,36,38,40,42,44,46,48,50,52,54,56,58,60,62,-1,-1,-1,-1,-1,-1,-1,-1,-1,-1,-1,-1,-1,-1,-1,-1,-1,-1,-1,-1,-1,-1,-1,-1,-1,-1,-1,-1,-1,-1,-1,-1],"split_conditions":[1.8117629E-2,1.6165881E0,2.497577E-2,-5.3966887E-2,1.5800754E-2,6.980132E-2,-2.0327218E-2,-8.226246E-3,4.772488E-2,1.457967E-3,8.348185E-3,1.3802631E0,1.2709665E0,5.550977E1,1.3802631E0,1.5257581E-2,1.4269321E-2,3.7626628E-2,1.3531982E-2,9.200417E-1,1.8575569E0,1.4760148E-2,5.543512E-3,7.831435E-3,4.0198576E-2,5.7260498E1,2.2425797E0,5.0565176E-2,1.4138697E-1,-3.8214347E-3,8.861725E-4,-3.0066809E-2,1.8157553E-2,6.082333E-2,1.2692695E-2,-1.5713021E-2,9.35329E-2,1.2297152E-2,-1.0398287E-2,5.1155012E-2,8.914878E-2,3.2879815E-2,-6.49976E-2,1.7024617E-3,-5.4083478E-2,5.622211E-2,-3.0864535E-2,1.3879147E-2,-4.3100454E-2,-8.292726E-3,1.9522509E-2,2.218293E-2,-4.30125E-2,2.7255714E-2,-3.8969535E-2,2.3649978E-2,4.4496797E-2,-6.2221684E-2,4.384533E-2,1.8152872E-2,-3.1647217E-2,2.0876916E-2,5.5990047E-3],"split_indices":[5,12,5,2,5,2,0,0,2,9,8,12,12,3,12,5,5,0,5,6,12,2,9,9,1,3,12,2,1,0,8,0,0,0,0,0,0,0,0,0,0,0,0,0,0,0,0,0,0,0,0,0,0,0,0,0,0,0,0,0,0,0,0],"split_type":[0,0,0,0,0,0,0,0,0,0,0,0,0,0,0,0,0,0,0,0,0,0,0,0,0,0,0,0,0,0,0,0,0,0,0,0,0,0,0,0,0,0,0,0,0,0,0,0,0,0,0,0,0,0,0,0,0,0,0,0,0,0,0],"sum_hessian":[6.957833E3,2.9409084E3,4.0169246E3,2.7424941E3,1.9841441E2,2.061188E3,1.9557365E3,1.8415594E2,2.5583381E3,5.1615784E1,1.4679863E2,1.753181E3,3.08007E2,3.9938904E2,1.5563474E3,9.657512E1,8.758082E1,2.1578286E3,4.0050967E2,2.55791E1,2.6036682E1,1.1495055E2,3.1848087E1,6.130831E2,1.1400979E3,7.1640816E1,2.3636617E2,3.8852945E2,1.0859595E1,1.5247003E2,1.4038773E3,4.0078945E1,5.6496178E1,2.4833675E1,6.2747143E1,2.1523533E3,5.4751782E0,2.2031563E2,1.8019406E2,1.0330031E1,1.5249068E1,2.4325274E1,1.7114084E0,9.314571E1,2.1804832E1,2.6827145E1,5.0209436E0,5.9240894E2,2.0674189E1,1.0633148E3,7.678306E1,3.050006E1,4.1140755E1,2.3087257E2,5.4935923E0,2.853495E2,1.0317997E2,6.5065155E0,4.35308E0,5.9312935E1,9.31571E1,6.66939E2,7.369383E2],"tree_param":{"num_deleted":"0","num_feature":"13","num_nodes":"63","size_leaf_vector":"1"}},{"base_weights":[6.090009E-3,-1.9500716E-1,1.046743E-1,5.3354603E-1,-2.4189249E-1,5.124129E-2,3.2820722E-1,9.3078977E-1,2.597465E-1,3.3211488E-1,-2.6083001E-1,2.5139734E-1,-4.3273076E-2,8.7883544E-1,2.7261427E-1,9.88328E-1,1.4559455E-1,1.233312E-2,9.79197E-1,5.157232E-1,-1.1170889E0,-2.8011054E-1,3.8554543E-1,4.5282695E-1,1.7127655E-1,-1.606724E-1,7.689265E-2,5.0541556E-1,1.1557124E0,1.15639314E-1,4.657587E-1,3.421613E-2,6.1175663E-2,-6.317884E-2,5.5046435E-2,4.209344E-2,-2.1109005E-2,6.752577E-2,-4.133303E-3,8.235042E-3,5.853456E-2,-8.584695E-2,3.9324302E-2,-8.274692E-3,-1.9665355E-2,-1.0170977E-2,3.041399E-2,4.03787E-2,1.9013217E-2,5.0625395E-2,7.0257424E-3,1.5868446E-2,-1.0200638E-2,2.4765178E-3,2.438276E-2,8.57802E-3,4.720841E-2,1.9695098E-2,5.8493134E-2,2.6328345E-3,2.6989186E-2,-1.1593839E-2,2.572982E-2],"categories":[],"categories_nodes":[],"categories_segments":[],"categories_sizes":[],"default_left":[0,0,0,0,0,0,0,0,0,0,0,0,0,0,0,0,0,0,0,0,0,0,0,0,0,0,0,0,0,0,0,0,0,0,0,0,0,0,0,0,0,0,0,0,0,0,0,0,0,0,0,0,0,0,0,0,0,0,0,0,0,0,0],"id":18,"left_children":[1,3,5,7,9,11,13,15,17,19,21,23,25,27,29,31,33,35,37,39,41,43,45,47,49,51,53,55,57,59,61,-1,-1,-1,-1,-1,-1,-1,-1,-1,-1,-1,-1,-1,-1,-1,-1,-1,-1,-1,-1,-1,-1,-1,-1,-1,-1,-1,-1,-1,-1,-1,-1],"loss_changes":[1.3846329E2,7.861087E1,5.59608E1,1.4901657E1,2.3559341E1,7.158913E1,2.7432129E1,2.4051704E0,1.490601E1,1.90439E1,2.616632E1,1.9510742E1,3.628148E1,7.9403725E0,2.4884258E1,2.9089699E0,8.155913E0,2.3198719E1,8.562548E0,1.4127016E1,1.0622735E1,2.6285034E1,8.12384E0,8.568214E0,2.2370298E1,2.7014511E1,1.426309E1,5.240402E0,4.1179657E-2,1.2128485E1,1.2672691E1,0E0,0E0,0E0,0E0,0E0,0E0,0E0,0E0,0E0,0E0,0E0,0E0,0E0,0E0,0E0,0E0,0E0,0E0,0E0,0E0,0E0,0E0,0E0,0E0,0E0,0E0,0E0,0E0,0E0,0E0,0E0,0E0],"parents":[2147483647,0,0,1,1,2,2,3,3,4,4,5,5,6,6,7,7,8,8,9,9,10,10,11,11,12,12,13,13,14,14,15,15,16,16,17,17,18,18,19,19,20,20,21,21,22,22,23,23,24,24,25,25,26,26,27,27,28,28,29,29,30,30],"right_children":[2,4,6,8,10,12,14,16,18,20,22,24,26,28,30,32,34,36,38,40,42,44,46,48,50,52,54,56,58,60,62,-1,-1,-1,-1,-1,-1,-1,-1,-1,-1,-1,-1,-1,-1,-1,-1,-1,-1,-1,-1,-1,-1,-1,-1,-1,-1,-1,-1,-1,-1,-1,-1],"split_conditions":[1.0767995E0,-5.66245E-3,1.6737899E-2,-1.5375935E-2,-7.140279E-2,-4.5902006E-2,-3.9298222E-3,4.075655E-2,4.9795937E1,4.1140995E1,2.3482157E-2,-9.848127E-2,2.9931657E-4,9.080744E-2,1.0032915E0,1.0004578E0,1.9347068E-2,3.5155407E1,-8.178967E-3,-6.7337375E-4,5.1962055E1,9.948237E-1,2.5482536E-3,-1.0109029E-2,1.1257652E0,-9.028354E-3,8.136365E1,3.718752E-1,5.885749E-1,2.3914433E0,6.2480047E-2,3.421613E-2,6.1175663E-2,-6.317884E-2,5.5046435E-2,4.209344E-2,-2.1109005E-2,6.752577E-2,-4.133303E-3,8.235042E-3,5.853456E-2,-8.584695E-2,3.9324302E-2,-8.274692E-3,-1.9665355E-2,-1.0170977E-2,3.041399E-2,4.03787E-2,1.9013217E-2,5.0625395E-2,7.0257424E-3,1.5868446E-2,-1.0200638E-2,2.4765178E-3,2.438276E-2,8.57802E-3,4.720841E-2,1.9695098E-2,5.8493134E-2,2.6328345E-3,2.6989186E-2,-1.1593839E-2,2.572982E-2],"split_indices":[12,9,7,0,2,2,1,2,4,4,0,2,9,2,6,12,7,4,1,9,3,12,9,9,12,9,3,10,6,12,2,0,0,0,0,0,0,0,0,0,0,0,0,0,0,0,0,0,0,0,0,0,0,0,0,0,0,0,0,0,0,0,0],"split_type":[0,0,0,0,0,0,0,0,0,0,0,0,0,0,0,0,0,0,0,0,0,0,0,0,0,0,0,0,0,0,0,0,0,0,0,0,0,0,0,0,0,0,0,0,0,0,0,0,0,0,0,0,0,0,0,0,0,0,0,0,0,0,0],"sum_hessian":[6.9822397E3,2.2965808E3,4.6856587E3,1.3823051E2,2.1583503E3,3.782681E3,9.029778E2,5.5421852E1,8.280867E1,6.8405365E1,2.089945E3,1.2127474E3,2.5699333E3,8.1448746E1,8.21529E2,5.139685E1,4.0250025E0,6.2375404E1,2.0433266E1,6.1284943E1,7.1204257E0,2.0299606E3,5.998443E1,3.4378778E2,8.689597E2,1.2997594E3,1.2701741E3,3.5881424E1,4.556732E1,4.5408093E2,3.674481E2,2.4123726E1,2.7273125E1,1.4958644E0,2.529138E0,2.1119104E1,4.1256298E1,1.4937871E1,5.495395E0,4.071544E1,2.0569504E1,5.48884E0,1.631586E0,1.0098764E3,1.02008417E3,1.6483824E1,4.3500607E1,5.665943E1,2.8712833E2,2.952884E1,8.394309E2,1.07518196E2,1.1922412E3,1.1918982E3,7.8275826E1,2.1166471E1,1.4714952E1,1.3568231E0,4.42105E1,3.9634976E2,5.7731163E1,2.3794933E1,3.4365314E2],"tree_param":{"num_deleted":"0","num_feature":"13","num_nodes":"63","size_leaf_vector":"1"}},{"base_weights":[-1.8060015E-4,-1.200113E-1,2.1135952E-1,-1.6595642E-1,2.1979572E-1,1.442481E-1,3.976844E-1,-3.1785038E-1,-8.534912E-2,4.4974692E-2,5.6938326E-1,6.307454E-1,1.0371444E-1,4.494549E-1,-3.1577086E-1,3.2496086E-1,-3.5587904E-1,8.573783E-1,-9.5547535E-2,-5.8793835E-2,7.4808264E-1,6.020265E-1,-6.757295E-2,9.0653193E-1,4.219379E-1,-1.2196952E-2,2.656245E-1,5.004165E-1,-4.3586988E-2,-1.382965E0,-3.855092E-2,-3.6840197E-2,2.9693102E-2,-2.1546584E-2,1.5559095E-3,-7.267972E-2,5.6076325E-2,-1.8132621E-2,-3.4723976E-3,-1.6151136E-2,9.243966E-3,-2.6723167E-2,4.514152E-2,-3.128043E-2,3.2788746E-2,2.9210253E-2,6.554868E-2,6.3766055E-3,3.4469057E-2,6.9247237E-3,-1.4717189E-2,-5.349957E-3,1.6641252E-2,3.929148E-2,1.8047282E-2,-9.441749E-3,3.2421082E-2,-2.6476279E-2,-8.2166165E-2,1.752128E-2,-5.507573E-2],"categories":[],"categories_nodes":[],"categories_segments":[],"categories_sizes":[],"default_left":[0,0,0,0,0,0,0,0,0,0,0,0,0,0,0,0,0,0,0,0,0,0,0,0,0,0,0,0,0,0,0,0,0,0,0,0,0,0,0,0,0,0,0,0,0,0,0,0,0,0,0,0,0,0,0,0,0,0,0,0,0],"id":19,"left_children":[1,3,5,7,9,11,13,15,17,19,21,23,25,27,29,31,33,35,37,39,41,43,-1,45,47,49,51,53,55,57,59,-1,-1,-1,-1,-1,-1,-1,-1,-1,-1,-1,-1,-1,-1,-1,-1,-1,-1,-1,-1,-1,-1,-1,-1,-1,-1,-1,-1,-1,-1],"loss_changes":[1.7571692E2,6.912451E1,3.1288048E1,4.7707497E1,3.221225E1,3.6307205E1,2.4638802E1,3.3148346E1,2.4583004E1,2.577928E1,1.1834431E1,7.775318E0,3.1979498E1,1.556913E1,1.3395081E1,2.2136272E1,3.7083572E1,1.8340239E1,1.755665E1,1.9909353E1,9.500206E0,1.1859577E1,0E0,7.0780983E0,6.4072485E0,4.2299595E1,1.783717E1,2.204335E1,6.0411863E0,1.2062016E0,1.5730841E1,0E0,0E0,0E0,0E0,0E0,0E0,0E0,0E0,0E0,0E0,0E0,0E0,0E0,0E0,0E0,0E0,0E0,0E0,0E0,0E0,0E0,0E0,0E0,0E0,0E0,0E0,0E0,0E0,0E0,0E0],"parents":[2147483647,0,0,1,1,2,2,3,3,4,4,5,5,6,6,7,7,8,8,9,9,10,10,11,11,12,12,13,13,14,14,15,15,16,16,17,17,18,18,19,19,20,20,21,21,23,23,24,24,25,25,26,26,27,27,28,28,29,29,30,30],"right_children":[2,4,6,8,10,12,14,16,18,20,22,24,26,28,30,32,34,36,38,40,42,44,-1,46,48,50,52,54,56,58,60,-1,-1,-1,-1,-1,-1,-1,-1,-1,-1,-1,-1,-1,-1,-1,-1,-1,-1,-1,-1,-1,-1,-1,-1,-1,-1,-1,-1,-1,-1],"split_conditions":[2.2814434E-2,6.005921E-2,3.3075295E-2,1.4021647E-2,1.5433792E0,2.3456444E1,1.1134447E-1,-1.200857E-2,-1.02294594E-1,1.096996E0,2.2653012E0,2.8399128E1,1.4569304E-2,3.0826666E0,1.32815E0,-4.7599055E-2,8.348185E-3,-4.094529E-2,-4.7599055E-2,1.2780656E-2,7.770291E-1,7.6872283E-3,-6.757295E-2,-6.905986E-2,3.272264E1,2.3251769E-4,-8.71861E-3,-5.3966887E-2,9.080744E-2,1.4778246E-1,2.2280718E-1,-3.6840197E-2,2.9693102E-2,-2.1546584E-2,1.5559095E-3,-7.267972E-2,5.6076325E-2,-1.8132621E-2,-3.4723976E-3,-1.6151136E-2,9.243966E-3,-2.6723167E-2,4.514152E-2,-3.128043E-2,3.2788746E-2,2.9210253E-2,6.554868E-2,6.3766055E-3,3.4469057E-2,6.9247237E-3,-1.4717189E-2,-5.349957E-3,1.6641252E-2,3.929148E-2,1.8047282E-2,-9.441749E-3,3.2421082E-2,-2.6476279E-2,-8.2166165E-2,1.752128E-2,-5.507573E-2],"split_indices":[5,2,5,5,12,3,1,8,11,10,12,4,11,12,12,11,8,7,11,11,12,1,0,11,4,8,8,2,2,2,11,0,0,0,0,0,0,0,0,0,0,0,0,0,0,0,0,0,0,0,0,0,0,0,0,0,0,0,0,0,0],"split_type":[0,0,0,0,0,0,0,0,0,0,0,0,0,0,0,0,0,0,0,0,0,0,0,0,0,0,0,0,0,0,0,0,0,0,0,0,0,0,0,0,0,0,0,0,0,0,0,0,0,0,0,0,0,0,0,0,0,0,0,0,0],"sum_hessian":[6.9299062E3,4.4241816E3,2.5057246E3,3.897689E3,5.264928E2,1.8434984E3,6.6222626E2,1.3502936E3,2.5473955E3,3.5172934E2,1.7476343E2,1.4066258E2,1.7028358E3,6.1776904E2,4.445719E1,7.4999886E1,1.2752937E3,2.6373718E1,2.5210217E3,3.0729364E2,4.4435703E1,1.725182E2,2.2452347E0,5.917051E1,8.149207E1,9.9292535E2,7.0991046E2,5.598836E2,5.788542E1,8.344658E0,3.6112534E1,1.48043585E1,6.0195522E1,1.0680475E3,2.0724617E2,2.2434382E0,2.413028E1,2.2326079E2,2.297761E3,1.4727223E2,1.6002141E2,4.5200295E0,3.9915672E1,6.7900863E0,1.6572812E2,3.428831E1,2.4882198E1,3.9493664E1,4.1998405E1,6.47573E2,3.4535233E2,1.0837642E2,6.01534E2,1.822641E2,3.776195E2,4.8444386E1,9.441033E0,2.6598055E0,5.684852E0,2.6928692E1,9.183842E0],"tree_param":{"num_deleted":"0","num_feature":"13","num_nodes":"61","size_leaf_vector":"1"}},{"base_weights":[2.486947E-3,-1.8315169E-1,1.16454594E-1,-2.1700566E-1,5.21713E-1,7.301283E-2,3.5735643E-1,-2.5108778E-1,2.3250948E-1,7.578329E-1,-4.18959E-2,1.2994017E-2,1.8888797E-1,4.8072466E-1,6.6974156E-2,6.311241E-1,-2.6524425E-1,-2.1689533E-1,4.7391415E-1,-3.9687178E-1,9.2442024E-1,1.0139933E0,-5.367421E-1,2.3967798E-1,-5.03571E-2,1.613129E-1,6.361943E-1,9.1776246E-1,4.0468895E-1,-1.1242138E0,1.5240881E-1,3.9944876E-2,-3.5164524E-2,-6.546493E-3,-1.6747443E-2,2.5845865E-2,-3.7695345E-2,2.5903393E-2,-5.733308E-2,-4.196921E-2,4.6079464E-2,5.026525E-2,-1.2872899E-2,-1.0941873E-2,6.314161E-2,8.100618E-3,-4.3657348E-2,3.0161086E-2,2.823137E-3,-1.021233E-2,3.5339396E-3,3.700545E-2,6.6986457E-3,4.144969E-2,-8.932524E-3,6.12068E-2,1.2458365E-2,2.8918955E-2,1.4430463E-2,7.6423287E-3,-7.0916176E-2,1.2037451E-2,-4.349562E-2],"categories":[],"categories_nodes":[],"categories_segments":[],"categories_sizes":[],"default_left":[0,0,0,0,0,0,0,0,0,0,0,0,0,0,0,0,0,0,0,0,0,0,0,0,0,0,0,0,0,0,0,0,0,0,0,0,0,0,0,0,0,0,0,0,0,0,0,0,0,0,0,0,0,0,0,0,0,0,0,0,0,0,0],"id":20,"left_children":[1,3,5,7,9,11,13,15,17,19,21,23,25,27,29,31,33,35,37,39,41,43,45,47,49,51,53,55,57,59,61,-1,-1,-1,-1,-1,-1,-1,-1,-1,-1,-1,-1,-1,-1,-1,-1,-1,-1,-1,-1,-1,-1,-1,-1,-1,-1,-1,-1,-1,-1,-1,-1],"loss_changes":[1.4576624E2,6.265261E1,4.464953E1,3.83813E1,1.6054607E1,2.5159725E1,2.3323326E1,2.9212097E1,1.9284672E1,1.6699123E1,1.9613491E1,3.4255764E1,1.5123962E1,1.482814E1,2.0072727E1,8.850927E0,2.139206E1,2.5008087E1,8.846968E0,7.4272833E0,7.380768E0,3.9552555E0,6.1365027E0,3.466937E1,3.4743374E1,1.8322338E1,1.13561535E1,1.3418438E1,7.724472E0,5.1770535E0,1.6768024E1,0E0,0E0,0E0,0E0,0E0,0E0,0E0,0E0,0E0,0E0,0E0,0E0,0E0,0E0,0E0,0E0,0E0,0E0,0E0,0E0,0E0,0E0,0E0,0E0,0E0,0E0,0E0,0E0,0E0,0E0,0E0,0E0],"parents":[2147483647,0,0,1,1,2,2,3,3,4,4,5,5,6,6,7,7,8,8,9,9,10,10,11,11,12,12,13,13,14,14,15,15,16,16,17,17,18,18,19,19,20,20,21,21,22,22,23,23,24,24,25,25,26,26,27,27,28,28,29,29,30,30],"right_children":[2,4,6,8,10,12,14,16,18,20,22,24,26,28,30,32,34,36,38,40,42,44,46,48,50,52,54,56,58,60,62,-1,-1,-1,-1,-1,-1,-1,-1,-1,-1,-1,-1,-1,-1,-1,-1,-1,-1,-1,-1,-1,-1,-1,-1,-1,-1,-1,-1,-1,-1,-1,-1],"split_conditions":[1.7397542E-2,1.643511E0,3.3075295E-2,6.986149E1,2.8308495E-3,1.5688896E-2,5.7843056E1,-7.398871E-2,9.442887E-1,-2.5409449E-2,1.5403166E-2,-5.4140734E-3,1.9473734E-1,1.5433792E0,1.2780606E0,1.7104879E-2,9.8163414E-1,7.700004E1,1.4793987E0,4.3653366E1,1.7172737E-2,7.252042E1,6.4122665E1,-1.9417476E-2,-6.7337375E-4,-2.4368709E-2,2.682157E-1,-2.9030817E-3,-5.487257E-2,6.2323946E-1,2.2280718E-1,3.9944876E-2,-3.5164524E-2,-6.546493E-3,-1.6747443E-2,2.5845865E-2,-3.7695345E-2,2.5903393E-2,-5.733308E-2,-4.196921E-2,4.6079464E-2,5.026525E-2,-1.2872899E-2,-1.0941873E-2,6.314161E-2,8.100618E-3,-4.3657348E-2,3.0161086E-2,2.823137E-3,-1.021233E-2,3.5339396E-3,3.700545E-2,6.6986457E-3,4.144969E-2,-8.932524E-3,6.12068E-2,1.2458365E-2,2.8918955E-2,1.4430463E-2,7.6423287E-3,-7.0916176E-2,1.2037451E-2,-4.349562E-2],"split_indices":[5,12,5,4,9,11,3,2,10,2,5,9,2,12,12,5,12,3,12,3,5,3,3,0,9,0,2,0,2,6,11,0,0,0,0,0,0,0,0,0,0,0,0,0,0,0,0,0,0,0,0,0,0,0,0,0,0,0,0,0,0,0,0],"split_type":[0,0,0,0,0,0,0,0,0,0,0,0,0,0,0,0,0,0,0,0,0,0,0,0,0,0,0,0,0,0,0,0,0,0,0,0,0,0,0,0,0,0,0,0,0,0,0,0,0,0,0,0,0,0,0,0,0,0,0,0,0,0,0],"sum_hessian":[6.887797E3,2.6198276E3,4.267969E3,2.5004268E3,1.1940088E2,3.6170168E3,6.509527E2,2.3246165E3,1.7581041E2,8.390492E1,3.549596E1,2.3835452E3,1.2334716E3,4.5639767E2,1.94555E2,3.6024727E1,2.2885916E3,6.1472755E1,1.1433765E2,1.0404374E1,7.350055E1,1.0992135E1,2.4503826E1,5.200196E2,1.8635255E3,1.1631289E3,7.0342705E1,6.5995995E1,3.9040167E2,1.2206395E1,1.823486E2,3.2357758E1,3.6669674E0,7.8289777E2,1.5056938E3,2.5992327E1,3.548043E1,1.1196734E2,2.370309E0,8.061926E0,2.3424475E0,6.893239E1,4.5681553E0,1.8663211E0,9.125814E0,8.131695E0,1.6372131E1,1.7348688E2,3.465327E2,8.201144E2,1.0434111E3,5.1287403E1,1.1118414E3,5.6869514E1,1.3473191E1,4.4687653E1,2.1308344E1,1.5479668E2,2.3560501E2,2.3748434E0,9.8315525E0,1.6854858E2,1.3800015E1],"tree_param":{"num_deleted":"0","num_feature":"13","num_nodes":"63","size_leaf_vector":"1"}},{"base_weights":[-1.5282357E-4,-1.4571768E-1,1.4786297E-1,-2.0264602E-1,1.2456681E-1,7.791528E-2,2.9124334E-1,1.5945292E-1,-2.4380198E-1,4.3238528E-2,5.007398E-1,1.746255E-1,-5.220236E-2,3.6240348E-1,7.3279485E-2,-3.570595E-2,3.7901112E-1,-3.947132E-1,-1.7924282E-1,4.352604E-1,-5.0018504E-2,-7.3992364E-2,5.763028E-1,9.155778E-2,3.9422038E-1,-4.483016E-1,8.809525E-2,3.031609E-1,6.876945E-1,-1.1028465E0,1.2830825E-1,-7.207283E-3,4.3696154E-2,5.567809E-2,9.336994E-3,-1.4386453E-2,-3.1429093E-2,-5.9119626E-3,-2.105205E-2,4.4461284E-2,-2.3107305E-2,-1.964978E-2,6.6302703E-3,3.7803248E-2,3.4193047E-3,1.6783077E-2,9.1334217E-4,3.425185E-2,4.6563833E-3,-3.5988707E-2,-1.1721951E-3,-4.4443845E-3,1.7505027E-2,1.8764509E-2,-1.2479039E-2,-6.816726E-2,3.5870403E-2,1.2033112E-2,-7.5742036E-2,-3.2139342E-2,1.0648094E-2],"categories":[],"categories_nodes":[],"categories_segments":[],"categories_sizes":[],"default_left":[0,0,0,0,0,0,0,0,0,0,0,0,0,0,0,0,0,0,0,0,0,0,0,0,0,0,0,0,0,0,0,0,0,0,0,0,0,0,0,0,0,0,0,0,0,0,0,0,0,0,0,0,0,0,0,0,0,0,0,0,0],"id":21,"left_children":[1,3,5,7,9,11,13,15,17,19,21,23,25,27,29,31,33,35,37,39,41,-1,43,45,47,49,51,53,55,57,59,-1,-1,-1,-1,-1,-1,-1,-1,-1,-1,-1,-1,-1,-1,-1,-1,-1,-1,-1,-1,-1,-1,-1,-1,-1,-1,-1,-1,-1,-1],"loss_changes":[1.4883093E2,5.3612167E1,3.4326843E1,4.2915184E1,1.8534172E1,2.8993599E1,1.7386024E1,1.2621406E1,2.510318E1,1.8293947E1,1.6974985E1,2.4069996E1,5.4656467E1,1.6096413E1,1.8105543E1,1.5581887E1,1.9360044E1,1.9168465E1,2.6671246E1,3.9582092E1,2.539778E1,0E0,9.488354E0,1.7170982E1,3.1668617E1,2.9650837E1,3.3723553E1,2.8700356E1,8.874062E0,7.289281E0,1.7503689E1,0E0,0E0,0E0,0E0,0E0,0E0,0E0,0E0,0E0,0E0,0E0,0E0,0E0,0E0,0E0,0E0,0E0,0E0,0E0,0E0,0E0,0E0,0E0,0E0,0E0,0E0,0E0,0E0,0E0,0E0],"parents":[2147483647,0,0,1,1,2,2,3,3,4,4,5,5,6,6,7,7,8,8,9,9,10,10,11,11,12,12,13,13,14,14,15,15,16,16,17,17,18,18,19,19,20,20,22,22,23,23,24,24,25,25,26,26,27,27,28,28,29,29,30,30],"right_children":[2,4,6,8,10,12,14,16,18,20,22,24,26,28,30,32,34,36,38,40,42,-1,44,46,48,50,52,54,56,58,60,-1,-1,-1,-1,-1,-1,-1,-1,-1,-1,-1,-1,-1,-1,-1,-1,-1,-1,-1,-1,-1,-1,-1,-1,-1,-1,-1,-1,-1,-1],"split_conditions":[1.9632673E-2,4.4269517E-2,2.922644E-2,-5.3966887E-2,1.5433792E0,3.591599E-4,5.9374443E1,2.8811125E1,-4.738283E-3,1.056852E-2,5.479235E1,-6.471951E-3,-6.58989E-3,2.85731E-2,3.7422214E-2,-8.154426E-3,-7.398871E-2,-2.3202509E-2,5.8739277E1,8.562892E-3,3.487873E-3,-7.3992364E-2,8.201539E1,3.400453E1,1.643511E0,1.1438797E-2,1.0293462E0,6.37432E-2,3.3446975E-2,7.9124505E-3,1.3220999E0,-7.207283E-3,4.3696154E-2,5.567809E-2,9.336994E-3,-1.4386453E-2,-3.1429093E-2,-5.9119626E-3,-2.105205E-2,4.4461284E-2,-2.3107305E-2,-1.964978E-2,6.6302703E-3,3.7803248E-2,3.4193047E-3,1.6783077E-2,9.1334217E-4,3.425185E-2,4.6563833E-3,-3.5988707E-2,-1.1721951E-3,-4.4443845E-3,1.7505027E-2,1.8764509E-2,-1.2479039E-2,-6.816726E-2,3.5870403E-2,1.2033112E-2,-7.5742036E-2,-3.2139342E-2,1.0648094E-2],"split_indices":[5,2,5,2,12,8,4,3,8,7,4,7,11,8,2,8,2,2,4,11,11,0,3,4,12,8,6,2,2,2,12,0,0,0,0,0,0,0,0,0,0,0,0,0,0,0,0,0,0,0,0,0,0,0,0,0,0,0,0,0,0],"split_type":[0,0,0,0,0,0,0,0,0,0,0,0,0,0,0,0,0,0,0,0,0,0,0,0,0,0,0,0,0,0,0,0,0,0,0,0,0,0,0,0,0,0,0,0,0,0,0,0,0,0,0,0,0,0,0,0,0,0,0,0,0],"sum_hessian":[6.905623E3,3.4816448E3,3.423978E3,2.8761165E3,6.055282E2,2.3023342E3,1.1216437E3,2.9324146E2,2.5828752E3,4.988025E2,1.0672572E2,1.3205159E3,9.818184E2,8.450815E2,2.7656223E2,1.5569029E2,1.3755115E2,7.7234784E2,1.8105272E3,9.515113E1,4.0365134E2,3.2391791E0,1.0348655E2,9.5911975E2,3.6139615E2,2.562259E2,7.255925E2,7.1651965E2,1.2856186E2,1.151038E1,2.6505185E2,1.3985881E2,1.58314705E1,2.7541262E1,1.10009895E2,5.314598E2,2.4088806E2,1.4469607E3,3.6356662E2,6.319314E1,3.1957994E1,1.3985136E2,2.638E2,7.607389E1,2.7412659E1,2.2064772E2,7.3847205E2,1.8318652E2,1.7820963E2,1.559097E2,1.0031621E2,4.3345627E2,2.9213626E2,6.340953E2,8.242434E1,1.194952E0,1.273669E2,2.7989364E0,8.711444E0,2.556763E1,2.394842E2],"tree_param":{"num_deleted":"0","num_feature":"13","num_nodes":"61","size_leaf_vector":"1"}},{"base_weights":[2.1670389E-3,-1.0479725E-1,1.902842E-1,-1.5068679E-1,2.0727356E-1,1.4567712E-1,4.08038E-1,-2.6535437E-1,-6.386963E-2,5.233816E-2,5.2953017E-1,3.0163237E-1,4.3933097E-2,7.4410135E-1,1.9278526E-1,1.4395407E-1,-3.1743777E-1,1.0630501E-1,-1.734797E-1,-5.2643055E-1,1.5135504E-1,-7.227804E-2,5.675053E-1,1.945862E-1,5.5664E-1,-1.0879701E-1,2.1633202E-1,1.1821449E0,5.7860893E-1,-5.990945E-1,2.7845895E-1,-9.836747E-3,4.0014613E-2,-1.7047197E-2,2.5360638E-2,7.4165934E-3,-4.428829E-2,-7.4621006E-3,-5.662275E-2,3.568758E-2,-3.4217887E-2,3.2099627E-3,3.7575196E-2,2.9938135E-2,-6.642628E-2,3.718658E-3,3.0696234E-2,3.4499865E-2,-4.9315197E-3,7.3999404E-3,-1.1267592E-2,2.0902853E-2,1.0667727E-3,6.599744E-2,2.1324081E-2,-4.5309585E-2,3.1030515E-2,4.9120657E-2,-5.8196135E-2,3.7144326E-2,6.3605392E-3],"categories":[],"categories_nodes":[],"categories_segments":[],"categories_sizes":[],"default_left":[0,0,0,0,0,0,0,0,0,0,0,0,0,0,0,0,0,0,0,0,0,0,0,0,0,0,0,0,0,0,0,0,0,0,0,0,0,0,0,0,0,0,0,0,0,0,0,0,0,0,0,0,0,0,0,0,0,0,0,0,0],"id":22,"left_children":[1,3,5,7,9,11,13,15,17,19,21,23,25,27,29,31,33,35,37,39,41,-1,43,45,47,49,51,53,55,57,59,-1,-1,-1,-1,-1,-1,-1,-1,-1,-1,-1,-1,-1,-1,-1,-1,-1,-1,-1,-1,-1,-1,-1,-1,-1,-1,-1,-1,-1,-1],"loss_changes":[1.3908806E2,6.3138187E1,2.4278755E1,3.823384E1,2.8199314E1,3.300995E1,3.063359E1,3.5333466E1,4.0831535E1,2.202268E1,1.457967E1,2.2317078E1,3.321754E1,1.133271E1,1.7853193E1,4.20933E1,2.8643677E1,3.5896877E1,3.0772945E1,1.1487919E1,1.7094488E1,0E0,1.1504932E1,2.920021E1,2.1246254E1,2.006098E1,2.3298885E1,4.070427E0,8.187565E0,2.4161827E1,1.6477848E1,0E0,0E0,0E0,0E0,0E0,0E0,0E0,0E0,0E0,0E0,0E0,0E0,0E0,0E0,0E0,0E0,0E0,0E0,0E0,0E0,0E0,0E0,0E0,0E0,0E0,0E0,0E0,0E0,0E0,0E0],"parents":[2147483647,0,0,1,1,2,2,3,3,4,4,5,5,6,6,7,7,8,8,9,9,10,10,11,11,12,12,13,13,14,14,15,15,16,16,17,17,18,18,19,19,20,20,22,22,23,23,24,24,25,25,26,26,27,27,28,28,29,29,30,30],"right_children":[2,4,6,8,10,12,14,16,18,20,22,24,26,28,30,32,34,36,38,40,42,-1,44,46,48,50,52,54,56,58,60,-1,-1,-1,-1,-1,-1,-1,-1,-1,-1,-1,-1,-1,-1,-1,-1,-1,-1,-1,-1,-1,-1,-1,-1,-1,-1,-1,-1,-1,-1],"split_conditions":[2.2814434E-2,5.738855E-2,2.6803697E-2,1.5257581E-2,1.5433792E0,-4.2723663E-2,5.293565E1,-3.8925443E-2,1.2867768E0,-4.571884E-3,-9.493809E-3,3.2769073E-2,1.3352466E-2,1.586514E0,1.1504273E0,5.0980152E1,1.4683312E0,6.301382E1,6.5981105E-2,9.539722E-3,1.096996E0,-7.227804E-2,2.2653012E0,-1.2882833E-2,3.0826666E0,-3.7606359E-3,4.513295E-2,2.1327917E-2,3.50266E-2,2.6053315E-2,5.2374505E-2,-9.836747E-3,4.0014613E-2,-1.7047197E-2,2.5360638E-2,7.4165934E-3,-4.428829E-2,-7.4621006E-3,-5.662275E-2,3.568758E-2,-3.4217887E-2,3.2099627E-3,3.7575196E-2,2.9938135E-2,-6.642628E-2,3.718658E-3,3.0696234E-2,3.4499865E-2,-4.9315197E-3,7.3999404E-3,-1.1267592E-2,2.0902853E-2,1.0667727E-3,6.599744E-2,2.1324081E-2,-4.5309585E-2,3.1030515E-2,4.9120657E-2,-5.8196135E-2,3.7144326E-2,6.3605392E-3],"split_indices":[5,2,8,5,12,2,3,11,12,11,1,5,11,12,12,4,12,4,11,7,10,0,12,8,12,8,2,11,2,7,11,0,0,0,0,0,0,0,0,0,0,0,0,0,0,0,0,0,0,0,0,0,0,0,0,0,0,0,0,0,0],"split_type":[0,0,0,0,0,0,0,0,0,0,0,0,0,0,0,0,0,0,0,0,0,0,0,0,0,0,0,0,0,0,0,0,0,0,0,0,0,0,0,0,0,0,0,0,0,0,0,0,0,0,0,0,0,0,0,0,0,0,0,0,0],"sum_hessian":[6.91031E3,4.405669E3,2.504641E3,3.8413252E3,5.643438E2,2.0801826E3,4.244584E2,1.6542908E3,2.1870344E3,3.8189682E2,1.8244698E2,8.205155E2,1.2596671E3,1.6476389E2,2.5969452E2,1.865425E2,1.4677483E3,8.56817E2,1.3302174E3,5.5160244E1,3.2673657E2,2.7425122E0,1.7970447E2,5.791606E2,2.4135489E2,6.681312E2,5.915359E2,4.3494545E1,1.2126934E2,2.4768372E1,2.3492615E2,1.23261E2,6.3281498E1,1.4276409E3,4.0107487E1,8.22811E2,3.4006065E1,1.2985526E3,3.1664745E1,5.833218E0,4.9327026E1,2.8627032E2,4.0466244E1,1.7746306E2,2.2414048E0,4.5103763E2,1.2812297E2,2.0049765E2,4.085724E1,2.0849698E2,4.5963428E2,2.9018942E2,3.0134647E2,3.6154602E1,7.339942E0,2.7700331E0,1.18499306E2,6.3234696E0,1.8444902E1,5.675149E1,1.7817465E2],"tree_param":{"num_deleted":"0","num_feature":"13","num_nodes":"61","size_leaf_vector":"1"}},{"base_weights":[3.498826E-4,-9.411143E-2,1.67494E-1,-1.3557976E-1,2.1572319E-1,3.7008417E-1,9.544949E-2,8.2344115E-2,-1.7901003E-1,5.9929248E-2,5.366093E-1,3.020492E-1,8.12996E-1,-3.0816594E-1,1.4723735E-1,1.1552387E-1,-8.15957E-1,-2.937563E-1,-1.0430701E-1,8.054175E-3,9.3257976E-1,-2.9566276E-1,6.310253E-1,4.495352E-1,1.2627687E-1,1.1104273E0,3.3571616E-1,3.626764E-1,-5.472678E-1,6.1321646E-2,3.0514508E-1,2.043631E-3,2.5567565E-2,-5.6601476E-2,1.9746972E-2,-1.7987967E-2,3.7931115E-3,1.9304751E-3,-1.0648518E-2,1.274771E-2,-8.395378E-3,5.5090543E-2,-3.895166E-2,1.509717E-2,-4.4124555E-2,3.683295E-2,-2.1316872E-3,4.27456E-2,1.7895471E-2,2.3573537E-3,3.2823425E-2,5.99128E-2,6.7104967E-3,5.2817762E-2,-6.111235E-4,6.027979E-3,5.9922487E-2,-3.0399317E-2,5.870046E-2,-4.0194622E-4,1.7471772E-2,1.7010877E-2,-3.294514E-2],"categories":[],"categories_nodes":[],"categories_segments":[],"categories_sizes":[],"default_left":[0,0,0,0,0,0,0,0,0,0,0,0,0,0,0,0,0,0,0,0,0,0,0,0,0,0,0,0,0,0,0,0,0,0,0,0,0,0,0,0,0,0,0,0,0,0,0,0,0,0,0,0,0,0,0,0,0,0,0,0,0,0,0],"id":23,"left_children":[1,3,5,7,9,11,13,15,17,19,21,23,25,27,29,31,33,35,37,39,41,43,45,47,49,51,53,55,57,59,61,-1,-1,-1,-1,-1,-1,-1,-1,-1,-1,-1,-1,-1,-1,-1,-1,-1,-1,-1,-1,-1,-1,-1,-1,-1,-1,-1,-1,-1,-1,-1,-1],"loss_changes":[1.0883541E2,5.6616196E1,3.6293518E1,3.6783928E1,2.5977123E1,1.941954E1,3.8452286E1,1.9356438E1,2.7739677E1,1.589785E1,1.3538372E1,1.46497345E1,1.1878971E1,3.3766098E1,2.2083813E1,1.8421236E1,9.305104E0,3.1178856E1,3.0505308E1,1.4494683E1,6.566269E0,6.5763645E0,1.0913456E1,1.1136887E1,1.0886196E1,4.360878E0,8.680486E0,1.1104746E1,1.6880245E1,2.1112673E1,1.9625744E1,0E0,0E0,0E0,0E0,0E0,0E0,0E0,0E0,0E0,0E0,0E0,0E0,0E0,0E0,0E0,0E0,0E0,0E0,0E0,0E0,0E0,0E0,0E0,0E0,0E0,0E0,0E0,0E0,0E0,0E0,0E0,0E0],"parents":[2147483647,0,0,1,1,2,2,3,3,4,4,5,5,6,6,7,7,8,8,9,9,10,10,11,11,12,12,13,13,14,14,15,15,16,16,17,17,18,18,19,19,20,20,21,21,22,22,23,23,24,24,25,25,26,26,27,27,28,28,29,29,30,30],"right_children":[2,4,6,8,10,12,14,16,18,20,22,24,26,28,30,32,34,36,38,40,42,44,46,48,50,52,54,56,58,60,62,-1,-1,-1,-1,-1,-1,-1,-1,-1,-1,-1,-1,-1,-1,-1,-1,-1,-1,-1,-1,-1,-1,-1,-1,-1,-1,-1,-1,-1,-1,-1,-1],"split_conditions":[2.2814434E-2,6.005921E-2,-1.4258937E-2,-1.2438088E-2,1.5433792E0,3.493764E-2,1.3483391E0,7.0857876E-3,1.4021647E-2,4.0009942E-2,-4.752376E-3,-1.3959855E-3,1.5462424E-1,-5.31511E-3,3.930403E-3,-1.3610253E-2,1.8738534E0,8.525387E-3,1.2360538E0,1.3685586E-2,1.6957928E-1,2.3993412E-2,8.332348E-3,-1.0620833E-2,6.0595844E-2,1.2488923E0,1.586514E0,2.4384605E-2,4.1575342E-2,2.4384605E-2,5.4149367E-2,2.043631E-3,2.5567565E-2,-5.6601476E-2,1.9746972E-2,-1.7987967E-2,3.7931115E-3,1.9304751E-3,-1.0648518E-2,1.274771E-2,-8.395378E-3,5.5090543E-2,-3.895166E-2,1.509717E-2,-4.4124555E-2,3.683295E-2,-2.1316872E-3,4.27456E-2,1.7895471E-2,2.3573537E-3,3.2823425E-2,5.99128E-2,6.7104967E-3,5.2817762E-2,-6.111235E-4,6.027979E-3,5.9922487E-2,-3.0399317E-2,5.870046E-2,-4.0194622E-4,1.7471772E-2,1.7010877E-2,-3.294514E-2],"split_indices":[5,2,0,8,12,8,12,9,5,0,0,8,2,0,9,8,12,8,12,5,11,7,9,9,11,6,12,8,8,8,7,0,0,0,0,0,0,0,0,0,0,0,0,0,0,0,0,0,0,0,0,0,0,0,0,0,0,0,0,0,0,0,0],"split_type":[0,0,0,0,0,0,0,0,0,0,0,0,0,0,0,0,0,0,0,0,0,0,0,0,0,0,0,0,0,0,0,0,0,0,0,0,0,0,0,0,0,0,0,0,0,0,0,0,0,0,0,0,0,0,0,0,0,0,0,0,0,0,0],"sum_hessian":[6.89127E3,4.4032275E3,2.4880422E3,3.88396E3,5.192677E2,6.5159924E2,1.8364429E3,6.452644E2,3.2386956E3,3.5035367E2,1.68914E2,5.662937E2,8.530554E1,2.0827486E2,1.6281681E3,6.231202E2,2.214424E1,1.2759155E3,1.96278E3,3.3164795E2,1.870572E1,1.6992708E1,1.519213E2,3.0707632E2,2.5921735E2,5.173731E1,3.356823E1,5.459163E1,1.5368323E2,1.055352E3,5.72816E2,5.2517737E2,9.79428E1,1.7612177E1,4.532062E0,1.0826183E3,1.9329721E2,8.480499E2,1.1147301E3,1.3781892E2,1.9382901E2,1.734687E1,1.3588517E0,8.659565E0,8.333142E0,1.3124742E2,2.0673883E1,5.507582E1,2.5200052E2,2.2650148E2,3.2715862E1,4.7258118E1,4.4791927E0,1.0267169E1,2.3301062E1,4.3216427E1,1.1375203E1,1.4907147E2,4.6117525E0,8.5136615E2,2.0398595E2,5.5333264E2,1.9483358E1],"tree_param":{"num_deleted":"0","num_feature":"13","num_nodes":"63","size_leaf_vector":"1"}},{"base_weights":[-1.6115749E-3,2.878286E-1,-3.7945267E-2,4.6528807E-1,1.90732E-1,-8.7128274E-2,1.9470987E-1,2.6264414E-1,7.0742136E-1,-2.0304474E-1,2.9232082E-1,-1.1526564E-1,1.6072921E-1,5.6306046E-1,1.279386E-1,6.505727E-1,5.1400077E-2,1.1271206E0,5.404061E-1,-3.5559703E-2,-1.3126934E0,3.8991886E-1,-8.096858E-2,3.4955956E-2,-1.4744814E-1,7.6889277E-1,9.255359E-2,3.6290517E-1,1.0254627E0,-4.5916275E-3,3.189818E-1,-9.755722E-4,4.195688E-2,9.482182E-3,-3.4355845E-2,6.317403E-2,8.127227E-3,-8.253854E-2,3.0686278E-2,-2.3100117E-2,1.2094684E-2,-1.4264382E-3,-7.4456684E-2,1.5634438E-2,4.9859945E-2,-3.7669104E-2,1.6031079E-2,3.03704E-2,-1.9607306E-3,-8.918111E-3,5.443212E-3,4.284E-2,-2.4517728E-2,-5.09408E-2,7.8032487E-3,3.1526875E-2,4.020383E-3,3.9723057E-2,5.9546974E-2,-7.332228E-3,9.1527095E-3,1.641438E-2,-6.0243864E-2],"categories":[],"categories_nodes":[],"categories_segments":[],"categories_sizes":[],"default_left":[0,0,0,0,0,0,0,0,0,0,0,0,0,0,0,0,0,0,0,0,0,0,0,0,0,0,0,0,0,0,0,0,0,0,0,0,0,0,0,0,0,0,0,0,0,0,0,0,0,0,0,0,0,0,0,0,0,0,0,0,0,0,0],"id":24,"left_children":[1,3,5,7,9,11,13,15,17,19,21,23,25,27,29,31,33,35,37,39,41,43,45,47,49,51,53,55,57,59,61,-1,-1,-1,-1,-1,-1,-1,-1,-1,-1,-1,-1,-1,-1,-1,-1,-1,-1,-1,-1,-1,-1,-1,-1,-1,-1,-1,-1,-1,-1,-1,-1],"loss_changes":[7.236017E1,1.3134193E1,6.996874E1,1.3096489E1,1.9969316E1,3.52174E1,2.6173962E1,1.2173172E1,7.994602E0,1.9032497E1,1.4460533E1,2.1920708E1,2.1280296E1,1.47564125E1,2.290649E1,6.6411552E0,1.00872555E1,4.2690964E0,1.5427607E1,1.0786901E1,3.001606E0,1.4421158E1,2.263138E1,3.4017242E1,2.9602692E1,6.1511555E0,3.2923912E1,8.69133E0,9.2048645E-1,1.4290568E1,5.650181E0,0E0,0E0,0E0,0E0,0E0,0E0,0E0,0E0,0E0,0E0,0E0,0E0,0E0,0E0,0E0,0E0,0E0,0E0,0E0,0E0,0E0,0E0,0E0,0E0,0E0,0E0,0E0,0E0,0E0,0E0,0E0,0E0],"parents":[2147483647,0,0,1,1,2,2,3,3,4,4,5,5,6,6,7,7,8,8,9,9,10,10,11,11,12,12,13,13,14,14,15,15,16,16,17,17,18,18,19,19,20,20,21,21,22,22,23,23,24,24,25,25,26,26,27,27,28,28,29,29,30,30],"right_children":[2,4,6,8,10,12,14,16,18,20,22,24,26,28,30,32,34,36,38,40,42,44,46,48,50,52,54,56,58,60,62,-1,-1,-1,-1,-1,-1,-1,-1,-1,-1,-1,-1,-1,-1,-1,-1,-1,-1,-1,-1,