{"learner":{"attributes":{"best_iteration":"5","best_score":"0.6830584185529543"},"feature_names":[],"feature_types":[],"gradient_booster":{"model":{"cats":{"enc":[],"feature_segments":[],"sorted_idx":[]},"gbtree_model_param":{"num_parallel_tree":"1","num_trees":"26"},"iteration_indptr":[0,1,2,3,4,5,6,7,8,9,10,11,12,13,14,15,16,17,18,19,20,21,22,23,24,25,26],"tree_info":[0,0,0,0,0,0,0,0,0,0,0,0,0,0,0,0,0,0,0,0,0,0,0,0,0,0],"trees":[{"base_weights":[7.4019507E-3,1.7439502E-1,-2.863706E-1,8.3003126E-2,7.7355826E-1,3.0581507E-1,-3.8445348E-1,-1.6916537E-1,2.9691622E-1,1.5265253E0,6.409259E-1,4.6045685E-1,-6.5624774E-1,-1.1667501E0,-3.3686095E-1,1.430401E-1,-6.405989E-1,5.940054E-1,1.5984777E-1,7.303194E-1,8.18847E-2,7.39816E-1,-2.588701E-1,2.1803023E-1,1.0191306E0,-1.0997928E0,-8.155071E-2,-2.0155616E-1,-1.5559939E0,-6.56784E-2,-4.8056966E-1,5.2223843E-2,1.2619239E-3,5.5803485E-2,-3.535672E-2,4.604256E-2,1.655781E-2,-1.7231695E-2,1.4850313E-2,5.582797E-2,-8.66942E-3,1.3549956E-2,5.2468956E-2,6.9297954E-2,-2.5993058E-2,5.480367E-2,-2.6938058E-3,-1.629329E-2,5.4919552E-2,2.548982E-2,-6.455195E-2,7.000722E-2,-6.169776E-2,-7.970096E-2,1.6681505E-2,-3.1234575E-2,-9.1974825E-2,-8.8866595E-3,4.9907494E-2,-2.6080007E-2,2.7894113E-2],"categories":[],"categories_nodes":[],"categories_segments":[],"categories_sizes":[],"default_left":[0,0,0,0,0,0,0,0,0,0,0,0,0,0,0,0,0,0,0,0,0,0,0,0,0,0,0,0,0,0,0,0,0,0,0,0,0,0,0,0,0,0,0,0,0,0,0,0,0,0,0,0,0,0,0,0,0,0,0,0,0],"id":0,"left_children":[1,3,5,7,9,11,13,15,17,19,21,23,25,27,29,31,33,35,37,39,-1,41,43,45,47,49,51,53,55,57,59,-1,-1,-1,-1,-1,-1,-1,-1,-1,-1,-1,-1,-1,-1,-1,-1,-1,-1,-1,-1,-1,-1,-1,-1,-1,-1,-1,-1,-1,-1],"loss_changes":[1.478576E2,1.05159065E2,6.356402E1,9.0046715E1,2.4407257E1,2.3477036E1,3.451387E1,1.12887955E2,3.667772E1,2.1095352E0,1.9575745E1,1.8033068E1,5.514017E0,1.97341E1,3.4465958E1,4.9018585E1,3.6496834E1,2.4156342E1,4.2954132E1,2.420643E0,0E0,2.8238434E1,1.0298751E1,2.2804497E1,4.677227E0,4.4529047E0,1.992316E1,1.2816197E1,8.851555E0,3.6866005E1,2.4936874E1,0E0,0E0,0E0,0E0,0E0,0E0,0E0,0E0,0E0,0E0,0E0,0E0,0E0,0E0,0E0,0E0,0E0,0E0,0E0,0E0,0E0,0E0,0E0,0E0,0E0,0E0,0E0,0E0,0E0,0E0],"parents":[2147483647,0,0,1,1,2,2,3,3,4,4,5,5,6,6,7,7,8,8,9,9,10,10,11,11,12,12,13,13,14,14,15,15,16,16,17,17,18,18,19,19,21,21,22,22,23,23,24,24,25,25,26,26,27,27,28,28,29,29,30,30],"right_children":[2,4,6,8,10,12,14,16,18,20,22,24,26,28,30,32,34,36,38,40,-1,42,44,46,48,50,52,54,56,58,60,-1,-1,-1,-1,-1,-1,-1,-1,-1,-1,-1,-1,-1,-1,-1,-1,-1,-1,-1,-1,-1,-1,-1,-1,-1,-1,-1,-1,-1,-1],"split_conditions":[2.3322783E0,3.0723965E-2,-1.825313E-2,-3.5520038E-4,5.116382E1,7.2029E0,2.5579333E0,-9.367212E-3,8.507166E-1,1.9254971E-2,2.403E0,2.3932416E-2,7.3912E0,2.490842E0,3.33675E0,2.5612597E1,7.2335E-1,-1.7568293E-3,1.0353333E0,4.7805626E1,8.18847E-2,1.1636262E0,5.3536793E1,2.8796034E1,2.6984E0,2.4893871E1,7.5611E0,2.402067E0,-9.815753E-3,3.2689166E0,5.011002E-2,5.2223843E-2,1.2619239E-3,5.5803485E-2,-3.535672E-2,4.604256E-2,1.655781E-2,-1.7231695E-2,1.4850313E-2,5.582797E-2,-8.66942E-3,1.3549956E-2,5.2468956E-2,6.9297954E-2,-2.5993058E-2,5.480367E-2,-2.6938058E-3,-1.629329E-2,5.4919552E-2,2.548982E-2,-6.455195E-2,7.000722E-2,-6.169776E-2,-7.970096E-2,1.6681505E-2,-3.1234575E-2,-9.1974825E-2,-8.8866595E-3,4.9907494E-2,-2.6080007E-2,2.7894113E-2],"split_indices":[11,8,9,9,4,1,2,7,11,7,0,7,0,10,1,4,1,7,2,4,0,11,4,4,0,4,2,11,9,2,9,0,0,0,0,0,0,0,0,0,0,0,0,0,0,0,0,0,0,0,0,0,0,0,0,0,0,0,0,0,0],"split_type":[0,0,0,0,0,0,0,0,0,0,0,0,0,0,0,0,0,0,0,0,0,0,0,0,0,0,0,0,0,0,0,0,0,0,0,0,0,0,0,0,0,0,0,0,0,0,0,0,0,0,0,0,0,0,0,0,0,0,0,0,0],"sum_hessian":[3.0119175E3,1.9205818E3,1.0913357E3,1.6673892E3,2.5319261E2,1.547711E2,9.3656464E2,7.6536194E2,9.020272E2,3.6345615E1,2.1684698E2,1.337875E2,2.098359E1,5.236159E1,8.8420306E2,4.6085718E2,3.0450476E2,2.8372766E2,6.1829956E2,5.380336E0,3.0965279E1,1.9553494E2,2.1312052E1,9.4270676E1,3.9516838E1,1.1327475E1,9.656116E0,1.5484084E1,3.687751E1,3.0677206E2,5.7743097E2,5.2355816E1,4.0850137E2,1.0536856E1,2.9396793E2,1.25352234E2,1.5837543E2,1.318458E2,4.8645377E2,3.6043315E0,1.7760043E0,7.851045E1,1.1702449E2,2.3282824E0,1.898377E1,2.1573666E1,7.269701E1,2.025982E0,3.7490856E1,1.0260717E0,1.0301403E1,4.130448E0,5.5256677E0,3.7496634E0,1.1734421E1,9.353815E0,2.7523693E1,2.7829202E2,2.8480028E1,5.55962E2,2.146902E1],"tree_param":{"num_deleted":"0","num_feature":"12","num_nodes":"61","size_leaf_vector":"1"}},{"base_weights":[-6.3416E-3,1.4684013E-1,-2.8081617E-1,-5.2739778E-3,5.543527E-1,-7.716169E-1,-1.510261E-1,3.4974697E-1,-1.7636696E-1,7.18871E-1,2.536887E-1,-5.911735E-1,-1.5662007E0,2.0430925E-1,-3.0740103E-1,6.868013E-2,6.6425633E-1,1.090261E0,-2.2585219E-1,9.3189645E-1,9.793647E-2,-1.3136752E-1,7.0252097E-1,-4.0225348E-1,-1.1499835E0,-9.563019E-2,-7.2099626E-1,1.1082239E-1,1.2469779E0,2.4268918E-2,-5.8442885E-1,-2.132988E-2,1.4024958E-2,2.8668657E-2,7.257842E-2,-3.3736344E-2,6.285819E-2,-2.481353E-2,3.891952E-4,3.9370477E-2,6.7192696E-2,2.7836267E-2,-5.455304E-2,7.696887E-2,-1.5472966E-2,4.2252228E-2,-3.5139337E-2,-3.2329727E-2,5.32761E-3,-8.5025035E-2,-1.4977673E-2,6.960566E-2,-6.397744E-2,2.1458002E-2,-1.6293552E-2,1.3613144E-2,8.3054155E-2,-1.4198768E-2,1.7624732E-2,2.7599154E-2,-3.582394E-2],"categories":[],"categories_nodes":[],"categories_segments":[],"categories_sizes":[],"default_left":[0,0,0,0,0,0,0,0,0,0,0,0,0,0,0,0,0,0,0,0,0,0,0,0,0,0,0,0,0,0,0,0,0,0,0,0,0,0,0,0,0,0,0,0,0,0,0,0,0,0,0,0,0,0,0,0,0,0,0,0,0],"id":1,"left_children":[1,3,5,7,9,11,13,15,17,19,21,23,25,27,29,31,33,35,37,39,41,43,45,47,49,-1,51,53,55,57,59,-1,-1,-1,-1,-1,-1,-1,-1,-1,-1,-1,-1,-1,-1,-1,-1,-1,-1,-1,-1,-1,-1,-1,-1,-1,-1,-1,-1,-1,-1],"loss_changes":[1.2742323E2,1.2057962E2,6.903392E1,8.615813E1,2.5970978E1,3.1590271E1,4.783579E1,4.073091E1,6.0239098E1,4.503958E1,3.267635E1,1.9218208E1,1.0731644E1,2.5530785E1,5.4906414E1,2.579174E1,1.473597E1,1.1500183E1,5.825405E1,1.405574E1,4.8758858E1,3.0921505E1,1.8062424E1,1.7580896E1,2.1290478E1,0E0,1.786816E1,3.3888214E1,8.254444E0,2.7705986E1,4.9250977E1,0E0,0E0,0E0,0E0,0E0,0E0,0E0,0E0,0E0,0E0,0E0,0E0,0E0,0E0,0E0,0E0,0E0,0E0,0E0,0E0,0E0,0E0,0E0,0E0,0E0,0E0,0E0,0E0,0E0,0E0],"parents":[2147483647,0,0,1,1,2,2,3,3,4,4,5,5,6,6,7,7,8,8,9,9,10,10,11,11,12,12,13,13,14,14,15,15,16,16,17,17,18,18,19,19,20,20,21,21,22,22,23,23,24,24,26,26,27,27,28,28,29,29,30,30],"right_children":[2,4,6,8,10,12,14,16,18,20,22,24,26,28,30,32,34,36,38,40,42,44,46,48,50,-1,52,54,56,58,60,-1,-1,-1,-1,-1,-1,-1,-1,-1,-1,-1,-1,-1,-1,-1,-1,-1,-1,-1,-1,-1,-1,-1,-1,-1,-1,-1,-1,-1,-1],"split_conditions":[2.3322783E0,4.016427E-2,4.9898632E-2,8.507166E-1,2.01045E0,6.479853E7,4.8337856E7,1.8852055E-2,1.5190443E1,1.2835464E8,2.2965E0,3.53005E0,3.1453934E0,7.8822266E1,3.918031E0,-1.8944942E-3,3.152607E-2,9.176E-1,-4.6342597E-4,1.7192099E0,5.2232638E-2,-2.6533496E-2,2.2712754E-2,2.7641373E0,1.6168995E6,-9.563019E-2,3.2208E0,5.0405666E1,2.5914836E7,7.031825E-2,-2.765047E-2,-2.132988E-2,1.4024958E-2,2.8668657E-2,7.257842E-2,-3.3736344E-2,6.285819E-2,-2.481353E-2,3.891952E-4,3.9370477E-2,6.7192696E-2,2.7836267E-2,-5.455304E-2,7.696887E-2,-1.5472966E-2,4.2252228E-2,-3.5139337E-2,-3.2329727E-2,5.32761E-3,-8.5025035E-2,-1.4977673E-2,6.960566E-2,-6.397744E-2,2.1458002E-2,-1.6293552E-2,1.3613144E-2,8.3054155E-2,-1.4198768E-2,1.7624732E-2,2.7599154E-2,-3.582394E-2],"split_indices":[11,5,5,11,2,6,6,5,3,6,2,1,11,3,11,9,5,0,9,11,5,9,9,11,6,0,0,3,6,5,9,0,0,0,0,0,0,0,0,0,0,0,0,0,0,0,0,0,0,0,0,0,0,0,0,0,0,0,0,0,0],"split_type":[0,0,0,0,0,0,0,0,0,0,0,0,0,0,0,0,0,0,0,0,0,0,0,0,0,0,0,0,0,0,0,0,0,0,0,0,0,0,0,0,0,0,0,0,0,0,0,0,0,0,0,0,0,0,0,0,0,0,0,0,0],"sum_hessian":[3.0286953E3,1.9441488E3,1.0845465E3,1.4164216E3,5.277272E2,2.2578734E2,8.587592E2,4.6028268E2,9.561389E2,3.4019E2,1.8753719E2,1.8542328E2,4.036406E1,2.6233685E2,5.9642236E2,2.4370752E2,2.1657518E2,3.5159573E1,9.209794E2,2.5291953E2,8.7270485E1,1.0132075E2,8.621644E1,1.398599E2,4.5563385E1,2.7734371E1,1.262969E1,2.4176611E2,2.057074E1,2.7185632E2,3.2456604E2,7.270167E1,1.7100586E2,1.9571152E2,2.0863651E1,2.7746954E0,3.2384876E1,4.263654E2,4.9461395E2,1.8940161E2,6.3517918E1,6.3355698E1,2.3914787E1,9.023572E0,9.229718E1,7.863963E1,7.5768056E0,9.430263E1,4.5557262E1,2.7051985E1,1.8511402E1,2.3284323E0,1.0301258E1,1.3984221E2,1.0192391E2,6.627796E0,1.3942944E1,1.4026503E2,1.315913E2,3.345707E1,2.9110895E2],"tree_param":{"num_deleted":"0","num_feature":"12","num_nodes":"61","size_leaf_vector":"1"}},{"base_weights":[8.236723E-3,1.6463049E-1,-2.682486E-1,5.8502126E-3,5.0338936E-1,-8.9774984E-1,-1.2690489E-1,3.7239867E-1,-1.7390369E-1,3.270381E-1,7.391297E-1,-9.195007E-2,-7.484697E-1,-1.6971155E-1,9.560755E-1,5.306992E-1,-3.0199292E-1,5.6294805E-1,-2.5635028E-1,1.24299616E-1,6.382883E-1,7.8989244E-1,-4.7973675E-1,6.532637E-1,-8.8552374E-1,5.9336353E-2,-3.6421108E-1,1.2000626E0,-5.1368666E-1,1.2744809E-2,4.9884487E-2,-7.013036E-2,6.36873E-3,5.1920284E-2,-8.1327E-4,-8.4092975E-2,-1.128894E-2,2.1400874E-2,-1.5621818E-2,5.7030857E-2,1.5821526E-2,4.1952755E-2,-2.0440232E-2,3.821835E-2,-6.574621E-2,7.98865E-2,-8.005913E-2,5.102989E-2,-4.696812E-2,1.48333E-2,-1.26070855E-2,4.7830734E-3,-2.4004275E-2,7.258185E-2,1.4396665E-2,4.559481E-2,-7.2088055E-2],"categories":[],"categories_nodes":[],"categories_segments":[],"categories_sizes":[],"default_left":[0,0,0,0,0,0,0,0,0,0,0,0,0,0,0,0,0,0,0,0,0,0,0,0,0,0,0,0,0,0,0,0,0,0,0,0,0,0,0,0,0,0,0,0,0,0,0,0,0,0,0,0,0,0,0,0,0],"id":2,"left_children":[1,3,5,7,9,11,13,15,17,19,21,-1,23,25,27,29,31,33,35,37,39,41,43,45,47,49,51,53,55,-1,-1,-1,-1,-1,-1,-1,-1,-1,-1,-1,-1,-1,-1,-1,-1,-1,-1,-1,-1,-1,-1,-1,-1,-1,-1,-1,-1],"loss_changes":[1.3054733E2,1.03716896E2,9.693861E1,8.6637726E1,2.534108E1,2.6703308E1,4.151104E1,4.6348564E1,5.3743633E1,2.2247581E1,1.6623596E1,0E0,3.4039223E1,3.828379E1,1.2832375E1,4.492314E1,3.9348507E1,2.4553549E1,3.4230686E1,2.8718721E1,2.2164059E1,1.5218964E1,1.2558842E1,3.6814293E1,1.7284355E1,2.9293888E1,2.4803333E1,6.3548164E0,8.657839E0,0E0,0E0,0E0,0E0,0E0,0E0,0E0,0E0,0E0,0E0,0E0,0E0,0E0,0E0,0E0,0E0,0E0,0E0,0E0,0E0,0E0,0E0,0E0,0E0,0E0,0E0,0E0,0E0],"parents":[2147483647,0,0,1,1,2,2,3,3,4,4,5,5,6,6,7,7,8,8,9,9,10,10,12,12,13,13,14,14,15,15,16,16,17,17,18,18,19,19,20,20,21,21,22,22,23,23,24,24,25,25,26,26,27,27,28,28],"right_children":[2,4,6,8,10,12,14,16,18,20,22,-1,24,26,28,30,32,34,36,38,40,42,44,46,48,50,52,54,56,-1,-1,-1,-1,-1,-1,-1,-1,-1,-1,-1,-1,-1,-1,-1,-1,-1,-1,-1,-1,-1,-1,-1,-1,-1,-1,-1,-1],"split_conditions":[2.45755E0,3.6275294E-2,4.890988E-2,8.917E-1,3.84206E-3,2.562E0,1.6747984E-1,2.220924E-3,-3.3163793E-2,2.8393392E-2,2.4378E0,-9.195007E-2,2.59855E0,4.0198E0,7.2029E0,1.8510193E-2,6.416218E-3,1.4239E0,1.3993896E-2,-1.6032053E-2,4.2694485E1,3.676004E-2,-7.745033E-2,1.9769067E-2,-6.0200337E-2,5.197088E1,-1.825313E-2,6.5118744E1,3.49316E1,1.2744809E-2,4.9884487E-2,-7.013036E-2,6.36873E-3,5.1920284E-2,-8.1327E-4,-8.4092975E-2,-1.128894E-2,2.1400874E-2,-1.5621818E-2,5.7030857E-2,1.5821526E-2,4.1952755E-2,-2.0440232E-2,3.821835E-2,-6.574621E-2,7.98865E-2,-8.005913E-2,5.102989E-2,-4.696812E-2,1.48333E-2,-1.26070855E-2,4.7830734E-3,-2.4004275E-2,7.258185E-2,1.4396665E-2,4.559481E-2,-7.2088055E-2],"split_indices":[1,5,5,1,9,0,5,8,7,8,2,0,2,0,1,5,7,2,5,7,3,9,8,8,7,3,9,3,3,0,0,0,0,0,0,0,0,0,0,0,0,0,0,0,0,0,0,0,0,0,0,0,0,0,0,0,0],"split_type":[0,0,0,0,0,0,0,0,0,0,0,0,0,0,0,0,0,0,0,0,0,0,0,0,0,0,0,0,0,0,0,0,0,0,0,0,0,0,0,0,0,0,0,0,0,0,0,0,0,0,0,0,0,0,0,0,0],"sum_hessian":[3.0170715E3,1.9272999E3,1.0897716E3,1.312931E3,6.1436896E2,1.9884149E2,8.909301E2,4.3165076E2,8.812803E2,3.5282043E2,2.6154855E2,2.5669462E1,1.7317203E2,8.5786487E2,3.3065292E1,3.4976352E2,8.1887215E1,8.809738E1,7.9318286E2,2.145008E2,1.3831963E2,2.5142911E2,1.0119433E1,1.5088318E1,1.5808371E2,3.9426392E2,4.6360092E2,2.8515148E1,4.550144E0,2.208664E2,1.2889713E2,2.2344364E1,5.9542854E1,4.79467E1,4.015068E1,1.5519382E1,7.776635E2,1.2652907E2,8.7971725E1,5.302257E1,8.529706E1,2.418116E2,9.617506E0,4.098726E0,6.020708E0,1.0838845E1,4.2494726E0,3.8491871E0,1.5423453E2,2.237931E2,1.7047083E2,9.333908E1,3.7026184E2,2.1887012E1,6.628136E0,1.8010484E0,2.7490957E0],"tree_param":{"num_deleted":"0","num_feature":"12","num_nodes":"57","size_leaf_vector":"1"}},{"base_weights":[5.3499214E-4,1.3941717E-1,-2.3881756E-1,-3.0944375E-2,4.8590848E-1,-6.623244E-1,-1.2233993E-1,9.5509535E-1,-8.105497E-2,6.2361646E-1,1.3804804E-1,8.037804E-1,-7.0604855E-1,-8.6766645E-2,-1.2068589E0,1.0541319E0,-6.756238E-2,2.4858452E-1,-2.55575E-1,6.5195423E-1,-6.4865506E-1,-4.5087558E-1,4.5633283E-1,7.6301746E-2,-7.2646484E-2,-9.6942824E-1,-3.5551524E-1,-1.24028906E-1,8.434551E-1,6.2545687E-1,-1.4834783E0,6.4229004E-2,2.6626406E-2,-1.09130815E-2,2.0319415E-2,-1.4654919E-2,3.875124E-2,2.3535319E-2,4.548083E-2,-7.673105E-2,-3.9189067E-3,2.6944324E-2,-3.5422575E-2,9.8138675E-3,5.277085E-2,-6.2187184E-2,6.0835388E-2,-2.1873092E-2,-5.3927284E-2,2.0063203E-2,-4.479472E-2,4.1142586E-3,-1.6612649E-2,5.8167774E-2,9.384178E-3,6.1324626E-2,-7.620798E-3,-1.4915853E-2,-7.889169E-2],"categories":[],"categories_nodes":[],"categories_segments":[],"categories_sizes":[],"default_left":[0,0,0,0,0,0,0,0,0,0,0,0,0,0,0,0,0,0,0,0,0,0,0,0,0,0,0,0,0,0,0,0,0,0,0,0,0,0,0,0,0,0,0,0,0,0,0,0,0,0,0,0,0,0,0,0,0,0,0],"id":3,"left_children":[1,3,5,7,9,11,13,15,17,19,21,23,25,27,29,31,-1,33,35,37,39,41,43,-1,45,47,49,51,53,55,57,-1,-1,-1,-1,-1,-1,-1,-1,-1,-1,-1,-1,-1,-1,-1,-1,-1,-1,-1,-1,-1,-1,-1,-1,-1,-1,-1,-1],"loss_changes":[1.0058375E2,1.13042305E2,5.472543E1,6.3550076E1,3.0150253E1,1.5915985E1,3.356038E1,1.5632469E1,7.044305E1,1.671556E1,3.4000824E1,4.7960057E0,2.1169373E1,2.9427809E1,1.4935207E1,6.5526505E0,0E0,3.1324286E1,3.1179417E1,2.0239594E1,5.107701E0,1.6635891E1,1.8104366E1,0E0,8.003677E0,7.2179947E0,4.188922E1,3.500762E1,6.6437054E0,2.2105427E0,2.2475357E0,0E0,0E0,0E0,0E0,0E0,0E0,0E0,0E0,0E0,0E0,0E0,0E0,0E0,0E0,0E0,0E0,0E0,0E0,0E0,0E0,0E0,0E0,0E0,0E0,0E0,0E0,0E0,0E0],"parents":[2147483647,0,0,1,1,2,2,3,3,4,4,5,5,6,6,7,7,8,8,9,9,10,10,11,11,12,12,13,13,14,14,15,15,17,17,18,18,19,19,20,20,21,21,22,22,24,24,25,25,26,26,27,27,28,28,29,29,30,30],"right_children":[2,4,6,8,10,12,14,16,18,20,22,24,26,28,30,32,-1,34,36,38,40,42,44,-1,46,48,50,52,54,56,58,-1,-1,-1,-1,-1,-1,-1,-1,-1,-1,-1,-1,-1,-1,-1,-1,-1,-1,-1,-1,-1,-1,-1,-1,-1,-1,-1,-1],"split_conditions":[2.3322783E0,3.6600016E-2,4.9898632E-2,-3.5958365E-2,2.07465E0,-5.8467716E-2,7.8267665E0,2.455249E0,8.507166E-1,3.676004E-2,2.2367167E0,-1.5579039E-2,-4.2982254E-4,1.6747984E-1,1.9679876E1,1.4294865E0,-6.756238E-2,-1.8944942E-3,2.9584533E-2,4.6658465E-3,3.144711E-2,-1.7026428E-2,7.156168E-2,7.6301746E-2,3.278401E1,2.529351E1,8.888516E-3,3.964986E0,6.8934E0,-1.2240542E-1,-1.2262125E-1,6.4229004E-2,2.6626406E-2,-1.09130815E-2,2.0319415E-2,-1.4654919E-2,3.875124E-2,2.3535319E-2,4.548083E-2,-7.673105E-2,-3.9189067E-3,2.6944324E-2,-3.5422575E-2,9.8138675E-3,5.277085E-2,-6.2187184E-2,6.0835388E-2,-2.1873092E-2,-5.3927284E-2,2.0063203E-2,-4.479472E-2,4.1142586E-3,-1.6612649E-2,5.8167774E-2,9.384178E-3,6.1324626E-2,-7.620798E-3,-1.4915853E-2,-7.889169E-2],"split_indices":[11,5,5,8,2,7,2,10,11,9,2,9,7,5,3,10,0,9,7,9,8,9,5,0,3,3,7,11,0,7,8,0,0,0,0,0,0,0,0,0,0,0,0,0,0,0,0,0,0,0,0,0,0,0,0,0,0,0,0],"split_type":[0,0,0,0,0,0,0,0,0,0,0,0,0,0,0,0,0,0,0,0,0,0,0,0,0,0,0,0,0,0,0,0,0,0,0,0,0,0,0,0,0,0,0,0,0,0,0,0,0,0,0,0,0,0,0,0,0,0,0],"sum_hessian":[3.0238193E3,1.913782E3,1.1100375E3,1.2835846E3,6.301974E2,2.3843033E2,8.716071E2,6.1203674E1,1.222381E3,4.509045E2,1.7929286E2,6.4014554E0,2.3202887E2,8.449712E2,2.6635874E1,5.920433E1,1.9993464E0,4.229929E2,7.99388E2,4.4155713E2,9.3474E0,6.2756912E1,1.1653595E2,3.1030571E0,3.2983983E0,1.3147621E2,1.0055266E2,8.132608E2,3.1710443E1,3.3282967E0,2.3307577E1,4.004806E1,1.9156267E1,1.0676286E2,3.1623004E2,7.7199585E2,2.739218E1,2.6087573E2,1.8068138E2,2.9983065E0,6.3490934E0,1.2733806E1,5.002311E1,8.218711E1,3.4348843E1,1.7470021E0,1.5513961E0,2.3230846E1,1.0824537E2,4.1996162E1,5.8556496E1,4.0880777E2,4.04453E2,2.079308E1,1.0917365E1,1.5522219E0,1.7760748E0,2.025664E0,2.1281914E1],"tree_param":{"num_deleted":"0","num_feature":"12","num_nodes":"59","size_leaf_vector":"1"}},{"base_weights":[-1.5974417E-2,1.2666714E-1,-2.677183E-1,3.015315E-1,-1.1596719E-1,-7.820346E-1,-1.3365959E-1,1.19099975E-1,5.346848E-1,2.1780315E-1,-3.162681E-1,-5.782446E-1,-1.49717E0,8.789562E-2,-3.255592E-1,3.0623603E-1,-4.5002985E-1,7.0592785E-1,2.1255808E-1,-9.394548E-2,5.662998E-1,-6.839651E-1,-1.7147785E-1,-4.0249434E-1,-9.7623706E-1,-1.5391116E0,-6.4148635E-1,-8.532845E-2,1.17090635E-1,-8.922884E-2,-9.17123E-1,-3.609408E-2,1.8814337E-2,-8.191036E-2,-1.6045317E-2,2.8143385E-2,4.994427E-2,4.6051934E-2,1.8388663E-3,1.6522994E-2,-5.7509538E-2,3.371076E-2,-8.568107E-2,-5.6324787E-2,-1.4293559E-2,-3.0533415E-3,-5.500064E-2,-3.6401596E-2,1.5777482E-2,-7.949463E-2,-1.0840162E-2,-8.388324E-2,-5.5093896E-2,-6.3132934E-2,2.9821668E-2,7.070443E-3,-8.188267E-2,5.313921E-4,-5.5112E-2,1.1777068E-2,-5.8212556E-2],"categories":[],"categories_nodes":[],"categories_segments":[],"categories_sizes":[],"default_left":[0,0,0,0,0,0,0,0,0,0,0,0,0,0,0,0,0,0,0,0,0,0,0,0,0,0,0,0,0,0,0,0,0,0,0,0,0,0,0,0,0,0,0,0,0,0,0,0,0,0,0,0,0,0,0,0,0,0,0,0,0],"id":4,"left_children":[1,3,5,7,9,11,13,15,17,19,21,23,25,27,29,31,33,35,37,39,41,43,45,47,49,51,53,-1,55,57,59,-1,-1,-1,-1,-1,-1,-1,-1,-1,-1,-1,-1,-1,-1,-1,-1,-1,-1,-1,-1,-1,-1,-1,-1,-1,-1,-1,-1,-1,-1],"loss_changes":[1.0803089E2,8.151512E1,7.491692E1,4.742006E1,5.3891518E1,3.1891083E1,3.6776016E1,6.6979195E1,2.686647E1,3.292111E1,2.6690697E1,1.1956196E1,7.790222E-1,2.1257572E1,6.469876E1,3.4329338E1,2.3362144E1,1.2821625E1,2.1314734E1,7.234725E1,3.633601E1,2.4681252E1,3.7108063E1,2.9254408E1,2.4531746E1,9.503784E-1,3.83995E0,0E0,1.7148888E1,3.361584E1,3.7922005E1,0E0,0E0,0E0,0E0,0E0,0E0,0E0,0E0,0E0,0E0,0E0,0E0,0E0,0E0,0E0,0E0,0E0,0E0,0E0,0E0,0E0,0E0,0E0,0E0,0E0,0E0,0E0,0E0,0E0,0E0],"parents":[2147483647,0,0,1,1,2,2,3,3,4,4,5,5,6,6,7,7,8,8,9,9,10,10,11,11,12,12,13,13,14,14,15,15,16,16,17,17,18,18,19,19,20,20,21,21,22,22,23,23,24,24,25,25,26,26,28,28,29,29,30,30],"right_children":[2,4,6,8,10,12,14,16,18,20,22,24,26,28,30,32,34,36,38,40,42,44,46,48,50,52,54,-1,56,58,60,-1,-1,-1,-1,-1,-1,-1,-1,-1,-1,-1,-1,-1,-1,-1,-1,-1,-1,-1,-1,-1,-1,-1,-1,-1,-1,-1,-1,-1,-1],"split_conditions":[2.3322783E0,1.3051185E8,4.9898632E-2,3.6275294E-2,8.917E-1,5.7360224E7,3.918031E0,1.4239E0,2.07465E0,8.570167E-1,2.1268334E-2,3.5905664E0,4.890988E-2,2.4834E0,7.462197E7,1.4368316E-2,1.4574167E0,1.8784E0,3.6492212E7,8.112E-1,6.997384E8,-1.1060585E-3,1.3039E0,2.7641373E0,3.8744824E0,3.1453934E0,4.6658465E-3,-8.532845E-2,1.6713858E8,7.8267665E0,-2.0070635E-2,-3.609408E-2,1.8814337E-2,-8.191036E-2,-1.6045317E-2,2.8143385E-2,4.994427E-2,4.6051934E-2,1.8388663E-3,1.6522994E-2,-5.7509538E-2,3.371076E-2,-8.568107E-2,-5.6324787E-2,-1.4293559E-2,-3.0533415E-3,-5.500064E-2,-3.6401596E-2,1.5777482E-2,-7.949463E-2,-1.0840162E-2,-8.388324E-2,-5.5093896E-2,-6.3132934E-2,2.9821668E-2,7.070443E-3,-8.188267E-2,5.313921E-4,-5.5112E-2,1.1777068E-2,-5.8212556E-2],"split_indices":[11,6,5,5,1,6,11,2,2,2,5,10,5,0,6,5,2,0,6,0,6,9,1,11,10,11,9,0,6,2,9,0,0,0,0,0,0,0,0,0,0,0,0,0,0,0,0,0,0,0,0,0,0,0,0,0,0,0,0,0,0],"split_type":[0,0,0,0,0,0,0,0,0,0,0,0,0,0,0,0,0,0,0,0,0,0,0,0,0,0,0,0,0,0,0,0,0,0,0,0,0,0,0,0,0,0,0,0,0,0,0,0,0,0,0,0,0,0,0,0,0,0,0,0,0],"sum_hessian":[3.0065073E3,1.9194292E3,1.0870782E3,1.115358E3,8.0407117E2,2.2376607E2,8.6331213E2,6.265908E2,4.8876715E2,3.0153033E2,5.0254083E2,1.75549E2,4.8217075E1,4.009465E2,4.6236563E2,4.7189017E2,1.5470068E2,3.183437E2,1.7042345E2,1.59542E2,1.4198833E2,1.4092807E2,3.6161276E2,1.2316959E2,5.2379402E1,4.520275E1,3.0143213E0,5.498979E0,3.9544754E2,3.3120123E2,1.3116438E2,2.9507673E1,4.4238248E2,1.40183735E1,1.406823E2,2.1585594E2,1.02487755E2,3.303537E1,1.3738806E2,1.1430196E2,4.5240044E1,1.3624379E2,5.7445407E0,6.587269E1,7.505538E1,3.241359E2,3.7476864E1,8.4738174E1,3.843142E1,2.8365402E1,2.4014002E1,3.2171165E1,1.3031589E1,1.993849E0,1.0204724E0,3.9094897E2,4.4985757E0,3.0238354E2,2.8817684E1,2.316485E1,1.07999535E2],"tree_param":{"num_deleted":"0","num_feature":"12","num_nodes":"61","size_leaf_vector":"1"}},{"base_weights":[4.0307753E-3,1.2933747E-1,-2.1366423E-1,8.061427E-3,4.52618E-1,-6.222619E-1,-1.0253452E-1,-2.0714466E-1,2.6147923E-1,6.732403E-1,2.537491E-1,-4.660023E-1,-1.4134612E0,-1.4293735E-1,9.1275525E-1,1.8458743E-2,-8.070273E-1,3.452473E-1,-5.5451876E-1,9.9857897E-1,4.6305615E-1,-4.150937E-2,5.739776E-1,-7.3195213E-1,-6.340473E-2,-1.4825957E0,2.8220568E-2,7.480419E-2,-3.3744642E-1,1.1185502E0,-7.549283E-1,5.0303277E-2,-3.378763E-3,-2.5941813E-2,-6.594221E-2,7.1724996E-2,1.4209664E-2,-8.0293834E-2,1.0592425E-3,5.3660717E-2,-7.384997E-2,3.4884717E-2,-2.6759187E-2,7.998469E-3,-7.7048816E-2,1.9912012E-2,5.827276E-2,-4.6755604E-2,3.7278235E-3,5.3945314E-2,-2.902702E-2,-8.398504E-2,-4.9096342E-2,8.701096E-3,-1.7258149E-2,-5.086856E-2,-8.187061E-3,6.544629E-2,9.8589305E-3,2.5908351E-2,-6.585523E-2],"categories":[],"categories_nodes":[],"categories_segments":[],"categories_sizes":[],"default_left":[0,0,0,0,0,0,0,0,0,0,0,0,0,0,0,0,0,0,0,0,0,0,0,0,0,0,0,0,0,0,0,0,0,0,0,0,0,0,0,0,0,0,0,0,0,0,0,0,0,0,0,0,0,0,0,0,0,0,0,0,0],"id":5,"left_children":[1,3,5,7,9,11,13,15,17,19,21,23,25,27,29,31,33,35,37,39,41,43,45,47,49,51,-1,53,55,57,59,-1,-1,-1,-1,-1,-1,-1,-1,-1,-1,-1,-1,-1,-1,-1,-1,-1,-1,-1,-1,-1,-1,-1,-1,-1,-1,-1,-1,-1,-1],"loss_changes":[8.25213E1,7.527045E1,5.0118435E1,7.6253586E1,2.2808624E1,2.8532303E1,3.5820274E1,1.0234544E2,4.4080563E1,1.6474915E1,2.6219873E1,2.1224491E1,6.094246E0,3.5500412E1,1.2318756E1,4.683892E1,2.9799683E1,3.8358315E1,3.644786E1,1.9387268E1,3.605534E1,4.4077496E1,1.33581505E1,1.9656204E1,4.795747E1,2.0440063E0,0E0,1.6561632E1,5.210614E1,5.0328217E0,3.73823E0,0E0,0E0,0E0,0E0,0E0,0E0,0E0,0E0,0E0,0E0,0E0,0E0,0E0,0E0,0E0,0E0,0E0,0E0,0E0,0E0,0E0,0E0,0E0,0E0,0E0,0E0,0E0,0E0,0E0,0E0],"parents":[2147483647,0,0,1,1,2,2,3,3,4,4,5,5,6,6,7,7,8,8,9,9,10,10,11,11,12,12,13,13,14,14,15,15,16,16,17,17,18,18,19,19,20,20,21,21,22,22,23,23,24,24,25,25,27,27,28,28,29,29,30,30],"right_children":[2,4,6,8,10,12,14,16,18,20,22,24,26,28,30,32,34,36,38,40,42,44,46,48,50,52,-1,54,56,58,60,-1,-1,-1,-1,-1,-1,-1,-1,-1,-1,-1,-1,-1,-1,-1,-1,-1,-1,-1,-1,-1,-1,-1,-1,-1,-1,-1,-1,-1,-1],"split_conditions":[2.3322783E0,4.016427E-2,4.9898632E-2,9.806432E-4,5.6290455E-2,6.542806E7,1.6747984E-1,1.1272193E-3,1.563887E0,-4.130527E-3,7.204922E-2,-1.8738061E-3,3.964986E0,3.918031E0,7.2029E0,2.5612597E1,5.087468E1,-3.5958365E-2,3.152607E-2,2.35455E0,1.3633272E8,1.2752687E8,2.2672334E0,3.3945744E7,3.597849E-2,3.1453934E0,2.8220568E-2,6.0647785E1,7.2460964E-2,6.549116E1,3.8489628E1,5.0303277E-2,-3.378763E-3,-2.5941813E-2,-6.594221E-2,7.1724996E-2,1.4209664E-2,-8.0293834E-2,1.0592425E-3,5.3660717E-2,-7.384997E-2,3.4884717E-2,-2.6759187E-2,7.998469E-3,-7.7048816E-2,1.9912012E-2,5.827276E-2,-4.6755604E-2,3.7278235E-3,5.3945314E-2,-2.902702E-2,-8.398504E-2,-4.9096342E-2,8.701096E-3,-1.7258149E-2,-5.086856E-2,-8.187061E-3,6.544629E-2,9.8589305E-3,2.5908351E-2,-6.585523E-2],"split_indices":[11,5,5,9,5,6,5,8,10,9,5,8,11,11,1,4,4,8,5,1,6,6,2,6,5,11,0,4,5,4,4,0,0,0,0,0,0,0,0,0,0,0,0,0,0,0,0,0,0,0,0,0,0,0,0,0,0,0,0,0,0],"split_type":[0,0,0,0,0,0,0,0,0,0,0,0,0,0,0,0,0,0,0,0,0,0,0,0,0,0,0,0,0,0,0,0,0,0,0,0,0,0,0,0,0,0,0,0,0,0,0,0,0,0,0,0,0,0,0,0,0,0,0,0,0],"sum_hessian":[3.0231116E3,1.9189545E3,1.1041571E3,1.3962046E3,5.227498E2,2.3511084E2,8.6904626E2,7.5512445E2,6.4108014E2,2.4669006E2,2.7605978E2,1.9766211E2,3.744872E1,8.36613E2,3.243328E1,5.49455E2,2.0566942E2,5.819189E2,5.9161266E1,9.534972E1,1.5134035E2,1.4408253E2,1.3197725E2,1.1853899E2,7.912313E1,3.64259E1,1.022821E0,3.9502313E2,4.4158987E2,2.916371E1,3.269572E0,4.3172527E1,5.062825E2,1.3286836E2,7.2801056E1,2.969212E1,5.5222675E2,2.0299898E1,3.886137E1,9.310908E1,2.2406354E0,1.2278142E2,2.8558931E1,1.2780331E2,1.627922E1,1.0303671E2,2.8940536E1,9.455985E1,2.3979136E1,2.4318722E1,5.4804405E1,2.4446718E1,1.1979182E1,3.2000677E2,7.501634E1,8.887082E1,3.5271906E2,2.382112E1,5.3425913E0,1.0255078E0,2.2440643E0],"tree_param":{"num_deleted":"0","num_feature":"12","num_nodes":"61","size_leaf_vector":"1"}},{"base_weights":[-2.5084463E-3,1.0421381E0,-3.2622207E-2,1.0919958E0,-5.298378E-1,8.7944254E-2,-2.4584901E-1,1.489967E-1,1.175671E0,2.2346515E-2,-5.8617383E-2,-5.4213025E-2,3.815745E-1,-5.927297E-1,-1.5271415E-1,-6.649984E-2,7.0421314E-1,1.5356663E0,8.148814E-1,6.610574E-2,-4.9277732E-1,4.7973529E-1,5.001001E-2,-4.203642E-1,-1.3731846E0,7.30757E-1,-1.9617894E-1,6.345819E-2,-1.6860953E-2,2.3740368E-2,8.604621E-2,-2.3372045E-2,4.864177E-2,4.784025E-2,1.066931E-3,3.6344968E-2,-3.022169E-2,5.899731E-2,2.0342436E-2,7.198807E-2,-3.8065256E-3,1.974222E-3,-3.3935364E-2,-7.82732E-2,-2.0248033E-2,-6.9362104E-2,4.482644E-2,-1.1508747E-2,3.5630044E-2],"categories":[],"categories_nodes":[],"categories_segments":[],"categories_sizes":[],"default_left":[0,0,0,0,0,0,0,0,0,0,0,0,0,0,0,0,0,0,0,0,0,0,0,0,0,0,0,0,0,0,0,0,0,0,0,0,0,0,0,0,0,0,0,0,0,0,0,0,0],"id":6,"left_children":[1,3,5,7,9,11,13,15,17,-1,-1,19,21,23,25,-1,27,29,31,33,35,37,39,41,43,45,47,-1,-1,-1,-1,-1,-1,-1,-1,-1,-1,-1,-1,-1,-1,-1,-1,-1,-1,-1,-1,-1,-1],"loss_changes":[9.469447E1,7.1889114E0,7.52366E1,6.301079E0,2.5737169E0,7.8064995E1,3.4059082E1,7.3699126E0,8.521172E0,0E0,0E0,6.655464E1,1.9830566E1,2.9473938E1,3.2194016E1,0E0,4.1639996E0,6.362541E0,8.497892E0,3.946062E1,3.7416153E1,2.3535927E1,2.4733604E1,2.1935616E1,6.807266E0,1.5059414E1,2.4765778E1,0E0,0E0,0E0,0E0,0E0,0E0,0E0,0E0,0E0,0E0,0E0,0E0,0E0,0E0,0E0,0E0,0E0,0E0,0E0,0E0,0E0,0E0],"parents":[2147483647,0,0,1,1,2,2,3,3,4,4,5,5,6,6,7,7,8,8,11,11,12,12,13,13,14,14,16,16,17,17,18,18,19,19,20,20,21,21,22,22,23,23,24,24,25,25,26,26],"right_children":[2,4,6,8,10,12,14,16,18,-1,-1,20,22,24,26,-1,28,30,32,34,36,38,40,42,44,46,48,-1,-1,-1,-1,-1,-1,-1,-1,-1,-1,-1,-1,-1,-1,-1,-1,-1,-1,-1,-1,-1,-1],"split_conditions":[2.5612597E1,-1.2924393E-2,2.3322783E0,-2.3498254E-1,-2.4671878E7,3.6275294E-2,4.9898632E-2,9.806E-1,2.2247955E1,2.2346515E-2,-5.8617383E-2,1.1466E0,1.3051185E8,6.542806E7,5.145075E-2,-6.649984E-2,6.9126424E7,-5.5475372E7,1.1990584E1,-3.0332787E-2,-3.852304E-2,1.100208E0,1.0510308E0,3.6275294E-2,4.8540454E-2,-1.6214146E7,1.6747984E-1,6.345819E-2,-1.6860953E-2,2.3740368E-2,8.604621E-2,-2.3372045E-2,4.864177E-2,4.784025E-2,1.066931E-3,3.6344968E-2,-3.022169E-2,5.899731E-2,2.0342436E-2,7.198807E-2,-3.8065256E-3,1.974222E-3,-3.3935364E-2,-7.82732E-2,-2.0248033E-2,-6.9362104E-2,4.482644E-2,-1.1508747E-2,3.5630044E-2],"split_indices":[4,8,11,7,6,5,5,0,4,0,0,0,6,6,5,0,6,6,3,8,7,11,10,5,5,6,5,0,0,0,0,0,0,0,0,0,0,0,0,0,0,0,0,0,0,0,0,0,0],"split_type":[0,0,0,0,0,0,0,0,0,0,0,0,0,0,0,0,0,0,0,0,0,0,0,0,0,0,0,0,0,0,0,0,0,0,0,0,0,0,0,0,0,0,0,0,0,0,0,0,0],"sum_hessian":[3.008084E3,8.3342026E1,2.924742E3,8.1075905E1,2.2661161E0,1.8686975E3,1.0560444E3,6.8344054E0,7.42415E1,1.0199493E0,1.2461668E0,1.2596632E3,6.090343E2,2.2238977E2,8.3365466E2,1.4845047E0,5.3499007E0,3.553166E1,3.8709843E1,9.891439E2,2.7051932E2,4.6956973E2,1.3946457E2,1.8341968E2,3.8970097E1,3.8349293E1,7.9530536E2,3.3266215E0,2.0232794E0,5.812125E0,2.9719534E1,4.0303993E0,3.4679443E1,4.6360924E1,9.42783E2,2.2225828E1,2.4829349E2,4.2838413E1,4.2673132E2,1.073857E1,1.28726E2,6.628322E1,1.1713645E2,3.199865E1,6.9714484E0,2.248807E0,3.6100487E1,7.6734686E2,2.7958496E1],"tree_param":{"num_deleted":"0","num_feature":"12","num_nodes":"49","size_leaf_vector":"1"}},{"base_weights":[1.6630303E-4,1.1952036E-1,-2.0429148E-1,-1.29913995E-2,3.9894512E-1,-4.0542933E-1,2.8889967E-2,5.724401E-2,-5.246263E-1,4.2359826E-1,-8.633984E-1,-2.9077116E-1,-9.7995675E-1,8.960496E-2,-1.0781883E0,7.15751E-1,-9.481686E-3,-3.1603524E-1,-1.2303182E0,3.0634525E-1,7.372839E-1,6.656276E-1,-1.4565966E0,-6.0573715E-1,-2.9217413E-2,-1.0750499E0,1.1227927E-1,3.03978E-1,-2.0222782E-1,4.1771346E-1,-1.4460801E0,5.2818585E-2,1.1649485E-2,-1.2785839E-2,6.7790165E-3,-8.181008E-2,-1.1840792E-2,2.4660021E-2,-7.605495E-2,3.0180758E-2,9.760839E-3,6.364565E-2,3.0225871E-2,-3.0682269E-3,5.6198943E-2,-2.1495467E-2,-8.69702E-2,-8.373401E-2,-2.6392654E-2,7.8555726E-2,-4.1580927E-3,-1.327423E-3,-5.9168275E-2,4.3742977E-2,-6.556895E-2,1.2881617E-2,7.401168E-2,-1.4032098E-2,3.851604E-2,5.880704E-2,-5.034103E-3,-4.4936575E-2,-8.4102556E-2],"categories":[],"categories_nodes":[],"categories_segments":[],"categories_sizes":[],"default_left":[0,0,0,0,0,0,0,0,0,0,0,0,0,0,0,0,0,0,0,0,0,0,0,0,0,0,0,0,0,0,0,0,0,0,0,0,0,0,0,0,0,0,0,0,0,0,0,0,0,0,0,0,0,0,0,0,0,0,0,0,0,0,0],"id":7,"left_children":[1,3,5,7,9,11,13,15,17,19,21,23,25,27,29,31,33,35,37,39,41,43,45,47,49,51,53,55,57,59,61,-1,-1,-1,-1,-1,-1,-1,-1,-1,-1,-1,-1,-1,-1,-1,-1,-1,-1,-1,-1,-1,-1,-1,-1,-1,-1,-1,-1,-1,-1,-1,-1],"loss_changes":[7.365307E1,7.056867E1,5.2189114E1,4.651761E1,1.9444778E1,3.9064957E1,3.4789444E1,5.002776E1,2.2611542E1,2.1915787E1,1.1919721E1,4.1122395E1,1.03988495E1,3.0730553E1,1.54141655E1,1.6979382E1,3.699193E1,1.2366267E1,1.8442703E1,1.44146385E1,1.0827995E1,1.4221343E0,1.8688488E0,1.7973923E1,2.3774403E1,1.0317741E1,1.073461E1,1.5047287E1,1.609433E1,2.5119581E0,1.3069725E0,0E0,0E0,0E0,0E0,0E0,0E0,0E0,0E0,0E0,0E0,0E0,0E0,0E0,0E0,0E0,0E0,0E0,0E0,0E0,0E0,0E0,0E0,0E0,0E0,0E0,0E0,0E0,0E0,0E0,0E0,0E0,0E0],"parents":[2147483647,0,0,1,1,2,2,3,3,4,4,5,5,6,6,7,7,8,8,9,9,10,10,11,11,12,12,13,13,14,14,15,15,16,16,17,17,18,18,19,19,20,20,21,21,22,22,23,23,24,24,25,25,26,26,27,27,28,28,29,29,30,30],"right_children":[2,4,6,8,10,12,14,16,18,20,22,24,26,28,30,32,34,36,38,40,42,44,46,48,50,52,54,56,58,60,62,-1,-1,-1,-1,-1,-1,-1,-1,-1,-1,-1,-1,-1,-1,-1,-1,-1,-1,-1,-1,-1,-1,-1,-1,-1,-1,-1,-1,-1,-1,-1,-1],"split_conditions":[2.300474E0,3.6275294E-2,7.2460964E-2,1.4239E0,3.676004E-2,3.918031E0,7.8267665E0,-2.6331408E-2,-5.755136E-3,1.05633885E-2,5.761811E1,4.9898632E-2,2.0902779E-2,5.3418373E1,3.4987938E1,9.6718264E-1,-1.2902988E-3,1.362E0,1.46775E0,3.5630188E1,1.2704E0,5.6606995E1,9.654E-1,2.402067E0,2.5612597E1,5.2232638E-2,4.8235278E-3,7.3912E0,7.3454747E0,2.2247955E1,7.9536E0,5.2818585E-2,1.1649485E-2,-1.2785839E-2,6.7790165E-3,-8.181008E-2,-1.1840792E-2,2.4660021E-2,-7.605495E-2,3.0180758E-2,9.760839E-3,6.364565E-2,3.0225871E-2,-3.0682269E-3,5.6198943E-2,-2.1495467E-2,-8.69702E-2,-8.373401E-2,-2.6392654E-2,7.8555726E-2,-4.1580927E-3,-1.327423E-3,-5.9168275E-2,4.3742977E-2,-6.556895E-2,1.2881617E-2,7.401168E-2,-1.4032098E-2,3.851604E-2,5.880704E-2,-5.034103E-3,-4.4936575E-2,-8.4102556E-2],"split_indices":[11,5,5,2,9,11,2,8,8,9,3,5,9,3,4,11,9,0,1,3,0,3,2,11,4,5,8,0,11,4,1,0,0,0,0,0,0,0,0,0,0,0,0,0,0,0,0,0,0,0,0,0,0,0,0,0,0,0,0,0,0,0,0],"split_type":[0,0,0,0,0,0,0,0,0,0,0,0,0,0,0,0,0,0,0,0,0,0,0,0,0,0,0,0,0,0,0,0,0,0,0,0,0,0,0,0,0,0,0,0,0,0,0,0,0,0,0,0,0,0,0,0,0,0,0,0,0,0,0],"sum_hessian":[3.0162131E3,1.9047272E3,1.1114861E3,1.2926613E3,6.120659E2,5.963485E2,5.151375E2,1.1374098E3,1.5525143E2,6.0099316E2,1.1072747E1,4.9839096E2,9.7957565E1,4.8922617E2,2.5911348E1,1.0375351E2,1.0336562E3,1.2094878E2,3.4302658E1,4.3890924E2,1.6208394E2,3.0608945E0,8.011852E0,2.255115E2,2.7287946E2,9.0126625E1,7.8309364E0,2.8201984E2,2.0720633E2,5.087876E0,2.0823473E1,6.0135597E1,4.3617912E1,3.8291522E2,6.507411E2,5.734308E0,1.1521446E2,4.851381E0,2.9451277E1,1.1822482E2,3.2068442E2,3.0489683E1,1.3159425E2,1.5185064E0,1.5423882E0,2.2745624E0,5.73729E0,1.3922723E1,2.1158879E2,7.9812303E0,2.6489822E2,8.555356E0,8.157127E1,5.350457E0,2.4804792E0,2.72502E2,9.517829E0,1.9240466E2,1.4801667E1,1.5505573E0,3.5373185E0,7.721545E0,1.3101928E1],"tree_param":{"num_deleted":"0","num_feature":"12","num_nodes":"63","size_leaf_vector":"1"}},{"base_weights":[1.981606E-2,9.108868E-1,-6.1767157E-3,-1.5381154E-1,9.9725753E-1,1.0374724E-1,-1.9543502E-1,6.205554E-2,-1.0371155E0,1.3450617E0,6.9904435E-1,5.564839E-3,5.708004E-1,-6.377336E-1,-9.8953694E-2,-7.8834794E-2,2.684862E-2,5.1323766E-1,1.414423E0,7.761943E-1,-2.1751909E-1,1.161619E0,-2.3185652E-2,1.315695E0,4.983091E-1,-7.84579E-2,-5.1308614E-1,2.8871557E-1,-1.7352764E-1,5.5282798E-2,-1.07503915E-2,8.146012E-2,4.769663E-2,5.1395964E-2,1.8052746E-2,-5.625817E-2,2.6556099E-2,7.5936474E-2,4.4917174E-2,-1.072362E-2,7.446602E-3,7.024124E-2,-8.174164E-3,2.9203398E-2,-1.2358868E-2,6.8805465E-3,-3.7126716E-2,1.927675E-2,-7.725965E-2,3.8762632E-4,-2.3860015E-2],"categories":[],"categories_nodes":[],"categories_segments":[],"categories_sizes":[],"default_left":[0,0,0,0,0,0,0,0,0,0,0,0,0,0,0,0,0,0,0,0,0,0,0,0,0,0,0,0,0,0,0,0,0,0,0,0,0,0,0,0,0,0,0,0,0,0,0,0,0,0,0],"id":8,"left_children":[1,3,5,7,9,11,13,-1,15,17,19,21,23,25,27,-1,-1,29,31,33,35,37,39,41,43,-1,45,47,49,-1,-1,-1,-1,-1,-1,-1,-1,-1,-1,-1,-1,-1,-1,-1,-1,-1,-1,-1,-1,-1,-1],"loss_changes":[7.0030975E1,8.034203E0,6.1156315E1,1.0277916E1,7.295349E0,8.52718E1,4.6026684E1,0E0,5.104008E0,1.326416E0,3.3389606E0,5.113239E1,1.678627E1,2.1628357E1,2.5717274E1,0E0,0E0,2.096024E0,1.6369095E0,3.9728985E0,3.4934185E0,2.1454659E0,4.9459526E1,3.9260101E0,1.9066383E1,0E0,2.5767864E1,2.6094719E1,4.102793E1,0E0,0E0,0E0,0E0,0E0,0E0,0E0,0E0,0E0,0E0,0E0,0E0,0E0,0E0,0E0,0E0,0E0,0E0,0E0,0E0,0E0,0E0],"parents":[2147483647,0,0,1,1,2,2,3,3,4,4,5,5,6,6,8,8,9,9,10,10,11,11,12,12,13,13,14,14,17,17,18,18,19,19,20,20,21,21,22,22,23,23,24,24,26,26,27,27,28,28],"right_children":[2,4,6,8,10,12,14,-1,16,18,20,22,24,26,28,-1,-1,30,32,34,36,38,40,42,44,-1,46,48,50,-1,-1,-1,-1,-1,-1,-1,-1,-1,-1,-1,-1,-1,-1,-1,-1,-1,-1,-1,-1,-1,-1],"split_conditions":[2.5612597E1,-2.3498254E-1,2.45755E0,1.1990584E1,2.2247955E1,2.3247253E-2,4.890988E-2,6.205554E-2,2.0088385E1,1.9784253E-2,-4.336241E-3,7.448663E-1,-1.6650056E-2,2.54905E0,-1.825313E-2,-7.8834794E-2,2.684862E-2,7.926E-1,2.208E0,2.35455E0,1.8351996E-2,-7.780503E-4,-4.6342597E-4,2.677499E0,2.07465E0,-7.84579E-2,3.6275294E-2,7.8267665E0,4.9791164E0,5.5282798E-2,-1.07503915E-2,8.146012E-2,4.769663E-2,5.1395964E-2,1.8052746E-2,-5.625817E-2,2.6556099E-2,7.5936474E-2,4.4917174E-2,-1.072362E-2,7.446602E-3,7.024124E-2,-8.174164E-3,2.9203398E-2,-1.2358868E-2,6.8805465E-3,-3.7126716E-2,1.927675E-2,-7.725965E-2,3.8762632E-4,-2.3860015E-2],"split_indices":[4,7,1,3,4,7,5,0,3,5,9,10,9,1,9,0,0,0,0,1,5,9,9,10,2,0,5,2,2,0,0,0,0,0,0,0,0,0,0,0,0,0,0,0,0,0,0,0,0,0,0],"split_type":[0,0,0,0,0,0,0,0,0,0,0,0,0,0,0,0,0,0,0,0,0,0,0,0,0,0,0,0,0,0,0,0,0,0,0,0,0,0,0,0,0,0,0,0,0,0,0,0,0,0,0],"sum_hessian":[3.0223638E3,8.4699394E1,2.9376643E3,6.2968473E0,7.840255E1,1.8586091E3,1.0790552E3,2.284331E0,4.0125165E0,3.457156E1,4.383099E1,1.5366017E3,3.220075E2,1.9222586E2,8.8682935E2,2.9869614E0,1.0255551E0,3.307343E0,3.1264217E1,4.0569298E1,3.261693E0,3.633104E1,1.5002706E3,2.7036844E1,2.9497064E2,2.1320478E1,1.7090538E2,1.426094E2,7.442199E2,1.5379745E0,1.7693685E0,1.9589445E1,1.1674771E1,2.4336481E1,1.6232815E1,1.246956E0,2.0147371E0,1.3394272E1,2.2936768E1,7.104502E2,7.8982043E2,2.5547703E1,1.4891423E0,2.6473297E2,3.0237675E1,4.465827E1,1.2624711E2,1.3620819E2,6.401204E0,4.6663336E2,2.7758658E2],"tree_param":{"num_deleted":"0","num_feature":"12","num_nodes":"51","size_leaf_vector":"1"}},{"base_weights":[1.5452156E-2,1.2191844E-1,-1.7087805E-1,2.834865E-1,-1.0119088E-1,-1.527959E-1,-1.2939824E0,1.721719E-1,7.088592E-1,2.1782817E-1,-3.299313E-1,-1.8109342E-1,8.3974326E-1,3.6477327E-2,-8.072387E-2,4.0139368E-1,-1.6978945E-3,8.352412E-1,6.893577E-2,4.2781585E-1,-2.6011616E-1,6.808756E-2,-4.806539E-1,-1.5635847E-1,-1.0741595E0,1.2567905E0,-4.598298E-1,1.3695553E-2,5.4342706E-2,2.0483894E-2,-6.4832056E-3,4.2984452E-2,-6.91807E-2,-6.684578E-2,4.570222E-2,7.352455E-2,1.6766643E-2,-6.715413E-2,-3.6326642E-4,-3.2272052E-2,1.4552285E-2,-1.2269082E-2,-4.4908874E-2,-9.978226E-3,2.3093674E-2,6.4385533E-3,-8.070069E-2,7.197427E-2,-5.335743E-2,-7.509508E-2,7.3134385E-2],"categories":[],"categories_nodes":[],"categories_segments":[],"categories_sizes":[],"default_left":[0,0,0,0,0,0,0,0,0,0,0,0,0,0,0,0,0,0,0,0,0,0,0,0,0,0,0,0,0,0,0,0,0,0,0,0,0,0,0,0,0,0,0,0,0,0,0,0,0,0,0],"id":9,"left_children":[1,3,5,7,9,11,13,15,17,19,21,23,25,-1,-1,27,29,31,33,35,37,39,41,43,45,47,49,-1,-1,-1,-1,-1,-1,-1,-1,-1,-1,-1,-1,-1,-1,-1,-1,-1,-1,-1,-1,-1,-1,-1,-1],"loss_changes":[5.953092E1,6.886514E1,2.196268E1,5.233348E1,5.8653652E1,3.0346392E1,1.2304245E1,3.504767E1,1.8499374E1,3.381725E1,2.8105232E1,2.2939762E1,1.6825348E1,0E0,0E0,3.2848164E1,2.6429842E1,1.1578781E1,4.7477238E1,2.2043148E1,2.8231888E1,2.0774893E1,3.31334E1,2.7312437E1,1.8405254E1,1.1285419E1,1.8254324E1,0E0,0E0,0E0,0E0,0E0,0E0,0E0,0E0,0E0,0E0,0E0,0E0,0E0,0E0,0E0,0E0,0E0,0E0,0E0,0E0,0E0,0E0,0E0,0E0],"parents":[2147483647,0,0,1,1,2,2,3,3,4,4,5,5,6,6,7,7,8,8,9,9,10,10,11,11,12,12,15,15,16,16,17,17,18,18,19,19,20,20,21,21,22,22,23,23,24,24,25,25,26,26],"right_children":[2,4,6,8,10,12,14,16,18,20,22,24,26,-1,-1,28,30,32,34,36,38,40,42,44,46,48,50,-1,-1,-1,-1,-1,-1,-1,-1,-1,-1,-1,-1,-1,-1,-1,-1,-1,-1,-1,-1,-1,-1,-1,-1],"split_conditions":[2.3322783E0,1.3051185E8,7.9536E0,2.3247253E-2,8.507166E-1,7.3454747E0,1.9679876E1,1.137E0,2.07465E0,2.220924E-3,-4.7563203E-3,7.2212E0,1.5632343E-2,3.6477327E-2,-8.072387E-2,6.674127E-3,-3.9473932E-2,2.35455E0,7.944119E7,6.2605697E-1,6.416218E-3,1.793174E8,5.676551E-4,8.999946E-2,-1.7026428E-2,7.487539E-2,9.013588E-2,1.3695553E-2,5.4342706E-2,2.0483894E-2,-6.4832056E-3,4.2984452E-2,-6.91807E-2,-6.684578E-2,4.570222E-2,7.352455E-2,1.6766643E-2,-6.715413E-2,-3.6326642E-4,-3.2272052E-2,1.4552285E-2,-1.2269082E-2,-4.4908874E-2,-9.978226E-3,2.3093674E-2,6.4385533E-3,-8.070069E-2,7.197427E-2,-5.335743E-2,-7.509508E-2,7.3134385E-2],"split_indices":[11,6,1,7,11,11,3,1,2,8,9,0,9,0,0,9,7,1,6,11,7,6,8,8,9,7,7,0,0,0,0,0,0,0,0,0,0,0,0,0,0,0,0,0,0,0,0,0,0,0,0],"split_type":[0,0,0,0,0,0,0,0,0,0,0,0,0,0,0,0,0,0,0,0,0,0,0,0,0,0,0,0,0,0,0,0,0,0,0,0,0,0,0,0,0,0,0,0,0,0,0,0,0,0,0],"sum_hessian":[2.99882E3,1.9086129E3,1.0902072E3,1.1068209E3,8.01792E2,1.0740508E3,1.6156336E1,8.78368E2,2.2845291E2,3.348425E2,4.669495E2,1.045073E3,2.8977743E1,2.0345235E0,1.4121813E1,3.783114E2,5.0005658E2,1.905207E2,3.7932205E1,2.3270644E2,1.0213607E2,1.2840744E2,3.3854205E2,1.01805145E3,2.7021574E1,2.196262E1,7.0151253E0,3.2016617E2,5.814522E1,1.18122894E2,3.819337E2,1.8905026E2,1.4704477E0,1.4022917E1,2.3909286E1,1.7745003E1,2.1496143E2,1.8516724E1,8.361935E1,3.0120022E1,9.8287415E1,2.1754456E2,1.20997505E2,9.5218384E2,6.58676E1,8.606223E0,1.841535E1,2.071473E1,1.2478902E0,4.6911445E0,2.3239808E0],"tree_param":{"num_deleted":"0","num_feature":"12","num_nodes":"51","size_leaf_vector":"1"}},{"base_weights":[6.571501E-3,9.269045E-1,-2.0557156E-2,1.0640945E0,3.0628583E-1,9.2244394E-2,-1.944943E-1,1.2352834E0,3.9425167E-1,-7.348085E-2,6.774174E-1,1.367968E-2,6.2862915E-1,-5.894079E-1,-8.54198E-2,3.956418E-3,1.2996805E0,1.1061019E0,-7.6854944E-1,8.813567E-1,-2.0394603E-2,1.4108643E-1,-2.9610103E-1,8.93331E-1,5.8242723E-2,1.0496572E0,-6.5673846E-1,4.6878174E-2,-2.8399485E-1,5.000353E-2,-5.508578E-2,3.8999513E-2,7.260143E-2,6.762529E-2,-1.0127745E-2,-8.228772E-2,6.2416267E-2,5.6423504E-2,-7.258307E-5,-4.5203376E-3,1.3601649E-2,-2.6327416E-2,1.1306751E-2,7.841059E-2,4.0956166E-2,7.04454E-2,-1.44029325E-2,-5.9908416E-2,7.489869E-2,-2.5627533E-2,-6.894522E-2,-1.2711338E-2,1.2009924E-2,1.6595935E-2,-1.9170232E-2],"categories":[],"categories_nodes":[],"categories_segments":[],"categories_sizes":[],"default_left":[0,0,0,0,0,0,0,0,0,0,0,0,0,0,0,0,0,0,0,0,0,0,0,0,0,0,0,0,0,0,0,0,0,0,0,0,0,0,0,0,0,0,0,0,0,0,0,0,0,0,0,0,0,0,0],"id":10,"left_children":[1,3,5,7,9,11,13,15,17,-1,19,21,23,25,27,29,31,33,35,37,-1,39,41,43,45,47,49,51,53,-1,-1,-1,-1,-1,-1,-1,-1,-1,-1,-1,-1,-1,-1,-1,-1,-1,-1,-1,-1,-1,-1,-1,-1,-1,-1],"loss_changes":[7.467933E1,6.965973E0,5.7028236E1,7.50943E0,1.2139897E1,7.429723E1,4.920147E1,4.361702E0,1.381498E1,0E0,3.606584E0,6.0784096E1,3.3956703E1,2.7979797E1,2.3581326E1,5.2210445E0,3.0107193E0,3.5389547E0,1.3620921E1,2.7647886E0,0E0,3.3102123E1,5.4134785E1,6.417038E0,3.4301926E1,1.2015586E1,2.4090729E1,3.1451372E1,2.2098646E1,0E0,0E0,0E0,0E0,0E0,0E0,0E0,0E0,0E0,0E0,0E0,0E0,0E0,0E0,0E0,0E0,0E0,0E0,0E0,0E0,0E0,0E0,0E0,0E0,0E0,0E0],"parents":[2147483647,0,0,1,1,2,2,3,3,4,4,5,5,6,6,7,7,8,8,10,10,11,11,12,12,13,13,14,14,15,15,16,16,17,17,18,18,19,19,21,21,22,22,23,23,24,24,25,25,26,26,27,27,28,28],"right_children":[2,4,6,8,10,12,14,16,18,-1,20,22,24,26,28,30,32,34,36,38,-1,40,42,44,46,48,50,52,54,-1,-1,-1,-1,-1,-1,-1,-1,-1,-1,-1,-1,-1,-1,-1,-1,-1,-1,-1,-1,-1,-1,-1,-1,-1,-1],"split_conditions":[2.5612597E1,-2.5917854E-2,2.3062E0,1.7948843E1,-2.1331824E-2,2.8393392E-2,4.9898632E-2,-1.4512017E-1,1.7632166E0,-7.348085E-2,-1.2924393E-2,1.1272193E-3,1.2621674E8,2.32385E0,5.5515995E1,1.1990584E1,-2.0461396E7,1.4215008E8,-2.7917852E-3,1.4159713E1,-2.0394603E-2,-1.6950689E-3,4.328051E-3,1.0742E0,5.0657272E1,5.767145E1,6.542806E7,7.2460964E-2,5.5386648E-2,5.000353E-2,-5.508578E-2,3.8999513E-2,7.260143E-2,6.762529E-2,-1.0127745E-2,-8.228772E-2,6.2416267E-2,5.6423504E-2,-7.258307E-5,-4.5203376E-3,1.3601649E-2,-2.6327416E-2,1.1306751E-2,7.841059E-2,4.0956166E-2,7.04454E-2,-1.44029325E-2,-5.9908416E-2,7.489869E-2,-2.5627533E-2,-6.894522E-2,-1.2711338E-2,1.2009924E-2,1.6595935E-2,-1.9170232E-2],"split_indices":[4,8,0,3,8,8,5,8,2,0,8,8,6,2,3,3,6,6,9,3,0,9,9,0,4,4,6,5,5,0,0,0,0,0,0,0,0,0,0,0,0,0,0,0,0,0,0,0,0,0,0,0,0,0,0],"split_type":[0,0,0,0,0,0,0,0,0,0,0,0,0,0,0,0,0,0,0,0,0,0,0,0,0,0,0,0,0,0,0,0,0,0,0,0,0,0,0,0,0,0,0,0,0,0,0,0,0,0,0,0,0,0,0],"sum_hessian":[2.9893103E3,8.464321E1,2.904667E3,6.8734604E1,1.5908605E1,1.7622708E3,1.1423964E3,5.4071617E1,1.4662989E1,2.2382967E0,1.3670308E1,1.5380211E3,2.242497E2,2.4628755E2,8.961088E2,2.7400975E0,5.133152E1,9.125344E0,5.5376444E0,1.1666071E1,2.004237E0,1.0901913E3,4.4782977E2,1.527815E2,7.14682E1,9.142284E0,2.3714526E2,5.382625E2,3.5784628E2,1.4917076E0,1.2483898E0,1.302396E1,3.830756E1,7.6512094E0,1.4741349E0,3.9874005E0,1.5502439E0,8.897291E0,2.7687793E0,3.9398917E2,6.9620215E2,3.1071307E2,1.3711673E2,1.3140729E1,1.3964076E2,1.3958394E1,5.7509808E1,1.242066E0,7.9002185E0,1.9910222E2,3.8043056E1,2.103375E2,3.2792502E2,4.940552E1,3.0844077E2],"tree_param":{"num_deleted":"0","num_feature":"12","num_nodes":"55","size_leaf_vector":"1"}},{"base_weights":[2.0751081E-2,1.2436316E-1,-1.2740415E-1,2.663692E-2,4.2249182E-1,-4.5504826E-1,-3.940789E-2,9.7531605E-1,-2.285987E-2,1.4830317E-1,5.572232E-1,1.9672619E-1,-6.847426E-1,-8.8203944E-2,-2.2445118E-2,1.274342E0,5.931844E-1,2.516916E-1,-1.2648594E-1,3.1269857E-1,-9.068354E-1,3.6565834E-1,8.4290636E-1,-1.1529127E0,4.4571495E-1,-1.4703413E0,-5.296568E-1,9.493384E-2,-2.754859E-1,6.780217E-2,1.6432194E-2,4.2770702E-2,-7.669317E-2,3.3015825E-2,-2.5575168E-3,-5.0586667E-2,-3.805E-3,3.5350066E-2,-5.1858407E-3,-8.523551E-2,1.9097777E-2,2.4796793E-2,-3.572711E-2,4.6493914E-2,-5.3736247E-2,2.0304313E-2,-8.3435796E-2,6.4269E-2,-3.5652735E-3,-7.7794775E-2,2.735205E-2,4.2543393E-2,-3.533391E-2,1.5787344E-2,-6.2407623E-3,-6.4218217E-3,-4.2654824E-2],"categories":[],"categories_nodes":[],"categories_segments":[],"categories_sizes":[],"default_left":[0,0,0,0,0,0,0,0,0,0,0,0,0,0,0,0,0,0,0,0,0,0,0,0,0,0,0,0,0,0,0,0,0,0,0,0,0,0,0,0,0,0,0,0,0,0,0,0,0,0,0,0,0,0,0,0,0],"id":11,"left_children":[1,3,5,7,9,11,13,15,17,19,21,23,25,-1,27,29,31,33,35,37,39,41,43,45,47,49,51,53,55,-1,-1,-1,-1,-1,-1,-1,-1,-1,-1,-1,-1,-1,-1,-1,-1,-1,-1,-1,-1,-1,-1,-1,-1,-1,-1,-1,-1],"loss_changes":[4.6054615E1,5.1423107E1,3.558188E1,6.250374E1,1.6015106E1,3.925641E1,2.8467773E1,6.7862663E0,3.603952E1,2.5424341E1,1.56622925E1,2.3657804E1,2.2789879E1,0E0,2.8716766E1,2.3480911E0,1.8517616E1,4.2990887E1,4.0935753E1,2.0785194E1,2.1005365E1,2.518579E1,2.0407494E1,9.527699E0,2.5646748E1,6.2584763E0,4.04643E1,3.209446E1,2.5911028E1,0E0,0E0,0E0,0E0,0E0,0E0,0E0,0E0,0E0,0E0,0E0,0E0,0E0,0E0,0E0,0E0,0E0,0E0,0E0,0E0,0E0,0E0,0E0,0E0,0E0,0E0,0E0,0E0],"parents":[2147483647,0,0,1,1,2,2,3,3,4,4,5,5,6,6,7,7,8,8,9,9,10,10,11,11,12,12,14,14,15,15,16,16,17,17,18,18,19,19,20,20,21,21,22,22,23,23,24,24,25,25,26,26,27,27,28,28],"right_children":[2,4,6,8,10,12,14,16,18,20,22,24,26,-1,28,30,32,34,36,38,40,42,44,46,48,50,52,54,56,-1,-1,-1,-1,-1,-1,-1,-1,-1,-1,-1,-1,-1,-1,-1,-1,-1,-1,-1,-1,-1,-1,-1,-1,-1,-1,-1,-1],"split_conditions":[2.076099E0,3.961156E-2,4.8540454E-2,-3.5958365E-2,2.2786566E-4,2.490842E0,2.3507755E0,1.0689E0,9.134521E-1,-1.7968638E-2,1.957234E0,2.26885E0,2.54905E0,-8.8203944E-2,5.8471203E1,2.6790667E-2,3.346096E-2,-8.707014E-3,1.560911E-2,1.957234E0,1.8654E0,1.5570592E0,2.1251E0,3.0171571E-2,2.29675E0,4.2989254E-2,2.59855E0,3.89441E0,6.107217E0,6.780217E-2,1.6432194E-2,4.2770702E-2,-7.669317E-2,3.3015825E-2,-2.5575168E-3,-5.0586667E-2,-3.805E-3,3.5350066E-2,-5.1858407E-3,-8.523551E-2,1.9097777E-2,2.4796793E-2,-3.572711E-2,4.6493914E-2,-5.3736247E-2,2.0304313E-2,-8.3435796E-2,6.4269E-2,-3.5652735E-3,-7.7794775E-2,2.735205E-2,4.2543393E-2,-3.533391E-2,1.5787344E-2,-6.2407623E-3,-6.4218217E-3,-4.2654824E-2],"split_indices":[11,5,5,8,7,10,10,1,10,8,10,1,1,0,3,9,5,8,5,10,1,11,2,5,1,5,2,11,2,0,0,0,0,0,0,0,0,0,0,0,0,0,0,0,0,0,0,0,0,0,0,0,0,0,0,0,0],"split_type":[0,0,0,0,0,0,0,0,0,0,0,0,0,0,0,0,0,0,0,0,0,0,0,0,0,0,0,0,0,0,0,0,0,0,0,0,0,0,0,0,0,0,0,0,0,0,0,0,0,0,0,0,0,0,0,0,0],"sum_hessian":[2.9981372E3,1.7643812E3,1.233756E3,1.329622E3,4.3475925E2,2.6031845E2,9.7343756E2,6.5004776E1,1.2646172E3,1.4393707E2,2.9082214E2,6.787155E1,1.9244691E2,8.47772E0,9.6495984E2,3.5158047E1,2.9846727E1,3.4613174E2,9.184854E2,1.2514289E2,1.8794191E1,1.7545244E2,1.1536972E2,1.0005663E1,5.7865887E1,3.0329542E1,1.6211737E2,6.596093E2,3.0535056E2,3.1962791E1,3.1952548E0,2.7103195E1,2.7435334E0,1.468315E2,1.9930025E2,4.8435013E1,8.700504E2,6.3919678E1,6.122321E1,1.1408566E1,7.385625E0,1.5705206E2,1.8400372E1,1.10857025E2,4.5126967E0,2.5403244E0,7.465338E0,2.148581E1,3.6380077E1,2.9315088E1,1.0144535E0,1.7992657E1,1.4412471E2,3.2879028E2,3.30819E2,2.4436252E2,6.0988033E1],"tree_param":{"num_deleted":"0","num_feature":"12","num_nodes":"57","size_leaf_vector":"1"}},{"base_weights":[-5.812854E-4,8.7131155E-1,-2.5019927E-2,9.65477E-1,-3.5545516E-1,6.825546E-2,-2.2425011E-1,7.411676E-2,1.0554552E0,5.4828525E-1,-7.261796E-2,-4.7159173E-2,3.4097457E-1,-2.6237434E-1,8.2672775E-1,-6.4283036E-2,6.570172E-1,1.2475791E0,6.3553184E-1,6.1165895E-2,-1.3752095E-2,-2.854352E-1,1.3410945E-1,1.2327291E0,3.0226728E-1,-5.2110904E-1,-1.6228998E-1,1.2664133E0,2.263091E-2,5.918866E-2,-1.5493547E-2,6.494237E-2,-9.507434E-3,-5.3877097E-2,5.3311914E-2,-8.803907E-3,-5.940519E-2,1.0396638E-2,-2.3993999E-2,6.78051E-2,-1.0422477E-2,-5.7799257E-3,1.8465674E-2,-1.2277345E-2,-4.9537167E-2,1.2811588E-2,-1.2430838E-2,7.687633E-2,3.7030276E-2,2.5310358E-2,-6.96296E-2],"categories":[],"categories_nodes":[],"categories_segments":[],"categories_sizes":[],"default_left":[0,0,0,0,0,0,0,0,0,0,0,0,0,0,0,0,0,0,0,0,0,0,0,0,0,0,0,0,0,0,0,0,0,0,0,0,0,0,0,0,0,0,0,0,0,0,0,0,0,0,0],"id":12,"left_children":[1,3,5,7,9,11,13,15,17,19,-1,21,23,25,27,-1,29,31,33,-1,-1,35,37,39,41,43,45,47,49,-1,-1,-1,-1,-1,-1,-1,-1,-1,-1,-1,-1,-1,-1,-1,-1,-1,-1,-1,-1,-1,-1],"loss_changes":[6.366623E1,9.754082E0,5.4026302E1,6.011406E0,7.2779284E0,6.235017E1,3.7361607E1,7.2151766E0,4.7650375E0,2.732282E0,0E0,6.0177856E1,1.9958267E1,2.3100925E1,1.152973E1,0E0,3.5691285E0,3.6543503E0,1.8608501E1,0E0,0E0,5.920738E1,3.5974403E1,4.581539E0,1.589505E1,3.201777E1,2.3442068E1,1.8716316E0,9.310995E0,0E0,0E0,0E0,0E0,0E0,0E0,0E0,0E0,0E0,0E0,0E0,0E0,0E0,0E0,0E0,0E0,0E0,0E0,0E0,0E0,0E0,0E0],"parents":[2147483647,0,0,1,1,2,2,3,3,4,4,5,5,6,6,7,7,8,8,9,9,11,11,12,12,13,13,14,14,16,16,17,17,18,18,21,21,22,22,23,23,24,24,25,25,26,26,27,27,28,28],"right_children":[2,4,6,8,10,12,14,16,18,20,-1,22,24,26,28,-1,30,32,34,-1,-1,36,38,40,42,44,46,48,50,-1,-1,-1,-1,-1,-1,-1,-1,-1,-1,-1,-1,-1,-1,-1,-1,-1,-1,-1,-1,-1,-1],"split_conditions":[2.5612597E1,-1.7157054E-2,2.6478E0,-2.3498254E-1,2.387932E1,3.961156E-2,1.6747984E-1,9.806E-1,2.2544E0,1.38085205E-2,-7.261796E-2,-4.6342597E-4,-8.095028E-2,-2.7861988E-2,4.760944E7,-6.4283036E-2,6.9126424E7,5.0700627E8,2.6196E0,6.1165895E-2,-1.3752095E-2,5.000235E1,1.5882833E0,8.9223646E-2,-3.5958365E-2,4.1886887E1,-1.2019774E-2,5.6402944E-3,5.984755E1,5.918866E-2,-1.5493547E-2,6.494237E-2,-9.507434E-3,-5.3877097E-2,5.3311914E-2,-8.803907E-3,-5.940519E-2,1.0396638E-2,-2.3993999E-2,6.78051E-2,-1.0422477E-2,-5.7799257E-3,1.8465674E-2,-1.2277345E-2,-4.9537167E-2,1.2811588E-2,-1.2430838E-2,7.687633E-2,3.7030276E-2,2.5310358E-2,-6.96296E-2],"split_indices":[4,8,0,7,4,5,5,0,0,5,0,9,8,7,6,0,6,6,2,0,0,4,2,5,8,4,8,9,4,0,0,0,0,0,0,0,0,0,0,0,0,0,0,0,0,0,0,0,0,0,0],"split_type":[0,0,0,0,0,0,0,0,0,0,0,0,0,0,0,0,0,0,0,0,0,0,0,0,0,0,0,0,0,0,0,0,0,0,0,0,0,0,0,0,0,0,0,0,0,0,0,0,0,0,0],"sum_hessian":[2.985897E3,8.04662E1,2.9054307E3,7.492781E1,5.5383973E0,1.9793827E3,9.2604803E2,7.0372896E0,6.789052E1,3.3107877E0,2.2276094E0,1.3913788E3,5.880039E2,8.9435565E2,3.1692402E1,1.7497903E0,5.2874994E0,4.522715E1,2.2663368E1,1.5522778E0,1.7585099E0,6.009114E2,7.9046735E2,2.3177757E1,5.648262E2,2.4828665E2,6.46069E2,2.011722E1,1.1575183E1,3.277578E0,2.009921E0,4.376319E1,1.4639612E0,4.251565E0,1.8411802E1,5.3704425E2,6.3867107E1,7.0621643E2,8.425091E1,2.1404451E1,1.7733058E0,7.799534E1,4.8683084E2,1.5743379E2,9.0852844E1,1.1013828E2,5.359307E2,1.2003792E1,8.113428E0,9.106008E0,2.469175E0],"tree_param":{"num_deleted":"0","num_feature":"12","num_nodes":"51","size_leaf_vector":"1"}},{"base_weights":[5.0464873E-3,7.108305E-1,-1.3348362E-2,8.5406214E-1,-1.1015682E0,1.0816872E0,-2.6219575E-2,9.9697006E-1,2.0779748E-1,-7.5704485E-2,1.197578E-2,7.3727614E-1,1.593875E0,-1.349474E-1,9.713093E-2,1.2535745E0,6.528581E-1,4.766668E-1,-6.1868887E-2,1.4664996E0,1.0390717E-2,2.2785958E-2,8.2705826E-2,3.0479714E-1,-2.0304264E-1,2.6977324E-1,-1.15784734E-1,7.330649E-2,3.6416188E-2,-5.9503328E-2,4.0336203E-2,-6.1882433E-2,4.080603E-2,7.701877E-2,1.8130641E-2,4.8923533E-2,-3.5717756E-2,-1.4200945E-3,3.9589375E-2,5.374896E-2,-1.07356515E-2,2.3824543E-2,-1.4805713E-3,-2.5031422E-3,-3.84178E-2],"categories":[],"categories_nodes":[],"categories_segments":[],"categories_sizes":[],"default_left":[0,0,0,0,0,0,0,0,0,0,0,0,0,0,0,0,0,0,0,0,0,0,0,0,0,0,0,0,0,0,0,0,0,0,0,0,0,0,0,0,0,0,0,0,0],"id":13,"left_children":[1,3,5,7,9,11,13,15,17,-1,-1,19,21,23,25,27,29,31,-1,33,35,-1,-1,37,39,41,43,-1,-1,-1,-1,-1,-1,-1,-1,-1,-1,-1,-1,-1,-1,-1,-1,-1,-1],"loss_changes":[3.8818592E1,2.0656582E1,4.11041E1,6.345478E0,3.6815972E0,4.8016014E0,3.8657955E1,4.2887535E0,6.072938E0,0E0,0E0,1.1709355E1,1.2118912E-1,4.5934364E1,4.9674232E1,2.5098534E0,8.557639E0,8.35383E0,0E0,3.4132957E-1,9.177631E0,0E0,0E0,3.341842E1,2.0024586E1,4.618868E1,2.592728E1,0E0,0E0,0E0,0E0,0E0,0E0,0E0,0E0,0E0,0E0,0E0,0E0,0E0,0E0,0E0,0E0,0E0,0E0],"parents":[2147483647,0,0,1,1,2,2,3,3,4,4,5,5,6,6,7,7,8,8,11,11,12,12,13,13,14,14,15,15,16,16,17,17,19,19,20,20,23,23,24,24,25,25,26,26],"right_children":[2,4,6,8,10,12,14,16,18,-1,-1,20,22,24,26,28,30,32,-1,34,36,-1,-1,38,40,42,44,-1,-1,-1,-1,-1,-1,-1,-1,-1,-1,-1,-1,-1,-1,-1,-1,-1,-1],"split_conditions":[1.5190443E1,-1.7751085E-2,7.448663E-1,-3.199685E-2,2.6044E0,6.6160774E-1,1.0690083E-3,2.4378E0,1.4159713E1,-7.5704485E-2,1.197578E-2,6.2605697E-1,2.3511894E1,-1.7026428E-2,2.04715E0,1.3228406E1,2.6380818E0,-2.7861988E-2,-6.1868887E-2,-1.9593756E-3,-6.491537E-4,2.2785958E-2,8.2705826E-2,2.1127058E-2,-1.7049474E8,1.3633272E8,7.0872016E0,7.330649E-2,3.6416188E-2,-5.9503328E-2,4.0336203E-2,-6.1882433E-2,4.080603E-2,7.701877E-2,1.8130641E-2,4.8923533E-2,-3.5717756E-2,-1.4200945E-3,3.9589375E-2,5.374896E-2,-1.07356515E-2,2.3824543E-2,-1.4805713E-3,-2.5031422E-3,-3.84178E-2],"split_indices":[3,7,10,7,0,11,9,2,3,0,0,11,3,9,2,3,10,7,0,7,9,0,0,7,6,6,10,0,0,0,0,0,0,0,0,0,0,0,0,0,0,0,0,0,0],"split_type":[0,0,0,0,0,0,0,0,0,0,0,0,0,0,0,0,0,0,0,0,0,0,0,0,0,0,0,0,0,0,0,0,0,0,0,0,0,0,0,0,0,0,0,0,0],"sum_hessian":[2.9882722E3,7.494886E1,2.9133235E3,6.99496E1,4.999264E0,3.2881092E1,2.8804424E3,5.683833E1,1.3111269E1,3.7245698E0,1.2746938E0,2.111929E1,1.1761804E1,1.5309159E3,1.3495264E3,3.1045078E1,2.5793251E1,1.1619645E1,1.4916238E0,1.0034751E1,1.1084539E1,1.0217896E0,1.0740014E1,2.0481142E2,1.3261045E3,7.450979E2,6.0442847E2,2.0826029E1,1.0219049E1,1.468608E0,2.4324644E1,1.4831939E0,1.0136452E1,9.034708E0,1.0000427E0,4.5957174E0,6.488822E0,1.2216663E2,8.264479E1,1.1175409E1,1.3149291E3,4.4041254E2,3.0468536E2,5.501031E2,5.432538E1],"tree_param":{"num_deleted":"0","num_feature":"12","num_nodes":"45","size_leaf_vector":"1"}},{"base_weights":[-5.502146E-3,5.566281E-2,-2.2931425E-1,-3.9432257E-2,2.2145516E-1,-5.374516E-1,-1.7511891E-2,7.877756E-2,-2.4817209E-1,4.406465E-1,7.06466E-2,-1.3146333E0,-3.7747398E-1,5.324742E-2,-9.56522E-1,1.1922215E-1,-1.0723382E0,-1.0179462E-1,-5.282039E-1,3.2457802E-1,8.161593E-1,3.0044116E-2,1.3356763E0,-1.4305615E0,4.5761943E-2,3.607189E-1,-8.544923E-1,-9.72686E-3,1.030231E0,4.4096255E-1,-1.1031194E0,-4.69302E-3,1.5602208E-2,1.635499E-2,-7.5660825E-2,1.3733432E-2,-1.3295019E-2,2.5707388E-2,-3.3232126E-2,1.8607453E-2,-6.551243E-2,-6.684219E-2,4.362062E-2,4.1895773E-2,-1.6047804E-3,1.467328E-2,8.348385E-2,2.6690213E-3,-8.142733E-2,-1.264597E-2,4.4898357E-2,-3.1415746E-2,-6.52824E-2,3.3407013E-3,-4.6992123E-2,8.0126055E-2,1.0612722E-2,5.2497997E-3,2.9792732E-2,-2.3827909E-2,-7.6762825E-2],"categories":[],"categories_nodes":[],"categories_segments":[],"categories_sizes":[],"default_left":[0,0,0,0,0,0,0,0,0,0,0,0,0,0,0,0,0,0,0,0,0,0,0,0,0,0,0,0,0,0,0,0,0,0,0,0,0,0,0,0,0,0,0,0,0,0,0,0,0,0,0,0,0,0,0,0,0,0,0,0,0],"id":14,"left_children":[1,3,5,7,9,11,13,15,17,19,21,23,25,27,29,31,33,35,37,39,41,43,45,47,-1,49,51,53,55,57,59,-1,-1,-1,-1,-1,-1,-1,-1,-1,-1,-1,-1,-1,-1,-1,-1,-1,-1,-1,-1,-1,-1,-1,-1,-1,-1,-1,-1,-1,-1],"loss_changes":[4.106157E1,3.7150177E1,4.2006523E1,3.698132E1,2.8358982E1,3.2105644E1,2.5469969E1,4.468755E1,2.2155853E1,1.4984184E1,2.615425E1,1.2776321E1,7.737505E1,2.1956186E1,5.989355E0,3.805636E1,2.060049E1,2.2132555E1,2.6759808E1,2.140167E1,1.1091267E1,2.4883646E1,5.0226345E0,1.2590065E1,0E0,2.8781536E1,1.2776077E1,2.3990005E1,9.775669E0,1.0732418E-1,5.928047E0,0E0,0E0,0E0,0E0,0E0,0E0,0E0,0E0,0E0,0E0,0E0,0E0,0E0,0E0,0E0,0E0,0E0,0E0,0E0,0E0,0E0,0E0,0E0,0E0,0E0,0E0,0E0,0E0,0E0,0E0],"parents":[2147483647,0,0,1,1,2,2,3,3,4,4,5,5,6,6,7,7,8,8,9,9,10,10,11,11,12,12,13,13,14,14,15,15,16,16,17,17,18,18,19,19,20,20,21,21,22,22,23,23,25,25,26,26,27,27,28,28,29,29,30,30],"right_children":[2,4,6,8,10,12,14,16,18,20,22,24,26,28,30,32,34,36,38,40,42,44,46,48,-1,50,52,54,56,58,60,-1,-1,-1,-1,-1,-1,-1,-1,-1,-1,-1,-1,-1,-1,-1,-1,-1,-1,-1,-1,-1,-1,-1,-1,-1,-1,-1,-1,-1,-1],"split_conditions":[3.5905664E0,4.016427E-2,7.663473E-2,1.0477931E0,2.07465E0,3.70385E0,7.8267665E0,7.1668774E8,9.134772E7,1.7192099E0,3.4772E0,7.948663E1,6.2014216E7,7.3454747E0,1.9679876E1,2.0008072E-2,8.0861664E-1,1.4239E0,2.3511894E1,9.54626E-2,-4.955296E-2,-8.143057E-2,3.4345834E0,3.4518E0,4.5761943E-2,-1.2898452E-3,1.0351658E8,7.2029E0,6.308528E-2,1.4159713E1,8.220235E0,-4.69302E-3,1.5602208E-2,1.635499E-2,-7.5660825E-2,1.3733432E-2,-1.3295019E-2,2.5707388E-2,-3.3232126E-2,1.8607453E-2,-6.551243E-2,-6.684219E-2,4.362062E-2,4.1895773E-2,-1.6047804E-3,1.467328E-2,8.348385E-2,2.6690213E-3,-8.142733E-2,-1.264597E-2,4.4898357E-2,-3.1415746E-2,-6.52824E-2,3.3407013E-3,-4.6992123E-2,8.0126055E-2,1.0612722E-2,5.2497997E-3,2.9792732E-2,-2.3827909E-2,-7.6762825E-2],"split_indices":[10,5,5,11,2,1,2,6,6,11,0,3,6,11,3,5,2,2,3,7,7,7,2,0,0,7,6,1,7,3,10,0,0,0,0,0,0,0,0,0,0,0,0,0,0,0,0,0,0,0,0,0,0,0,0,0,0,0,0,0,0],"split_type":[0,0,0,0,0,0,0,0,0,0,0,0,0,0,0,0,0,0,0,0,0,0,0,0,0,0,0,0,0,0,0,0,0,0,0,0,0,0,0,0,0,0,0,0,0,0,0,0,0,0,0,0,0,0,0,0,0,0,0,0,0],"sum_hessian":[2.9975706E3,2.3547886E3,6.42782E2,1.4969381E3,8.578506E2,2.6121698E2,3.81565E2,9.561123E2,5.408258E2,3.4886865E2,5.089819E2,4.3358932E1,2.1785806E2,3.5570413E2,2.5860868E1,9.245254E2,3.1586882E1,3.5606696E2,1.8475885E2,2.6792056E2,8.09481E1,4.9414554E2,1.4836378E1,4.15569E1,1.8020355E0,8.561358E1,1.3224448E2,3.350947E2,2.0609446E1,2.2646272E0,2.3596241E1,4.3943286E2,4.8509253E2,7.6289883E0,2.3957893E1,1.07890144E2,2.481768E2,2.1064426E1,1.6369443E2,2.6109543E2,6.825129E0,1.4814895E0,7.9466606E1,3.4402195E1,4.5974335E2,4.0566626E0,1.0779716E1,4.977768E0,3.6579132E1,4.0212543E1,4.540104E1,8.967865E1,4.2565823E1,3.1047345E2,2.4621254E1,1.1561451E1,9.047995E0,1.2440667E0,1.0205605E0,1.0489777E1,1.3106465E1],"tree_param":{"num_deleted":"0","num_feature":"12","num_nodes":"61","size_leaf_vector":"1"}},{"base_weights":[-2.6973723E-3,7.7594054E-1,-2.0437319E-2,1.3653039E0,4.8176336E-1,6.791518E-1,-3.9337117E-2,7.8027725E-2,5.9937984E-1,-1.4697573E-1,9.475403E-1,8.169593E-1,-7.371076E-2,-1.6462919E-1,6.844638E-2,-1.1040634E-2,9.139926E-1,7.562467E-2,-7.339849E-2,1.2285477E0,-7.18118E-2,1.2499014E0,6.231281E-1,2.4994974E-1,-2.4476632E-1,1.7072265E-1,-2.608657E-1,6.0019173E-2,4.601085E-3,2.1983957E-2,-5.2887287E-2,6.952222E-2,-1.8106429E-2,7.4964456E-2,3.180352E-2,4.33526E-2,-8.778798E-3,-4.1162386E-3,3.8359534E-2,-8.761166E-2,-1.1571465E-2,1.5507403E-2,-5.005262E-4,-3.182005E-3,-3.0183518E-2],"categories":[],"categories_nodes":[],"categories_segments":[],"categories_sizes":[],"default_left":[0,0,0,0,0,0,0,0,0,0,0,0,0,0,0,0,0,0,0,0,0,0,0,0,0,0,0,0,0,0,0,0,0,0,0,0,0,0,0,0,0,0,0,0,0],"id":15,"left_children":[1,3,5,7,9,11,13,-1,15,17,19,21,-1,23,25,-1,27,29,-1,31,-1,33,35,37,39,41,43,-1,-1,-1,-1,-1,-1,-1,-1,-1,-1,-1,-1,-1,-1,-1,-1,-1,-1],"loss_changes":[4.102817E1,1.0813747E1,3.8422955E1,2.277588E0,1.3516875E1,2.3888805E1,3.8208557E1,0E0,1.7469585E0,6.0818534E0,1.9432133E1,5.3042145E0,0E0,4.3527287E1,5.1279655E1,0E0,9.5413446E-1,8.027383E0,0E0,6.7183228E0,0E0,2.3258286E0,1.0295773E1,3.657133E1,2.1647484E1,2.9266796E1,2.4360842E1,0E0,0E0,0E0,0E0,0E0,0E0,0E0,0E0,0E0,0E0,0E0,0E0,0E0,0E0,0E0,0E0,0E0,0E0],"parents":[2147483647,0,0,1,1,2,2,3,3,4,4,5,5,6,6,8,8,9,9,10,10,11,11,13,13,14,14,16,16,17,17,19,19,21,21,22,22,23,23,24,24,25,25,26,26],"right_children":[2,4,6,8,10,12,14,-1,16,18,20,22,-1,24,26,-1,28,30,-1,32,-1,34,36,38,40,42,44,-1,-1,-1,-1,-1,-1,-1,-1,-1,-1,-1,-1,-1,-1,-1,-1,-1,-1],"split_conditions":[7.2335E-1,6.2605697E-1,1.5190443E1,1.23894755E-2,6.6160774E-1,-1.7751085E-2,-4.6342597E-4,7.8027725E-2,7.384E-1,7.729047E-1,4.138436E8,-7.233082E-2,-7.371076E-2,-1.7026428E-2,3.2472E0,-1.1040634E-2,4.8571907E8,3.5224566E8,-7.339849E-2,3.8528922E-3,-7.18118E-2,4.2626E0,2.3222E0,2.1127058E-2,7.882748E-1,1.1892663E8,6.9686616E7,6.0019173E-2,4.601085E-3,2.1983957E-2,-5.2887287E-2,6.952222E-2,-1.8106429E-2,7.4964456E-2,3.180352E-2,4.33526E-2,-8.778798E-3,-4.1162386E-3,3.8359534E-2,-8.761166E-2,-1.1571465E-2,1.5507403E-2,-5.005262E-4,-3.182005E-3,-3.0183518E-2],"split_indices":[1,11,3,9,11,7,9,0,0,10,6,7,0,9,0,0,6,6,0,7,0,0,0,7,10,6,6,0,0,0,0,0,0,0,0,0,0,0,0,0,0,0,0,0,0],"split_type":[0,0,0,0,0,0,0,0,0,0,0,0,0,0,0,0,0,0,0,0,0,0,0,0,0,0,0,0,0,0,0,0,0,0,0,0,0,0,0,0,0,0,0,0,0],"sum_hessian":[2.9681108E3,6.516496E1,2.902946E3,2.0484535E1,4.4680428E1,7.544283E1,2.8275032E3,1.5496629E1,4.987906E0,1.9305258E1,2.537517E1,7.148845E1,3.9543855E0,1.307307E3,1.5201962E3,1.4655015E0,3.5224044E0,1.7328062E1,1.9771955E0,2.3132816E1,2.2423522E0,2.0423054E1,5.1065395E1,2.1142235E2,1.0958846E3,1.1603129E3,3.598832E2,2.2708304E0,1.2515739E0,1.3578513E1,3.7495484E0,2.1110138E1,2.0226789E0,1.349698E1,6.9260736E0,3.905304E1,1.2012358E1,1.292398E2,8.218255E1,8.4672E0,1.0874175E3,6.5460565E2,5.0570728E2,2.2920212E2,1.3068108E2],"tree_param":{"num_deleted":"0","num_feature":"12","num_nodes":"45","size_leaf_vector":"1"}},{"base_weights":[-6.862396E-3,7.1136475E-1,-2.660573E-2,-2.9200807E-1,8.12421E-1,5.7444308E-2,-1.7843741E-1,-6.89165E-2,3.723286E-1,1.4005005E0,6.0647035E-1,-3.756796E-3,3.8780892E-1,-3.72998E-1,3.3317223E-2,6.2769584E-2,-5.53812E-1,7.48977E-2,1.8818247E-3,9.4845086E-1,-3.257815E-1,1.15940414E-1,-2.9670927E-1,5.929E-1,-2.6668692E-2,1.365898E0,-4.0511402E-1,5.9154615E-2,-7.0662044E-2,-5.7076734E-2,2.2535646E-2,5.4311123E-2,-3.658078E-2,-8.1215136E-2,8.9653935E-3,9.402711E-5,2.0854473E-2,-2.9831043E-2,2.1576395E-3,5.9720244E-2,2.3612162E-2,3.781837E-2,-2.9822841E-2,5.8954633E-3,7.876955E-2,-4.1680414E-2,-1.20430095E-2,-9.608448E-3,9.002079E-3],"categories":[],"categories_nodes":[],"categories_segments":[],"categories_sizes":[],"default_left":[0,0,0,0,0,0,0,0,0,0,0,0,0,0,0,0,0,0,0,0,0,0,0,0,0,0,0,0,0,0,0,0,0,0,0,0,0,0,0,0,0,0,0,0,0,0,0,0,0],"id":16,"left_children":[1,3,5,7,9,11,13,-1,15,17,19,21,23,25,27,-1,29,-1,-1,31,33,35,37,39,41,43,45,47,-1,-1,-1,-1,-1,-1,-1,-1,-1,-1,-1,-1,-1,-1,-1,-1,-1,-1,-1,-1,-1],"loss_changes":[4.2060303E1,8.283585E0,3.684543E1,6.284238E0,7.9143257E0,3.7581753E1,4.2395916E1,0E0,5.3973546E0,2.3348465E0,1.7956556E1,5.5058334E1,2.4711666E1,3.0499474E1,1.8529245E1,0E0,2.5809307E0,0E0,0E0,1.0227795E1,1.0523053E1,3.8288803E1,4.6449127E1,1.3544258E1,4.3785164E1,2.4163456E0,3.6909447E1,1.4794798E1,0E0,0E0,0E0,0E0,0E0,0E0,0E0,0E0,0E0,0E0,0E0,0E0,0E0,0E0,0E0,0E0,0E0,0E0,0E0,0E0,0E0],"parents":[2147483647,0,0,1,1,2,2,3,3,4,4,5,5,6,6,8,8,9,9,10,10,11,11,12,12,13,13,14,14,16,16,19,19,20,20,21,21,22,22,23,23,24,24,25,25,26,26,27,27],"right_children":[2,4,6,8,10,12,14,-1,16,18,20,22,24,26,28,-1,30,-1,-1,32,34,36,38,40,42,44,46,48,-1,-1,-1,-1,-1,-1,-1,-1,-1,-1,-1,-1,-1,-1,-1,-1,-1,-1,-1,-1,-1],"split_conditions":[2.5612597E1,-2.3498254E-1,2.3606627E0,9.806E-1,-7.745033E-2,2.6980007E-2,7.2460964E-2,-6.89165E-2,5.8294E0,2.4893871E1,2.455249E0,7.788205E-4,1.2835464E8,-1.5438184E8,7.88042E0,6.2769584E-2,6.2E0,7.48977E-2,1.8818247E-3,-4.437869E-3,2.7143245E0,-5.8550653E-3,1.0690083E-3,2.43504E7,-6.1055375E-3,-8.355506E-3,-1.9963445E-2,-2.9234463E-2,-7.0662044E-2,-5.7076734E-2,2.2535646E-2,5.4311123E-2,-3.658078E-2,-8.1215136E-2,8.9653935E-3,9.402711E-5,2.0854473E-2,-2.9831043E-2,2.1576395E-3,5.9720244E-2,2.3612162E-2,3.781837E-2,-2.9822841E-2,5.8954633E-3,7.876955E-2,-4.1680414E-2,-1.20430095E-2,-9.608448E-3,9.002079E-3],"split_indices":[4,7,11,0,8,8,5,0,0,4,10,8,6,6,11,0,0,0,0,9,10,7,9,6,9,9,7,7,0,0,0,0,0,0,0,0,0,0,0,0,0,0,0,0,0,0,0,0,0],"split_type":[0,0,0,0,0,0,0,0,0,0,0,0,0,0,0,0,0,0,0,0,0,0,0,0,0,0,0,0,0,0,0,0,0,0,0,0,0,0,0,0,0,0,0,0,0,0,0,0,0],"sum_hessian":[2.9637944E3,7.835485E1,2.8854397E3,6.996644E0,7.135821E1,1.8576919E3,1.0277478E3,2.2472308E0,4.7494135E0,1.700404E1,5.4354164E1,1.5681716E3,2.895202E2,5.352227E2,4.9252515E2,2.2492623E0,2.500151E0,1.5776778E1,1.2272614E0,3.9753796E1,1.4600371E1,1.1137214E3,4.5445026E2,1.9339458E2,9.612562E1,8.952762E0,5.2626996E2,4.8482468E2,7.700487E0,1.4912595E0,1.0088916E0,3.706758E1,2.6862116E0,3.4681978E0,1.1132173E1,8.0850665E2,3.0521475E2,2.4101282E2,2.1343744E2,3.0824972E1,1.625696E2,4.034867E1,5.5776947E1,1.5114715E0,7.4412904E0,1.4470312E2,3.815668E2,1.572704E2,3.2755426E2],"tree_param":{"num_deleted":"0","num_feature":"12","num_nodes":"49","size_leaf_vector":"1"}},{"base_weights":[1.2190427E-2,8.398897E-2,-1.3231377E-1,2.0824224E-1,-9.8761216E-2,5.0073695E-1,-1.8067499E-1,6.736129E-2,3.7487078E-1,1.9984312E-1,-3.1575057E-1,-7.7179156E-2,6.0707814E-1,1.3750798E0,-1.9714476E-1,2.4387254E-1,-3.5302046E-1,1.8349805E-1,5.915406E-1,-2.909656E-1,3.3569294E-1,4.08809E-2,-4.5784873E-1,1.181138E0,3.2344463E-1,5.7164435E-3,7.9707414E-2,-3.4396866E-1,-6.220174E-2,5.001356E-2,9.379566E-3,2.7626276E-2,-2.2378614E-2,1.5880933E-2,-2.2130718E-2,5.268652E-2,2.072662E-2,2.6861532E-2,-2.681228E-2,3.099055E-2,-2.3626166E-3,-3.1241065E-2,1.5448022E-2,-4.4146713E-2,-1.2809728E-2,2.8584227E-2,7.030393E-2,2.224745E-2,-7.13777E-2,-7.596645E-3,-3.346963E-2,2.473425E-3,-2.7173057E-2],"categories":[],"categories_nodes":[],"categories_segments":[],"categories_sizes":[],"default_left":[0,0,0,0,0,0,0,0,0,0,0,0,0,0,0,0,0,0,0,0,0,0,0,0,0,0,0,0,0,0,0,0,0,0,0,0,0,0,0,0,0,0,0,0,0,0,0,0,0,0,0,0,0],"id":17,"left_children":[1,3,5,7,9,11,13,15,17,19,21,-1,23,25,27,29,31,33,35,37,39,41,43,45,47,-1,-1,49,51,-1,-1,-1,-1,-1,-1,-1,-1,-1,-1,-1,-1,-1,-1,-1,-1,-1,-1,-1,-1,-1,-1,-1,-1],"loss_changes":[3.0702513E1,4.4909477E1,3.0163816E1,2.7606499E1,5.194794E1,1.615069E1,2.367309E1,4.7504078E1,2.224273E1,2.2608776E1,2.3540237E1,0E0,1.0565952E1,2.4948235E0,1.7901909E1,1.8997225E1,1.6462442E1,2.4298462E1,2.0209343E1,1.5264776E1,2.884996E1,2.3957542E1,2.8231682E1,2.1927395E0,1.0502815E1,0E0,0E0,2.6959156E1,2.5425938E1,0E0,0E0,0E0,0E0,0E0,0E0,0E0,0E0,0E0,0E0,0E0,0E0,0E0,0E0,0E0,0E0,0E0,0E0,0E0,0E0,0E0,0E0,0E0,0E0],"parents":[2147483647,0,0,1,1,2,2,3,3,4,4,5,5,6,6,7,7,8,8,9,9,10,10,12,12,13,13,14,14,15,15,16,16,17,17,18,18,19,19,20,20,21,21,22,22,23,23,24,24,27,27,28,28],"right_children":[2,4,6,8,10,12,14,16,18,20,22,-1,24,26,28,30,32,34,36,38,40,42,44,46,48,-1,-1,50,52,-1,-1,-1,-1,-1,-1,-1,-1,-1,-1,-1,-1,-1,-1,-1,-1,-1,-1,-1,-1,-1,-1,-1,-1],"split_conditions":[2.6044E0,1.3051185E8,-2.765047E-2,3.576031E-2,8.507166E-1,2.9988E0,-1.5438184E8,1.4239E0,7.786802E7,-1.8944942E-3,-4.7563203E-3,-7.7179156E-2,5.2475834E0,-8.355506E-3,7.000302E-2,-3.3772234E-2,-4.020483E-2,2.3062E0,4.9898632E-2,7.2335E-1,3.0402052E-3,1.793174E8,-1.1060585E-3,8.9223646E-2,7.6425656E7,5.7164435E-3,7.9707414E-2,6.9686616E7,6.9762E0,5.001356E-2,9.379566E-3,2.7626276E-2,-2.2378614E-2,1.5880933E-2,-2.2130718E-2,5.268652E-2,2.072662E-2,2.6861532E-2,-2.681228E-2,3.099055E-2,-2.3626166E-3,-3.1241065E-2,1.5448022E-2,-4.4146713E-2,-1.2809728E-2,2.8584227E-2,7.030393E-2,2.224745E-2,-7.13777E-2,-7.596645E-3,-3.346963E-2,2.473425E-3,-2.7173057E-2],"split_indices":[0,6,9,5,11,0,6,2,6,9,9,0,2,9,5,7,7,0,5,1,7,6,9,5,6,0,0,6,0,0,0,0,0,0,0,0,0,0,0,0,0,0,0,0,0,0,0,0,0,0,0,0,0],"split_type":[0,0,0,0,0,0,0,0,0,0,0,0,0,0,0,0,0,0,0,0,0,0,0,0,0,0,0,0,0,0,0,0,0,0,0,0,0,0,0,0,0,0,0,0,0,0,0,0,0,0,0,0,0],"sum_hessian":[2.9571526E3,1.9758486E3,9.81304E2,1.1760819E3,7.9976666E2,6.898131E1,9.123227E2,6.3803827E2,5.380437E2,3.3661777E2,4.6314893E2,2.7425575E0,6.623875E1,8.692868E0,9.036298E2,4.4965536E2,1.8838287E2,2.8668088E2,2.5136285E2,7.272597E1,2.6389178E2,1.3216345E2,3.3098547E2,2.08583E1,4.5380447E1,1.5121651E0,7.1807027E0,4.3202206E2,4.716078E2,2.99788E1,4.1967657E2,1.7352266E1,1.7103061E2,2.365103E2,5.0170567E1,6.823638E1,1.8312648E2,1.6345285E1,5.6380688E1,1.5113895E2,1.12752846E2,3.7560783E1,9.460266E1,1.0540789E2,2.2557758E2,6.5778303E0,1.4280469E1,4.3133255E1,2.2471917E0,2.7261575E2,1.594063E2,3.835151E2,8.809268E1],"tree_param":{"num_deleted":"0","num_feature":"12","num_nodes":"53","size_leaf_vector":"1"}},{"base_weights":[-6.2529687E-3,8.7498736E-1,-2.2827066E-2,-5.4603744E-2,9.977767E-1,2.9390473E-2,-2.168543E-1,-6.898764E-2,5.102248E-2,1.0468996E0,-9.829993E-3,-2.3461182E-2,2.8945917E-1,-1.0232054E0,-1.5285017E-1,5.821998E-1,1.162241E0,9.5734483E-1,-3.8341925E-2,8.2762164E-1,1.6318929E-1,5.719867E-2,-1.1787685E0,4.809446E-2,-4.9475425E-1,5.7100307E-2,-9.4252145E-3,6.48411E-2,3.862615E-2,5.783085E-2,-3.3555903E-2,9.999438E-3,-4.373654E-3,4.663017E-2,-7.884902E-2,1.3470257E-2,-5.866885E-2,-6.750765E-2,4.6481397E-2,5.302837E-3,-6.396758E-2,1.3151857E-2,-3.0067092E-2],"categories":[],"categories_nodes":[],"categories_segments":[],"categories_sizes":[],"default_left":[0,0,0,0,0,0,0,0,0,0,0,0,0,0,0,0,0,0,0,0,0,0,0,0,0,0,0,0,0,0,0,0,0,0,0,0,0,0,0,0,0,0,0],"id":18,"left_children":[1,3,5,7,9,11,13,-1,-1,15,-1,17,19,21,23,25,27,29,31,33,35,-1,37,39,41,-1,-1,-1,-1,-1,-1,-1,-1,-1,-1,-1,-1,-1,-1,-1,-1,-1,-1],"loss_changes":[4.3662884E1,6.3536835E0,2.973129E1,1.1931745E1,3.0689316E0,3.1793776E1,3.1958498E1,0E0,0E0,1.8440971E0,0E0,2.8102259E1,2.6412457E1,1.6716484E1,3.9712532E1,5.1145906E0,9.2168427E-1,1.0114656E1,2.2208838E1,2.0150723E1,4.5414337E1,0E0,1.6801659E1,2.8200418E1,1.7437248E1,0E0,0E0,0E0,0E0,0E0,0E0,0E0,0E0,0E0,0E0,0E0,0E0,0E0,0E0,0E0,0E0,0E0,0E0],"parents":[2147483647,0,0,1,1,2,2,3,3,4,4,5,5,6,6,9,9,11,11,12,12,13,13,14,14,15,15,16,16,17,17,18,18,19,19,20,20,22,22,23,23,24,24],"right_children":[2,4,6,8,10,12,14,-1,-1,16,-1,18,20,22,24,26,28,30,32,34,36,-1,38,40,42,-1,-1,-1,-1,-1,-1,-1,-1,-1,-1,-1,-1,-1,-1,-1,-1,-1,-1],"split_conditions":[2.387932E1,-2.161304E-1,3.5905664E0,-2.7917852E-3,-1.2924393E-2,8.393095E-3,3.7808022E0,-6.898764E-2,5.102248E-2,-5.5475372E7,-9.829993E-3,-7.466879E-2,1.0825267E0,-1.9374896E-2,6.9686616E7,9.944E-1,2.2247955E1,3.106748E0,9.134521E-1,3.676004E-2,1.5176536E8,5.719867E-2,7.948663E1,7.9536E0,4.0198E0,5.7100307E-2,-9.4252145E-3,6.48411E-2,3.862615E-2,5.783085E-2,-3.3555903E-2,9.999438E-3,-4.373654E-3,4.663017E-2,-7.884902E-2,1.3470257E-2,-5.866885E-2,-6.750765E-2,4.6481397E-2,5.302837E-3,-6.396758E-2,1.3151857E-2,-3.0067092E-2],"split_indices":[4,8,10,9,8,9,10,0,0,6,0,8,10,9,6,0,4,10,10,9,6,0,3,1,0,0,0,0,0,0,0,0,0,0,0,0,0,0,0,0,0,0,0],"split_type":[0,0,0,0,0,0,0,0,0,0,0,0,0,0,0,0,0,0,0,0,0,0,0,0,0,0,0,0,0,0,0,0,0,0,0,0,0,0,0,0,0,0,0],"sum_hessian":[2.987061E3,5.4186504E1,2.9328745E3,6.3871484E0,4.779936E1,2.3116113E3,6.2126337E2,2.7338638E0,3.6532848E0,4.6029705E1,1.7696536E0,1.9219407E3,3.8967062E2,4.458436E1,5.76679E2,1.0355602E1,3.5674103E1,2.7777248E1,1.8941633E3,7.299812E1,3.1667252E2,2.5604527E0,4.2023903E1,3.6375278E2,2.1292622E2,5.7194614E0,4.636141E0,2.4786884E1,1.0887218E1,2.500694E1,2.770308E0,3.2321353E2,1.5709498E3,7.053099E1,2.4671292E0,2.9409912E2,2.2573383E1,3.919732E1,2.8265855E0,3.494158E2,1.43369665E1,2.607519E1,1.8685103E2],"tree_param":{"num_deleted":"0","num_feature":"12","num_nodes":"43","size_leaf_vector":"1"}},{"base_weights":[5.691517E-4,6.5166295E-1,-1.6210401E-2,8.1665444E-1,-6.762658E-1,7.197754E-2,-1.2802576E-1,1.2483368E0,5.906874E-1,-7.2892666E-2,1.03557475E-1,-3.248404E-2,3.7711304E-1,-3.9192396E-1,-5.045993E-2,1.3607291E0,4.7078556E-1,-5.971631E-2,6.6746086E-1,9.3756104E-1,-6.0651507E-2,8.311596E-2,-2.9612768E-1,5.0273174E-1,7.8044444E-2,-2.934763E-1,-1.0015417E0,2.2787525E-1,-1.739556E-1,7.247906E-2,1.9364508E-2,-5.571348E-3,4.127851E-2,4.4047084E-2,1.4090724E-2,1.2065831E-2,5.9444398E-2,-2.1764021E-3,1.8105976E-2,-3.0681485E-2,3.3408639E-3,2.9012293E-2,-7.855524E-3,1.8056452E-2,-4.845346E-2,-3.0187938E-2,-4.0281895E-3,-8.00517E-3,-6.1490048E-2,7.8008617E-3,5.617687E-2,-2.5715793E-3,-2.6733547E-2],"categories":[],"categories_nodes":[],"categories_segments":[],"categories_sizes":[],"default_left":[0,0,0,0,0,0,0,0,0,0,0,0,0,0,0,0,0,0,0,0,0,0,0,0,0,0,0,0,0,0,0,0,0,0,0,0,0,0,0,0,0,0,0,0,0,0,0,0,0,0,0,0,0],"id":19,"left_children":[1,3,5,7,9,11,13,15,17,-1,19,21,23,25,27,29,31,-1,33,35,-1,37,39,41,43,45,47,49,51,-1,-1,-1,-1,-1,-1,-1,-1,-1,-1,-1,-1,-1,-1,-1,-1,-1,-1,-1,-1,-1,-1,-1,-1],"loss_changes":[3.223688E1,1.6794724E1,2.8374956E1,5.739048E0,5.4779816E0,5.1294838E1,2.595104E1,1.2745209E0,7.0297003E0,0E0,6.966335E0,3.6581154E1,1.5378803E1,1.6994053E1,3.3783756E1,1.0488968E0,9.795026E-1,0E0,3.3943615E0,3.8048673E-1,0E0,2.9506788E1,4.2198704E1,1.4863548E1,3.6684002E1,1.6428963E1,7.4159393E0,1.9270645E1,3.0050636E1,0E0,0E0,0E0,0E0,0E0,0E0,0E0,0E0,0E0,0E0,0E0,0E0,0E0,0E0,0E0,0E0,0E0,0E0,0E0,0E0,0E0,0E0,0E0,0E0],"parents":[2147483647,0,0,1,1,2,2,3,3,4,4,5,5,6,6,7,7,8,8,10,10,11,11,12,12,13,13,14,14,15,15,16,16,18,18,19,19,21,21,22,22,23,23,24,24,25,25,26,26,27,27,28,28],"right_children":[2,4,6,8,10,12,14,16,18,-1,20,22,24,26,28,30,32,-1,34,36,-1,38,40,42,44,46,48,50,52,-1,-1,-1,-1,-1,-1,-1,-1,-1,-1,-1,-1,-1,-1,-1,-1,-1,-1,-1,-1,-1,-1,-1,-1],"split_conditions":[1.5190443E1,-1.233852E-2,2.04715E0,-2.0997265E-2,-7.117596E-3,3.6600016E-2,4.9898632E-2,-4.0967338E-2,-1.865081E-2,-7.2892666E-2,5.6748394E-2,1.1272193E-3,1.2835464E8,6.542806E7,4.910783E7,6.8934E0,2.0738E0,-5.971631E-2,1.3228406E1,1.3228406E1,-6.0651507E-2,-5.8550653E-3,1.7963605E-3,8.012042E-2,5.145075E-2,-1.4443656E-2,-1.3234097E-2,7.8822266E1,5.3268166E0,7.247906E-2,1.9364508E-2,-5.571348E-3,4.127851E-2,4.4047084E-2,1.4090724E-2,1.2065831E-2,5.9444398E-2,-2.1764021E-3,1.8105976E-2,-3.0681485E-2,3.3408639E-3,2.9012293E-2,-7.855524E-3,1.8056452E-2,-4.845346E-2,-3.0187938E-2,-4.0281895E-3,-8.00517E-3,-6.1490048E-2,7.8008617E-3,5.617687E-2,-2.5715793E-3,-2.6733547E-2],"split_indices":[3,8,2,9,8,5,5,8,9,0,5,8,6,6,6,0,0,0,3,3,0,7,9,5,5,8,8,3,2,0,0,0,0,0,0,0,0,0,0,0,0,0,0,0,0,0,0,0,0,0,0,0,0],"split_type":[0,0,0,0,0,0,0,0,0,0,0,0,0,0,0,0,0,0,0,0,0,0,0,0,0,0,0,0,0,0,0,0,0,0,0,0,0,0,0,0,0,0,0,0,0,0,0,0,0,0,0,0,0],"sum_hessian":[2.94876E3,7.313361E1,2.8756265E3,6.539365E1,7.7399635E0,1.6078687E3,1.2677578E3,2.0914547E1,4.4479103E1,3.431367E0,4.3085966E0,1.1984716E3,4.0939706E2,2.87059E2,9.806988E2,1.7617918E1,3.296628E0,1.2339019E0,4.32452E1,2.8139572E0,1.4946394E0,8.336328E2,3.6483878E2,2.8782153E2,1.21575516E2,2.4842247E2,3.8636528E1,3.0114084E2,6.795579E2,1.5696098E1,1.9218199E0,1.5079563E0,1.7886716E0,2.7009392E1,1.6235811E1,1.2662548E0,1.5477024E0,5.739514E2,2.5968137E2,1.9423367E2,1.7060512E2,2.5767242E2,3.0149118E1,9.621826E1,2.535725E1,1.00347694E2,1.4807478E2,8.60758E0,3.0028946E1,2.79862E2,2.1278833E1,5.0811075E2,1.7144717E2],"tree_param":{"num_deleted":"0","num_feature":"12","num_nodes":"53","size_leaf_vector":"1"}},{"base_weights":[-1.5911907E-2,5.8512434E-2,-1.4676028E-1,1.8783616E-1,-1.0319654E-1,-8.871386E-1,-1.2175036E-1,9.502971E-2,5.55391E-1,1.7178054E-1,-2.9127395E-1,-6.258496E-2,-1.4868519E0,-1.9808158E-1,1.7003742E-1,1.6517779E-2,4.2807496E-1,6.760768E-1,-9.131088E-2,-8.565354E-2,4.3034172E-1,1.2372929E-1,-4.7274226E-1,-6.926914E-2,9.8073494E-1,2.3252659E-2,-8.0807865E-2,1.2119813E0,-2.1506757E-1,5.337248E-1,-1.331088E-1,4.0787183E-2,-5.3490413E-4,5.3456683E-2,4.6016905E-3,3.5049256E-2,-6.883924E-2,-5.7012994E-2,3.882534E-2,6.5079452E-3,-5.751742E-2,3.0810565E-2,-2.3478305E-2,1.8435247E-3,6.659662E-2,-1.3754544E-2,-4.1058563E-2,8.0290996E-2,-5.711755E-2,6.948185E-2,6.7377123E-3,-9.801953E-3,-7.193963E-2,2.9615551E-2,-5.566963E-2,1.6316235E-2,-2.2288002E-2],"categories":[],"categories_nodes":[],"categories_segments":[],"categories_sizes":[],"default_left":[0,0,0,0,0,0,0,0,0,0,0,0,0,0,0,0,0,0,0,0,0,0,0,0,0,0,0,0,0,0,0,0,0,0,0,0,0,0,0,0,0,0,0,0,0,0,0,0,0,0,0,0,0,0,0,0,0],"id":20,"left_children":[1,3,5,7,9,11,13,15,17,19,21,23,25,27,29,31,33,35,37,39,41,43,45,-1,47,-1,-1,49,51,53,55,-1,-1,-1,-1,-1,-1,-1,-1,-1,-1,-1,-1,-1,-1,-1,-1,-1,-1,-1,-1,-1,-1,-1,-1,-1,-1],"loss_changes":[2.8637827E1,3.9224396E1,1.9634048E1,3.54915E1,4.316571E1,1.7055676E1,2.3029846E1,2.1778097E1,1.6440536E1,2.2617796E1,3.73701E1,2.2952112E1,5.807762E0,1.9873428E1,2.3734089E1,1.4696508E1,3.41317E1,1.0014229E1,3.1730598E1,3.940132E1,2.8627085E1,1.58522415E1,2.3527672E1,0E0,1.4219893E1,0E0,0E0,1.7068787E0,1.8578468E1,1.0094269E1,1.7074924E1,0E0,0E0,0E0,0E0,0E0,0E0,0E0,0E0,0E0,0E0,0E0,0E0,0E0,0E0,0E0,0E0,0E0,0E0,0E0,0E0,0E0,0E0,0E0,0E0,0E0,0E0],"parents":[2147483647,0,0,1,1,2,2,3,3,4,4,5,5,6,6,7,7,8,8,9,9,10,10,11,11,12,12,13,13,14,14,15,15,16,16,17,17,18,18,19,19,20,20,21,21,22,22,24,24,27,27,28,28,29,29,30,30],"right_children":[2,4,6,8,10,12,14,16,18,20,22,24,26,28,30,32,34,36,38,40,42,44,46,-1,48,-1,-1,50,52,54,56,-1,-1,-1,-1,-1,-1,-1,-1,-1,-1,-1,-1,-1,-1,-1,-1,-1,-1,-1,-1,-1,-1,-1,-1,-1,-1],"split_conditions":[2.3322783E0,1.2682891E8,2.4852667E0,2.3247253E-2,8.507166E-1,7.1085026E-3,4.489808E-2,7.0260684E-3,2.07465E0,8.570167E-1,-4.657294E-3,2.402067E0,2.2965E0,-1.5438184E8,5.5515995E1,1.3228406E1,9.7322714E-1,2.403E0,7.944119E7,7.872168E-1,6.2627885E8,2.2666082E0,1.7223193E-3,-6.926914E-2,5.2827606E1,2.3252659E-2,-8.0807865E-2,-3.9171007E-2,1.4630757E8,7.9454E0,6.339661E-2,4.0787183E-2,-5.3490413E-4,5.3456683E-2,4.6016905E-3,3.5049256E-2,-6.883924E-2,-5.7012994E-2,3.882534E-2,6.5079452E-3,-5.751742E-2,3.0810565E-2,-2.3478305E-2,1.8435247E-3,6.659662E-2,-1.3754544E-2,-4.1058563E-2,8.0290996E-2,-5.711755E-2,6.948185E-2,6.7377123E-3,-9.801953E-3,-7.193963E-2,2.9615551E-2,-5.566963E-2,1.6316235E-2,-2.2288002E-2],"split_indices":[11,6,2,7,11,7,8,9,2,2,9,11,2,6,3,3,11,0,6,11,6,11,8,0,3,0,0,8,6,0,8,0,0,0,0,0,0,0,0,0,0,0,0,0,0,0,0,0,0,0,0,0,0,0,0,0,0],"split_type":[0,0,0,0,0,0,0,0,0,0,0,0,0,0,0,0,0,0,0,0,0,0,0,0,0,0,0,0,0,0,0,0,0,0,0,0,0,0,0,0,0,0,0,0,0,0,0,0,0,0,0,0,0,0,0,0,0],"sum_hessian":[2.938859E3,1.8736891E3,1.0651698E3,1.041004E3,8.3268506E2,3.367923E1,1.0314905E3,8.3214777E2,2.0885619E2,3.3824432E2,4.9444073E2,1.4646256E1,1.9032972E1,8.178606E2,2.136299E2,6.7425E2,1.578978E2,1.7597142E2,3.288476E1,1.6982666E2,1.6841766E2,1.5052362E2,3.439171E2,6.313577E0,8.332679E0,1.0211936E0,1.8011778E1,8.897498E0,8.0896313E2,9.6771545E1,1.1685835E2,2.1249857E1,6.530001E2,5.355344E1,1.04344345E2,1.7451251E2,1.4589063E0,1.4746467E1,1.8138296E1,1.4193446E2,2.7892202E1,1.3984824E2,2.8569416E1,1.4138953E2,9.134102E0,2.2057965E2,1.2333747E2,6.625592E0,1.707087E0,7.38891E0,1.5085878E0,7.9771906E2,1.1244064E1,9.406611E1,2.7054365E0,4.7303402E1,6.9554955E1],"tree_param":{"num_deleted":"0","num_feature":"12","num_nodes":"57","size_leaf_vector":"1"}},{"base_weights":[1.3255334E-2,7.105354E-1,-6.1597046E-3,7.588917E-1,-5.6518484E-2,-2.2438025E-1,6.123685E-2,8.296646E-3,8.2963675E-1,-1.9965863E-2,-4.998969E-1,4.71854E-1,2.9040769E-2,-5.995349E-2,5.527877E-1,6.761531E-2,6.4518875E-1,3.1976485E-1,-3.1752118E-1,-9.5703304E-1,-3.2010522E-1,-7.891454E-1,5.477993E-1,-1.9369269E-2,2.5980142E-1,5.2872237E-2,-1.6609307E-2,4.492143E-2,-6.118137E-4,1.940384E-2,-7.50181E-2,6.5348158E-3,-3.4572374E-2,-2.26304E-2,-6.497766E-2,-7.827286E-3,-4.312866E-2,-6.501259E-2,5.628887E-2,3.7613306E-2,6.766858E-4,-9.521604E-3,5.4806652E-3,2.7904574E-2,3.8118786E-4],"categories":[],"categories_nodes":[],"categories_segments":[],"categories_sizes":[],"default_left":[0,0,0,0,0,0,0,0,0,0,0,0,0,0,0,0,0,0,0,0,0,0,0,0,0,0,0,0,0,0,0,0,0,0,0,0,0,0,0,0,0,0,0,0,0],"id":21,"left_children":[1,3,5,7,-1,9,11,13,15,17,19,21,23,-1,25,-1,27,29,31,33,35,37,39,41,43,-1,-1,-1,-1,-1,-1,-1,-1,-1,-1,-1,-1,-1,-1,-1,-1,-1,-1,-1,-1],"loss_changes":[4.01809E1,8.015324E0,4.24935E1,4.1851273E0,0E0,3.8387096E1,2.917097E1,5.7970347E0,6.08165E0,3.9771755E1,2.355661E1,1.579739E1,2.2884947E1,0E0,3.0608187E0,0E0,9.206181E0,2.3426294E1,3.523652E1,1.3485245E1,1.8487326E1,1.0784914E1,1.658538E1,3.7395294E1,2.6716759E1,0E0,0E0,0E0,0E0,0E0,0E0,0E0,0E0,0E0,0E0,0E0,0E0,0E0,0E0,0E0,0E0,0E0,0E0,0E0,0E0],"parents":[2147483647,0,0,1,1,2,2,3,3,5,5,6,6,7,7,8,8,9,9,10,10,11,11,12,12,14,14,16,16,17,17,18,18,19,19,20,20,21,21,22,22,23,23,24,24],"right_children":[2,4,6,8,-1,10,12,14,16,18,20,22,24,-1,26,-1,28,30,32,34,36,38,40,42,44,-1,-1,-1,-1,-1,-1,-1,-1,-1,-1,-1,-1,-1,-1,-1,-1,-1,-1,-1,-1],"split_conditions":[2.5612597E1,-1.233852E-2,-1.9963445E-2,-2.3498254E-1,-5.6518484E-2,-3.387168E-2,-1.5444825E-2,1.52405E0,-7.466879E-2,2.7015E0,-2.0461396E7,3.0387531E1,4.8967358E-2,-5.995349E-2,6.9126424E7,6.761531E-2,2.33205E0,5.1854523E1,3.9195866E1,-3.0127585E-2,1.3633272E8,-1.2902988E-3,4.860906E1,1.2029115E-4,5.5515995E1,5.2872237E-2,-1.6609307E-2,4.492143E-2,-6.118137E-4,1.940384E-2,-7.50181E-2,6.5348158E-3,-3.4572374E-2,-2.26304E-2,-6.497766E-2,-7.827286E-3,-4.312866E-2,-6.501259E-2,5.628887E-2,3.7613306E-2,6.766858E-4,-9.521604E-3,5.4806652E-3,2.7904574E-2,3.8118786E-4],"split_indices":[4,8,7,7,0,8,7,1,8,1,6,4,8,0,6,0,1,4,3,7,6,9,3,9,3,0,0,0,0,0,0,0,0,0,0,0,0,0,0,0,0,0,0,0,0],"split_type":[0,0,0,0,0,0,0,0,0,0,0,0,0,0,0,0,0,0,0,0,0,0,0,0,0,0,0,0,0,0,0,0,0,0,0,0,0,0,0,0,0,0,0,0,0],"sum_hessian":[2.9667468E3,7.940389E1,2.8873428E3,7.7944244E1,1.4596516E0,6.807715E2,2.2065713E3,6.8098598E0,7.1134384E1,3.914299E2,2.8934155E2,1.594426E2,2.0471288E3,1.7429096E0,5.0669503E0,1.690347E1,5.423091E1,1.8272775E2,2.0870215E2,8.045491E1,2.0888664E2,8.523698E0,1.509189E2,1.6929004E3,3.542284E2,3.1027288E0,1.9642214E0,3.8885605E1,1.5345308E1,1.7687613E2,5.8516245E0,9.521747E1,1.1348468E2,3.3476257E1,4.6978657E1,1.6148569E2,4.7400967E1,6.9813237E0,1.5423741E0,1.0885236E2,4.2066536E1,7.2753394E2,9.6536646E2,1.6172171E2,1.9250668E2],"tree_param":{"num_deleted":"0","num_feature":"12","num_nodes":"45","size_leaf_vector":"1"}},{"base_weights":[1.109763E-2,6.7007524E-1,-7.4131764E-3,-3.1822628E-1,7.6093584E-1,-3.798468E-2,3.024403E-1,-1.0030024E0,5.6836486E-1,1.0489476E0,5.2999055E-1,1.222776E0,-4.7873814E-2,4.1255245E-1,-5.8875525E-1,-2.9601145E-3,-6.454699E-2,8.7100855E-4,4.5310955E-2,1.3945849E-1,1.2379473E0,6.4068E-1,-1.8830936E-1,1.4121175E0,6.0145086E-1,-2.950113E-2,-5.218493E-1,-8.053526E-2,4.5046806E-1,7.5653046E-1,-9.0698373E-1,5.3793676E-2,-1.7593838E-2,6.603637E-2,2.0678602E-2,-3.0031975E-3,3.7630808E-2,3.039962E-2,-6.851759E-2,7.2942935E-2,1.9278964E-2,-3.312611E-2,6.346109E-2,1.1330373E-3,-1.05908085E-2,4.20901E-2,-3.3464752E-2,2.4694648E-2,-2.83485E-2,-1.6246533E-2,6.273644E-2,-8.0782175E-2,-2.9854069E-2],"categories":[],"categories_nodes":[],"categories_segments":[],"categories_sizes":[],"default_left":[0,0,0,0,0,0,0,0,0,0,0,0,0,0,0,0,0,0,0,0,0,0,0,0,0,0,0,0,0,0,0,0,0,0,0,0,0,0,0,0,0,0,0,0,0,0,0,0,0,0,0,0,0],"id":22,"left_children":[1,3,5,7,9,11,13,15,17,19,21,23,25,27,29,-1,-1,-1,-1,31,33,35,37,39,41,43,45,-1,47,49,51,-1,-1,-1,-1,-1,-1,-1,-1,-1,-1,-1,-1,-1,-1,-1,-1,-1,-1,-1,-1,-1,-1],"loss_changes":[3.599838E1,7.4827423E0,2.7208336E1,5.119801E0,4.3753815E0,3.2651134E1,2.5555508E1,1.1709123E0,7.1091163E-1,5.3230667E0,3.5527544E0,1.5485668E0,2.258023E1,1.8382473E1,1.3006223E1,0E0,0E0,0E0,0E0,3.427991E0,1.2515373E0,2.9968576E0,6.9858265E0,1.5147018E-1,6.3293552E0,2.3769884E1,2.001983E1,0E0,1.0296795E1,3.6675494E0,4.246252E0,0E0,0E0,0E0,0E0,0E0,0E0,0E0,0E0,0E0,0E0,0E0,0E0,0E0,0E0,0E0,0E0,0E0,0E0,0E0,0E0,0E0,0E0],"parents":[2147483647,0,0,1,1,2,2,3,3,4,4,5,5,6,6,7,7,8,8,9,9,10,10,11,11,12,12,13,13,14,14,19,19,20,20,21,21,22,22,23,23,24,24,25,25,26,26,28,28,29,29,30,30],"right_children":[2,4,6,8,10,12,14,16,18,20,22,24,26,28,30,-1,-1,-1,-1,32,34,36,38,40,42,44,46,-1,48,50,52,-1,-1,-1,-1,-1,-1,-1,-1,-1,-1,-1,-1,-1,-1,-1,-1,-1,-1,-1,-1,-1,-1],"split_conditions":[2.5612597E1,-2.3498254E-1,6.603059E1,5.6140766E0,2.2247955E1,6.2605697E-1,3.0112011E-2,-6.042068E-2,6.2E0,-5.5475372E7,1.4215008E8,5.9706997E1,6.2627885E8,-2.7314368E7,5.3619273E-2,-2.9601145E-3,-6.454699E-2,8.7100855E-4,4.5310955E-2,-7.766804E-2,-3.3163793E-2,-1.865081E-2,-5.8914293E-3,1.29315425E-2,1.5182191E-2,3.5905664E0,7.5361997E-1,-8.053526E-2,6.0054336E0,3.676004E-2,7.547792E1,5.3793676E-2,-1.7593838E-2,6.603637E-2,2.0678602E-2,-3.0031975E-3,3.7630808E-2,3.039962E-2,-6.851759E-2,7.2942935E-2,1.9278964E-2,-3.312611E-2,6.346109E-2,1.1330373E-3,-1.05908085E-2,4.20901E-2,-3.3464752E-2,2.4694648E-2,-2.83485E-2,-1.6246533E-2,6.273644E-2,-8.0782175E-2,-2.9854069E-2],"split_indices":[4,7,4,11,4,11,9,9,0,6,6,4,6,6,7,0,0,0,0,7,7,9,9,7,9,10,11,0,2,9,4,0,0,0,0,0,0,0,0,0,0,0,0,0,0,0,0,0,0,0,0,0,0],"split_type":[0,0,0,0,0,0,0,0,0,0,0,0,0,0,0,0,0,0,0,0,0,0,0,0,0,0,0,0,0,0,0,0,0,0,0,0,0,0,0,0,0,0,0,0,0,0,0,0,0,0,0,0,0],"sum_hessian":[2.9497131E3,7.963236E1,2.8700808E3,6.4939985E0,7.313837E1,2.613135E3,2.5694595E2,3.5899372E0,2.904061E0,3.0971653E1,4.216671E1,1.9382803E1,2.5937522E3,2.2916806E2,2.7777908E1,1.1210312E0,2.4689062E0,1.503629E0,1.4004322E0,5.627815E0,2.5343838E1,3.6630104E1,5.5366077E0,1.388022E1,5.502582E0,2.497985E3,9.5767006E1,3.452529E0,2.2571553E2,5.0504045E0,2.2727505E1,1.5273018E0,4.100513E0,2.2484001E1,2.8598373E0,5.109152E0,3.1520952E1,3.5982392E0,1.9383688E0,1.2872934E1,1.0072867E0,1.9048657E0,3.597716E0,1.9429626E3,5.550224E2,8.884989E0,8.688202E1,2.169697E2,8.745828E0,1.7025E0,3.3479047E0,5.6330066E0,1.7094498E1],"tree_param":{"num_deleted":"0","num_feature":"12","num_nodes":"53","size_leaf_vector":"1"}},{"base_weights":[-1.7834907E-2,-4.318816E-2,3.5326236E-1,2.3964183E-2,-1.89396E-1,6.803434E-2,2.4608724E-1,-2.0321185E-2,3.9430937E-1,6.913241E-1,-2.1821627E-1,3.337986E-1,-6.919397E-1,5.685199E-2,-2.2919396E-1,2.8423184E-1,9.205331E-1,9.475287E-1,1.8877725E-1,-6.685949E-1,-1.7417464E-1,5.486121E-1,-8.056607E-2,3.861884E-1,-1.4713436E0,-4.5888216E-4,2.7326277E-2,-2.793688E-3,-2.5500944E-2,6.8404637E-3,3.171182E-2,6.5781176E-2,-8.935133E-3,3.0364228E-2,7.433609E-2,-5.062607E-2,4.56129E-2,-2.4020731E-2,-9.007429E-2,3.864225E-2,-9.590096E-3,-2.6337503E-2,3.4370653E-2,3.4096714E-2,-3.340508E-2,-5.8159333E-2,5.0345685E-2,1.4724092E-3,-8.541736E-2],"categories":[],"categories_nodes":[],"categories_segments":[],"categories_sizes":[],"default_left":[0,0,0,0,0,0,0,0,0,0,0,0,0,0,0,0,0,0,0,0,0,0,0,0,0,0,0,0,0,0,0,0,0,0,0,0,0,0,0,0,0,0,0,0,0,0,0,0,0],"id":23,"left_children":[1,3,5,7,9,-1,11,13,15,17,19,21,23,25,27,29,31,33,35,37,39,41,43,45,47,-1,-1,-1,-1,-1,-1,-1,-1,-1,-1,-1,-1,-1,-1,-1,-1,-1,-1,-1,-1,-1,-1,-1,-1],"loss_changes":[2.7729868E1,2.708514E1,2.0016333E1,3.1021788E1,2.2188566E1,0E0,1.4348178E1,2.7254196E1,1.144038E1,3.3941946E0,1.6574455E1,1.4071163E1,1.3170725E1,3.993057E1,2.2173E1,8.608474E0,1.521913E1,2.4235077E0,1.0153128E1,1.503912E1,1.2966511E1,1.5872078E1,2.494981E1,7.98512E0,3.2204895E0,0E0,0E0,0E0,0E0,0E0,0E0,0E0,0E0,0E0,0E0,0E0,0E0,0E0,0E0,0E0,0E0,0E0,0E0,0E0,0E0,0E0,0E0,0E0,0E0],"parents":[2147483647,0,0,1,1,2,2,3,3,4,4,6,6,7,7,8,8,9,9,10,10,11,11,12,12,13,13,14,14,15,15,16,16,17,17,18,18,19,19,20,20,21,21,22,22,23,23,24,24],"right_children":[2,4,6,8,10,-1,12,14,16,18,20,22,24,26,28,30,32,34,36,38,40,42,44,46,48,-1,-1,-1,-1,-1,-1,-1,-1,-1,-1,-1,-1,-1,-1,-1,-1,-1,-1,-1,-1,-1,-1,-1,-1],"split_conditions":[6.818933E1,5.5515995E1,2.7609977E-3,3.836501E-2,7.6695E-1,6.803434E-2,1.09175116E-1,2.0412149E-4,9.947681E-2,3.2819586E-3,4.9516678E1,1.3051185E8,4.760944E7,-5.8550653E-3,1.3051185E8,1.3560869E8,4.914882E0,-6.4486236E-4,6.240412E1,4.889573E1,-9.520572E7,2.1288995E-2,1.0315962E0,7.177687E1,6.5118744E1,-4.5888216E-4,2.7326277E-2,-2.793688E-3,-2.5500944E-2,6.8404637E-3,3.171182E-2,6.5781176E-2,-8.935133E-3,3.0364228E-2,7.433609E-2,-5.062607E-2,4.56129E-2,-2.4020731E-2,-9.007429E-2,3.864225E-2,-9.590096E-3,-2.6337503E-2,3.4370653E-2,3.4096714E-2,-3.340508E-2,-5.8159333E-2,5.0345685E-2,1.4724092E-3,-8.541736E-2],"split_indices":[4,3,8,8,2,0,8,8,7,7,4,6,6,7,6,6,11,8,4,4,6,8,10,3,3,0,0,0,0,0,0,0,0,0,0,0,0,0,0,0,0,0,0,0,0,0,0,0,0],"split_type":[0,0,0,0,0,0,0,0,0,0,0,0,0,0,0,0,0,0,0,0,0,0,0,0,0,0,0,0,0,0,0,0,0,0,0,0,0,0,0,0,0,0,0,0,0,0,0,0,0],"sum_hessian":[2.9446921E3,2.7572043E3,1.8748773E2,1.8899832E3,8.6722125E2,1.690339E1,1.7058434E2,1.6889642E3,2.0101889E2,2.6750927E1,8.4047034E2,1.5658665E2,1.3997679E1,1.2338251E3,4.551392E2,1.6751714E2,3.350175E1,1.7131582E1,9.619345E0,7.360364E1,7.668667E2,1.029116E2,5.367506E1,6.0849886E0,7.91269E0,1.0880845E3,1.4574062E2,2.8218103E2,1.7295816E2,1.1884871E2,4.8668427E1,2.4499292E1,9.002458E0,1.1807218E1,5.3243637E0,3.4655247E0,6.1538205E0,6.434036E1,9.263277E0,1.3230273E1,7.536364E2,1.1445151E1,9.1466446E1,2.3289461E1,3.03856E1,1.4905509E0,4.594438E0,1.1985824E0,6.714108E0],"tree_param":{"num_deleted":"0","num_feature":"12","num_nodes":"49","size_leaf_vector":"1"}},{"base_weights":[1.7797206E-2,7.366603E-1,2.5886719E-3,-9.5156366E-1,8.515407E-1,8.456387E-1,-5.133343E-3,-6.382007E-2,-1.0331826E-3,1.1091743E0,4.819247E-1,1.1474638E0,-3.8237017E-1,2.6225865E-1,-2.7460096E-2,6.0416322E-2,5.3392166E-1,1.099342E0,-5.5063206E-1,6.6499144E-2,-2.0457854E-2,6.6632146E-1,-7.3105015E-2,-3.3210635E-3,6.923711E-1,1.8403728E-2,-2.2071198E-1,3.7039798E-2,-7.6166214E-3,-1.0675329E-2,6.0124338E-2,1.9449627E-2,-4.746065E-2,4.6736065E-2,3.9013836E-3,2.0225815E-2,-1.3533984E-2,4.4480804E-2,-7.7396183E-4,3.779337E-4,4.8270028E-2,-5.703769E-2,-7.333085E-3],"categories":[],"categories_nodes":[],"categories_segments":[],"categories_sizes":[],"default_left":[0,0,0,0,0,0,0,0,0,0,0,0,0,0,0,0,0,0,0,0,0,0,0,0,0,0,0,0,0,0,0,0,0,0,0,0,0,0,0,0,0,0,0],"id":24,"left_children":[1,3,5,7,9,11,13,-1,-1,15,17,19,21,23,25,-1,27,29,31,-1,-1,33,-1,35,37,39,41,-1,-1,-1,-1,-1,-1,-1,-1,-1,-1,-1,-1,-1,-1,-1,-1],"loss_changes":[3.2227516E1,1.2654846E1,1.8804504E1,1.293056E0,4.960808E0,1.0156195E1,1.7097223E1,0E0,0E0,1.2506256E0,1.6843784E1,6.594387E0,7.680439E0,2.5212769E1,2.3429255E1,0E0,1.0609565E0,2.4604225E0,4.18841E0,0E0,0E0,5.099361E-1,0E0,1.5096205E1,1.17777405E1,2.1939571E1,3.437501E1,0E0,0E0,0E0,0E0,0E0,0E0,0E0,0E0,0E0,0E0,0E0,0E0,0E0,0E0,0E0,0E0],"parents":[2147483647,0,0,1,1,2,2,3,3,4,4,5,5,6,6,9,9,10,10,11,11,12,12,13,13,14,14,16,16,17,17,18,18,21,21,23,23,24,24,25,25,26,26],"right_children":[2,4,6,8,10,12,14,-1,-1,16,18,20,22,24,26,-1,28,30,32,-1,-1,34,-1,36,38,40,42,-1,-1,-1,-1,-1,-1,-1,-1,-1,-1,-1,-1,-1,-1,-1,-1],"split_conditions":[2.4893871E1,-2.3498254E-1,6.2605697E-1,6.30005E0,1.5674293E0,7.05347E1,-1.7026428E-2,-6.382007E-2,-1.0331826E-3,2.387932E1,-7.766804E-2,5.785291E-2,7.2335E-1,2.1127058E-2,3.5905664E0,6.0416322E-2,-6.5467707E-3,2.59855E0,2.4378E0,6.6499144E-2,-2.0457854E-2,6.7845E-1,-7.3105015E-2,-3.310842E-2,1.2380452E-1,3.3708353E0,3.7808022E0,3.7039798E-2,-7.6166214E-3,-1.0675329E-2,6.0124338E-2,1.9449627E-2,-4.746065E-2,4.6736065E-2,3.9013836E-3,2.0225815E-2,-1.3533984E-2,4.4480804E-2,-7.7396183E-4,3.779337E-4,4.8270028E-2,-5.703769E-2,-7.333085E-3],"split_indices":[4,7,11,1,11,4,9,0,0,4,7,8,1,7,10,0,9,2,2,0,0,1,0,8,5,11,10,0,0,0,0,0,0,0,0,0,0,0,0,0,0,0,0],"split_type":[0,0,0,0,0,0,0,0,0,0,0,0,0,0,0,0,0,0,0,0,0,0,0,0,0,0,0,0,0,0,0,0,0,0,0,0,0,0,0,0,0,0,0],"sum_hessian":[2.9469421E3,6.007209E1,2.88687E3,3.3633223E0,5.670877E1,2.5217726E1,2.8616523E3,2.2181506E0,1.1451718E0,3.223742E1,2.4471348E1,2.0295101E1,4.922624E0,2.1970091E2,2.6419514E3,2.6559107E1,5.6783147E0,1.5273738E1,9.19761E0,1.829549E1,1.9996116E0,2.6914375E0,2.2311866E0,1.364438E2,8.325711E1,2.1359404E3,5.0601086E2,4.301985E0,1.37633E0,1.034641E0,1.4239098E1,2.7466488E0,6.450961E0,1.44384E0,1.2475976E0,5.382477E1,8.261904E1,6.4912285E1,1.8344826E1,2.1127532E3,2.318737E1,3.661989E1,4.69391E2],"tree_param":{"num_deleted":"0","num_feature":"12","num_nodes":"43","size_leaf_vector":"1"}},{"base_weights":[6.69364E-3,6.928158E-1,-1.0807833E-2,7.813997E-1,-4.4012833E-1,3.2314524E-2,-1.672848E-1,8.437165E-1,5.5672913E-3,5.4938287E-1,-6.591563E-2,-2.3873987E-2,2.5030145E-1,-1.0038186E0,-1.0888719E-1,7.3015916E-1,6.371635E-2,4.4968657E-2,-4.5681313E-1,4.387705E-2,-3.7644096E-3,-4.6298563E-2,6.0340166E-1,6.3095397E-1,1.0866329E-1,5.4056652E-2,-1.1726109E0,2.0219414E-2,-2.9840758E-1,5.380821E-2,1.933268E-2,-6.261953E-2,9.279881E-3,-1.5237274E-3,-4.173794E-2,3.492656E-2,-6.676544E-2,-7.839705E-3,4.2583756E-2,2.72109E-2,-7.009381E-4,6.285493E-2,-6.6129446E-2,-4.5262277E-3,5.4888394E-2,-7.03641E-2,-1.03631085E-2],"categories":[],"categories_nodes":[],"categories_segments":[],"categories_sizes":[],"default_left":[0,0,0,0,0,0,0,0,0,0,0,0,0,0,0,0,0,0,0,0,0,0,0,0,0,0,0,0,0,0,0,0,0,0,0,0,0,0,0,0,0,0,0,0,0,0,0],"id":25,"left_children":[1,3,5,7,9,11,13,15,17,19,-1,21,23,25,27,29,-1,-1,31,-1,-1,33,35,37,39,-1,41,43,45,-1,-1,-1,-1,-1,-1,-1,-1,-1,-1,-1,-1,-1,-1,-1,-1,-1,-1],"loss_changes":[3.532406E1,7.6872177E0,1.936363E1,3.2937164E0,5.8910303E0,2.7563725E1,3.0177128E1,2.1572304E0,2.9231963E0,7.8385675E-1,0E0,2.5203075E1,2.479571E1,1.5462082E1,1.4213196E1,5.8010654E0,0E0,0E0,2.61903E0,0E0,0E0,2.1545277E1,1.2338642E1,2.1842697E1,1.8032206E1,0E0,1.5434341E1,4.1424038E1,2.3493324E1,0E0,0E0,0E0,0E0,0E0,0E0,0E0,0E0,0E0,0E0,0E0,0E0,0E0,0E0,0E0,0E0,0E0,0E0],"parents":[2147483647,0,0,1,1,2,2,3,3,4,4,5,5,6,6,7,7,8,8,9,9,11,11,12,12,13,13,14,14,15,15,18,18,21,21,22,22,23,23,24,24,26,26,27,27,28,28],"right_children":[2,4,6,8,10,12,14,16,18,20,-1,22,24,26,28,30,-1,-1,32,-1,-1,34,36,38,40,-1,42,44,46,-1,-1,-1,-1,-1,-1,-1,-1,-1,-1,-1,-1,-1,-1,-1,-1,-1,-1],"split_conditions":[2.5612597E1,6.0557E0,3.5905664E0,-1.7157054E-2,-6.042068E-2,7.0260684E-3,3.7808022E0,3.639E0,8.0505E-1,-1.2262125E-1,-6.591563E-2,3.2689166E0,5.969453E1,-1.9374896E-2,5.472065E1,1.11E0,6.371635E-2,4.4968657E-2,8.782E-1,4.387705E-2,-3.7644096E-3,3.25315E0,2.84186E-2,-2.6395505E-2,1.0825267E0,5.4056652E-2,-5.8467716E-2,1.3840157E-2,5.017065E1,5.380821E-2,1.933268E-2,-6.261953E-2,9.279881E-3,-1.5237274E-3,-4.173794E-2,3.492656E-2,-6.676544E-2,-7.839705E-3,4.2583756E-2,2.72109E-2,-7.009381E-4,6.285493E-2,-6.6129446E-2,-4.5262277E-3,5.4888394E-2,-7.03641E-2,-1.03631085E-2],"split_indices":[4,1,10,8,9,9,10,1,1,8,0,2,3,9,3,1,0,0,1,0,0,1,7,7,10,0,7,9,4,0,0,0,0,0,0,0,0,0,0,0,0,0,0,0,0,0,0],"split_type":[0,0,0,0,0,0,0,0,0,0,0,0,0,0,0,0,0,0,0,0,0,0,0,0,0,0,0,0,0,0,0,0,0,0,0,0,0,0,0,0,0,0,0,0,0,0,0],"sum_hessian":[2.9400505E3,7.216912E1,2.8678813E3,6.722328E1,4.945837E0,2.2489133E3,6.189682E2,6.2144207E1,5.0790772E0,2.5015626E0,2.4442744E0,1.7887372E3,4.6017606E2,3.933357E1,5.7963464E2,5.130902E1,1.0835187E1,1.4094474E0,3.6696296E0,1.3746262E0,1.1269366E0,1.7278927E3,6.084451E1,1.2385666E2,3.363194E2,2.5410428E0,3.6792526E1,3.4529996E2,2.343347E2,2.4498941E1,2.681008E1,1.2151908E0,2.454439E0,1.6949152E3,3.2977474E1,5.8608383E1,2.2361279E0,2.717159E1,9.668507E1,7.315681E1,2.631626E2,1.7098782E0,3.508265E1,3.1395004E2,3.1349913E1,1.6701721E1,2.1763298E2],"tree_param":{"num_deleted":"0","num_feature":"12","num_nodes":"47","size_leaf_vector":"1"}}]},"name":"gbtree"},"learner_model_param":{"base_score":"[5.0473696E-1]","boost_from_average":"1","num_class":"0","num_feature":"12","num_target":"1"},"objective":{"name":"binary:logistic","reg_loss_param":{"scale_pos_weight":"3.10465503"}}},"version":[3,1,3]}