{"learner":{"attributes":{"best_iteration":"2","best_score":"0.5806743810023238"},"feature_names":["ma5","ma20","ma60","rsi_6","rsi_14","atr","obv","macd","macdsignal","macdhist","upper","lower"],"feature_types":["float","float","float","float","float","float","float","float","float","float","float","float"],"gradient_booster":{"model":{"gbtree_model_param":{"num_parallel_tree":"1","num_trees":"23"},"iteration_indptr":[0,1,2,3,4,5,6,7,8,9,10,11,12,13,14,15,16,17,18,19,20,21,22,23],"tree_info":[0,0,0,0,0,0,0,0,0,0,0,0,0,0,0,0,0,0,0,0,0,0,0],"trees":[{"base_weights":[1.6302549E-3,3.4227186E-1,-3.2533896E-1,1.7440492E-1,8.685457E-1,4.0457425E-1,-4.352759E-1,7.923091E-1,6.857881E-2,9.7641236E-1,2.6655754E-1,1.4103901E-1,8.6097884E-1,-5.683176E-1,-3.4680944E-3,8.9948666E-1,-9.136306E-1,-2.4617955E-2,6.4704263E-1,1.0024645E0,-7.035224E-2,-1.024606E0,7.070408E-1,1.007124E0,-1.10404916E-1,1.0725297E0,-2.380862E-1,-3.0384964E-1,-7.213576E-1,-1.2179153E0,5.5088736E-2,8.301988E-2,3.4615267E-2,4.6422396E-2,-6.864616E-2,4.4705555E-2,-3.638183E-3,6.1573684E-2,1.5517487E-2,3.777085E-2,6.1359584E-2,-7.564871E-2,3.0490909E-2,5.0510794E-2,-1.1752908E-2,-2.1815337E-2,5.6935716E-2,-6.642313E-4,-8.0600396E-2,7.818619E-2,4.1892376E-2,-7.574552E-2,2.2325872E-2,-6.093535E-2,-8.744906E-3,-7.7008903E-3,-4.0725183E-2,6.1141934E-2,-7.829202E-2,4.7121355E-3,-8.224778E-2],"categories":[],"categories_nodes":[],"categories_segments":[],"categories_sizes":[],"default_left":[0,0,0,0,0,0,0,0,0,0,0,0,0,0,0,0,0,0,0,0,0,0,0,0,0,0,0,0,0,0,0,0,0,0,0,0,0,0,0,0,0,0,0,0,0,0,0,0,0,0,0,0,0,0,0,0,0,0,0,0,0],"id":0,"left_children":[1,3,5,7,9,11,13,15,17,19,21,23,25,27,29,31,33,35,37,39,-1,41,43,45,47,49,51,53,55,57,59,-1,-1,-1,-1,-1,-1,-1,-1,-1,-1,-1,-1,-1,-1,-1,-1,-1,-1,-1,-1,-1,-1,-1,-1,-1,-1,-1,-1,-1,-1],"loss_changes":[3.4208182E2,1.3273633E2,1.2592821E2,7.46013E1,2.3344574E1,2.461441E1,7.8269165E1,3.1327812E1,5.262462E1,2.0529572E1,3.2922966E1,2.8763466E1,1.7713066E1,4.1936523E1,2.2959642E1,2.3677956E1,1.0038787E1,3.7282745E1,2.6268974E1,1.6014832E1,0E0,1.2743513E1,1.2463409E1,6.138487E0,1.4980468E1,5.968994E0,1.1985727E1,4.503071E1,3.4701508E1,1.4526157E1,2.066068E1,0E0,0E0,0E0,0E0,0E0,0E0,0E0,0E0,0E0,0E0,0E0,0E0,0E0,0E0,0E0,0E0,0E0,0E0,0E0,0E0,0E0,0E0,0E0,0E0,0E0,0E0,0E0,0E0,0E0,0E0],"parents":[2147483647,0,0,1,1,2,2,3,3,4,4,5,5,6,6,7,7,8,8,9,9,10,10,11,11,12,12,13,13,14,14,15,15,16,16,17,17,18,18,19,19,21,21,22,22,23,23,24,24,25,25,26,26,27,27,28,28,29,29,30,30],"right_children":[2,4,6,8,10,12,14,16,18,20,22,24,26,28,30,32,34,36,38,40,-1,42,44,46,48,50,52,54,56,58,60,-1,-1,-1,-1,-1,-1,-1,-1,-1,-1,-1,-1,-1,-1,-1,-1,-1,-1,-1,-1,-1,-1,-1,-1,-1,-1,-1,-1,-1,-1],"split_conditions":[2.3185883E0,2.3901548E-2,-1.807626E-2,-3.8532495E-2,2.0709E0,5.1618293E-2,3.8951427E-2,2.2628E0,8.915131E-3,2.3988E0,2.1114018E0,2.03125E1,5.0537636E1,3.585566E0,2.9354E0,1.07365E0,2.4598668E0,7.0101666E-1,9.7327197E-1,1.2589777E0,-7.035224E-2,8.1570454E-2,2.232105E0,-1.4066806E-1,7.80085E0,4.017E0,6.5386E0,2.5706666E0,-5.8239795E-2,4.326711E1,7.80085E0,8.301988E-2,3.4615267E-2,4.6422396E-2,-6.864616E-2,4.4705555E-2,-3.638183E-3,6.1573684E-2,1.5517487E-2,3.777085E-2,6.1359584E-2,-7.564871E-2,3.0490909E-2,5.0510794E-2,-1.1752908E-2,-2.1815337E-2,5.6935716E-2,-6.642313E-4,-8.0600396E-2,7.818619E-2,4.1892376E-2,-7.574552E-2,2.2325872E-2,-6.093535E-2,-8.744906E-3,-7.7008903E-3,-4.0725183E-2,6.1141934E-2,-7.829202E-2,4.7121355E-3,-8.224778E-2],"split_indices":[11,7,9,7,2,8,8,0,9,0,11,4,4,10,10,1,2,2,11,11,0,8,11,8,2,0,1,2,8,4,2,0,0,0,0,0,0,0,0,0,0,0,0,0,0,0,0,0,0,0,0,0,0,0,0,0,0,0,0,0,0],"split_type":[0,0,0,0,0,0,0,0,0,0,0,0,0,0,0,0,0,0,0,0,0,0,0,0,0,0,0,0,0,0,0,0,0,0,0,0,0,0,0,0,0,0,0,0,0,0,0,0,0,0,0,0,0,0,0,0,0,0,0,0,0],"sum_hessian":[3.0693223E3,1.503209E3,1.5661133E3,1.140691E3,3.6251788E2,2.0465443E2,1.3614589E3,1.6584688E2,9.748442E2,3.0690366E2,5.5614204E1,1.3057018E2,7.408427E1,1.0405463E3,3.2091257E2,1.5648808E2,9.358805E0,8.4040356E2,1.3444064E2,3.0415848E2,2.7451756E0,1.3809401E1,4.1804806E1,2.8702076E1,1.01868095E2,6.2146324E1,1.1937941E1,3.8251273E2,6.5803357E2,1.385091E1,3.0706168E2,3.1988892E1,1.2449919E2,1.6639104E0,7.694894E0,4.0973103E1,7.994305E2,4.816988E1,8.627076E1,1.4696173E2,1.5719676E2,1.0689631E1,3.119769E0,3.1572285E1,1.0232521E1,2.2045429E0,2.6497534E1,9.662731E1,5.24079E0,1.8261505E1,4.388482E1,3.7434213E0,8.19452E0,4.6211376E1,3.3630136E2,9.317445E1,5.6485913E2,1.414349E0,1.2436561E1,3.0107217E2,5.989474E0],"tree_param":{"num_deleted":"0","num_feature":"12","num_nodes":"61","size_leaf_vector":"1"}},{"base_weights":[6.106241E-3,3.4186643E-1,-3.2842967E-1,1.5132847E-1,6.267529E-1,-7.815244E-1,-1.5951525E-1,-3.1178705E-3,4.8002955E-1,8.1452084E-1,3.02186E-1,-8.787239E-1,5.0189954E-1,6.0417527E-1,-2.240006E-1,2.5619334E-1,-2.5414374E-1,5.3024584E-1,-1.1143323E0,9.620105E-1,3.883894E-1,2.1256207E-1,1.5679574E0,-7.789048E-1,-1.7629404E0,1.0622355E0,-4.7255132E-2,6.6922855E-1,-6.575102E-2,-1.9606753E-1,-1.5276073E0,-2.2050976E-3,4.1621737E-2,-6.3044727E-3,-7.068254E-2,2.3425622E-2,7.0745826E-2,-8.401277E-2,6.0960125E-2,5.1499315E-2,1.7005285E-3,-2.6819876E-3,6.201457E-2,6.985175E-2,5.619364E-3,8.679696E-2,1.9271228E-4,-3.3245426E-2,-6.702737E-2,1.2867724E-2,-9.169875E-2,-3.037203E-2,7.376905E-2,-2.3507586E-2,6.675213E-2,3.7125442E-2,-4.2374615E-2,-1.1586265E-2,6.3285165E-2,1.1953297E-2,-8.212867E-2],"categories":[],"categories_nodes":[],"categories_segments":[],"categories_sizes":[],"default_left":[0,0,0,0,0,0,0,0,0,0,0,0,0,0,0,0,0,0,0,0,0,0,0,0,0,0,0,0,0,0,0,0,0,0,0,0,0,0,0,0,0,0,0,0,0,0,0,0,0,0,0,0,0,0,0,0,0,0,0,0,0],"id":1,"left_children":[1,3,5,7,9,11,13,15,17,19,21,23,25,27,29,31,33,35,37,39,41,43,45,47,49,51,53,55,-1,57,59,-1,-1,-1,-1,-1,-1,-1,-1,-1,-1,-1,-1,-1,-1,-1,-1,-1,-1,-1,-1,-1,-1,-1,-1,-1,-1,-1,-1,-1,-1],"loss_changes":[3.4887634E2,8.404982E1,1.1895032E2,4.7225E1,3.7596054E1,5.311609E1,5.601023E1,4.132442E1,2.4398613E1,2.4312561E1,2.566357E1,3.330374E1,9.393555E0,1.1943558E1,3.7824707E1,5.4073517E1,4.7716766E1,1.5118317E1,1.4465166E1,1.8328674E1,3.8728073E1,2.537328E1,3.9334335E0,2.1826385E1,6.0778656E0,1.1292896E1,1.0151727E1,1.0229141E1,0E0,5.3780178E1,4.8237076E0,0E0,0E0,0E0,0E0,0E0,0E0,0E0,0E0,0E0,0E0,0E0,0E0,0E0,0E0,0E0,0E0,0E0,0E0,0E0,0E0,0E0,0E0,0E0,0E0,0E0,0E0,0E0,0E0,0E0,0E0],"parents":[2147483647,0,0,1,1,2,2,3,3,4,4,5,5,6,6,7,7,8,8,9,9,10,10,11,11,12,12,13,13,14,14,15,15,16,16,17,17,18,18,19,19,20,20,21,21,22,22,23,23,24,24,25,25,26,26,27,27,29,29,30,30],"right_children":[2,4,6,8,10,12,14,16,18,20,22,24,26,28,30,32,34,36,38,40,42,44,46,48,50,52,54,56,-1,58,60,-1,-1,-1,-1,-1,-1,-1,-1,-1,-1,-1,-1,-1,-1,-1,-1,-1,-1,-1,-1,-1,-1,-1,-1,-1,-1,-1,-1,-1,-1],"split_conditions":[2.3486836E0,3.7357144E-2,4.257143E-2,5.8381504E1,2.0207834E0,4.6245832E0,-2.7977157E-2,1.0112486E0,2.1321666E0,1.151259E8,1.6752762E8,4.3302E0,6.0559795E1,5.017857E1,7.80085E0,2.4571428E-2,1.4259003E8,7.0637274E8,9.661017E1,8.485714E-2,8.811732E8,-2.5831494E-2,2.7748E0,3.8642857E-2,3.3397682E1,4.4117645E1,6.0209E0,7.9932E0,-6.575102E-2,7.6364E0,4.277828E7,-2.2050976E-3,4.1621737E-2,-6.3044727E-3,-7.068254E-2,2.3425622E-2,7.0745826E-2,-8.401277E-2,6.0960125E-2,5.1499315E-2,1.7005285E-3,-2.6819876E-3,6.201457E-2,6.985175E-2,5.619364E-3,8.679696E-2,1.9271228E-4,-3.3245426E-2,-6.702737E-2,1.2867724E-2,-9.169875E-2,-3.037203E-2,7.376905E-2,-2.3507586E-2,6.675213E-2,3.7125442E-2,-4.2374615E-2,-1.1586265E-2,6.3285165E-2,1.1953297E-2,-8.212867E-2],"split_indices":[11,5,5,4,2,2,9,11,2,6,6,0,4,4,2,5,6,6,3,5,6,9,0,5,4,3,1,1,0,1,6,0,0,0,0,0,0,0,0,0,0,0,0,0,0,0,0,0,0,0,0,0,0,0,0,0,0,0,0,0,0],"split_type":[0,0,0,0,0,0,0,0,0,0,0,0,0,0,0,0,0,0,0,0,0,0,0,0,0,0,0,0,0,0,0,0,0,0,0,0,0,0,0,0,0,0,0,0,0,0,0,0,0,0,0,0,0,0,0,0,0,0,0,0,0],"sum_hessian":[3.1039873E3,1.5491481E3,1.5548392E3,9.292066E2,6.199414E2,4.2125128E2,1.1335879E3,6.328437E2,2.963629E2,3.9177994E2,2.2816147E2,3.9188724E2,2.9364061E1,8.761441E1,1.0459735E3,3.112746E2,3.215691E2,2.879607E2,8.40223E0,2.901111E2,1.0166884E2,2.1416525E2,1.399621E1,3.5382486E2,3.8062363E1,1.4071621E1,1.5292439E1,8.5371925E1,2.2424805E0,1.0251573E3,2.0816187E1,2.0524121E2,1.06033394E2,2.9058594E2,3.0983149E1,2.70607E2,1.7353697E1,6.987574E0,1.414656E0,2.7020853E2,1.9902592E1,6.755394E1,3.41149E1,1.5690762E1,1.9847449E2,1.2539616E1,1.4565941E0,2.959416E2,5.7883274E1,1.2037432E0,3.6858616E1,2.6979415E0,1.1373679E1,1.2215223E1,3.0772169E0,8.192422E1,3.4477124E0,1.0015671E3,2.3590286E1,1.2058904E0,1.9610296E1],"tree_param":{"num_deleted":"0","num_feature":"12","num_nodes":"61","size_leaf_vector":"1"}},{"base_weights":[-3.3631586E-3,2.9211655E-1,-2.805813E-1,1.5028065E-1,7.665055E-1,-7.7596503E-1,-1.02145396E-1,7.0378053E-1,5.5327598E-2,8.841806E-1,1.583241E-1,-8.7258977E-1,3.8951382E-1,9.504691E-2,-3.1701115E-1,1.4159322E0,4.8240215E-1,1.0293316E0,6.3042E-3,6.8904525E-1,1.3291657E0,8.9751136E-1,-3.8199922E-1,-9.048213E-2,-9.7885936E-1,-7.5430945E-2,7.227788E-1,-2.03749E-1,3.607346E-1,-5.0496036E-1,1.4021038E-2,-2.4969062E-2,7.717438E-2,4.281307E-2,1.0614819E-2,7.075471E-2,2.9858032E-2,-4.770586E-3,2.5945652E-2,3.7894078E-2,-7.9443544E-2,7.195171E-2,-7.36473E-2,5.5206884E-3,6.391465E-2,4.7792923E-2,-3.12426E-2,-6.148007E-2,1.40226055E-2,1.3275278E-2,-5.1494967E-2,5.7422042E-2,-3.925552E-2,4.314802E-3,-3.4950044E-2,2.1758754E-2,-5.2622773E-2,-2.8726334E-2,2.6119983E-2,3.424197E-2,-1.0735913E-2],"categories":[],"categories_nodes":[],"categories_segments":[],"categories_sizes":[],"default_left":[0,0,0,0,0,0,0,0,0,0,0,0,0,0,0,0,0,0,0,0,0,0,0,0,0,0,0,0,0,0,0,0,0,0,0,0,0,0,0,0,0,0,0,0,0,0,0,0,0,0,0,0,0,0,0,0,0,0,0,0,0],"id":2,"left_children":[1,3,5,7,9,11,13,15,17,19,21,23,25,27,29,31,33,35,37,39,41,43,45,47,49,-1,51,53,55,57,59,-1,-1,-1,-1,-1,-1,-1,-1,-1,-1,-1,-1,-1,-1,-1,-1,-1,-1,-1,-1,-1,-1,-1,-1,-1,-1,-1,-1,-1,-1],"loss_changes":[2.5178897E2,1.0000135E2,1.4010907E2,6.022789E1,2.4352936E1,4.7618256E1,4.9480755E1,2.5775696E1,4.6781708E1,2.3964478E1,2.2989113E1,3.215921E1,2.1859705E1,4.844819E1,3.4771606E1,1.0367699E1,1.289987E1,6.982174E0,4.8745003E1,3.276275E1,2.86792E1,7.124674E0,1.1467875E1,2.0421532E1,2.1961609E1,0E0,1.9261862E1,4.1350838E1,3.4427612E1,2.5774216E1,3.1346228E1,0E0,0E0,0E0,0E0,0E0,0E0,0E0,0E0,0E0,0E0,0E0,0E0,0E0,0E0,0E0,0E0,0E0,0E0,0E0,0E0,0E0,0E0,0E0,0E0,0E0,0E0,0E0,0E0,0E0,0E0],"parents":[2147483647,0,0,1,1,2,2,3,3,4,4,5,5,6,6,7,7,8,8,9,9,10,10,11,11,12,12,13,13,14,14,15,15,16,16,17,17,18,18,19,19,20,20,21,21,22,22,23,23,24,24,26,26,27,27,28,28,29,29,30,30],"right_children":[2,4,6,8,10,12,14,16,18,20,22,24,26,28,30,32,34,36,38,40,42,44,46,48,50,-1,52,54,56,58,60,-1,-1,-1,-1,-1,-1,-1,-1,-1,-1,-1,-1,-1,-1,-1,-1,-1,-1,-1,-1,-1,-1,-1,-1,-1,-1,-1,-1,-1,-1],"split_conditions":[2.4518E0,2.3415769E-2,4.2857144E-2,-3.7516415E-2,7.514286E-2,4.6245832E0,5.15625E1,1.0941E0,7.0101666E-1,5.5928573E-2,-1.0832225E-2,2.109375E1,4.94382E1,7.314286E-2,4.4324808E-2,2.2714285E-2,2.6943005E1,1.248004E-3,7.871648E-3,2.3244834E0,8.8729024E-2,3.125E1,3.222222E1,2.747E0,-3.4545336E-2,-7.5430945E-2,1.2467726E-2,3.903E0,7.80085E0,3.833684E-2,6.528571E-2,-2.4969062E-2,7.717438E-2,4.281307E-2,1.0614819E-2,7.075471E-2,2.9858032E-2,-4.770586E-3,2.5945652E-2,3.7894078E-2,-7.9443544E-2,7.195171E-2,-7.36473E-2,5.5206884E-3,6.391465E-2,4.7792923E-2,-3.12426E-2,-6.148007E-2,1.40226055E-2,1.3275278E-2,-5.1494967E-2,5.7422042E-2,-3.925552E-2,4.314802E-3,-3.4950044E-2,2.1758754E-2,-5.2622773E-2,-2.8726334E-2,2.6119983E-2,3.424197E-2,-1.0735913E-2],"split_indices":[1,7,5,7,5,2,3,1,2,5,9,3,3,5,8,5,3,9,9,2,8,3,3,0,8,0,9,0,2,9,5,0,0,0,0,0,0,0,0,0,0,0,0,0,0,0,0,0,0,0,0,0,0,0,0,0,0,0,0,0,0],"split_type":[0,0,0,0,0,0,0,0,0,0,0,0,0,0,0,0,0,0,0,0,0,0,0,0,0,0,0,0,0,0,0,0,0,0,0,0,0,0,0,0,0,0,0,0,0,0,0,0,0,0,0,0,0,0,0,0,0,0,0,0,0],"sum_hessian":[3.0718828E3,1.486939E3,1.584944E3,1.1457053E3,3.4123367E2,4.1882626E2,1.1661177E3,1.668269E2,9.788784E2,2.85533E2,5.5700695E1,3.8699362E2,3.1832638E1,6.083574E2,5.577603E2,3.8281914E1,1.2854498E2,4.594954E1,9.3292883E2,2.0026225E2,8.527074E1,2.3242634E1,3.245806E1,4.651447E1,3.4047916E2,4.227552E0,2.7605087E1,2.8644766E2,3.2190973E2,3.5543216E2,2.0232814E2,2.2082865E0,3.6073627E1,5.30069E1,7.5538086E1,2.3076609E1,2.287293E1,7.7913965E2,1.537892E2,1.9503577E2,5.226486E0,8.252158E1,2.749152E0,7.9987392E0,1.5243895E1,4.535634E0,2.7922426E1,1.0857326E1,3.5657146E1,1.3249597E1,3.2722955E2,2.171386E1,5.8912277E0,1.8117058E2,1.0527709E2,3.0645892E2,1.5450803E1,3.333037E2,2.2128452E1,5.094092E1,1.5138722E2],"tree_param":{"num_deleted":"0","num_feature":"12","num_nodes":"61","size_leaf_vector":"1"}},{"base_weights":[-3.7328422E-3,2.928835E-1,-2.921261E-1,1.4030635E-1,7.5463945E-1,-6.9958025E-1,-1.328256E-1,6.163045E-1,3.4875467E-2,8.8207567E-1,1.0218634E-1,-7.92137E-1,5.958814E-1,-2.5168777E-1,2.1957827E-1,1.5028117E0,4.5016384E-1,-1.9149478E-1,2.5034967E-1,5.444625E-1,1.0340972E0,-8.3786994E-1,5.4219776E-1,-4.50384E-1,-1.0198617E0,-8.017278E-1,8.22023E-1,-5.4884065E-2,-4.3848118E-1,6.900005E-1,6.27042E-2,8.035492E-2,-1.1460041E-2,6.510068E-2,1.6022792E-2,6.828164E-2,-1.2759096E-2,-3.1497452E-2,1.5381642E-2,3.2292247E-2,-8.1266604E-2,5.3040262E-2,-6.1446857E-2,1.5547777E-2,-6.8479E-2,5.5290934E-2,-5.0576883E-3,-3.524003E-2,2.8121382E-2,4.8561534E-3,-5.8439422E-2,1.5825732E-2,-6.387939E-2,5.6755092E-2,-1.4033662E-2,-1.177565E-2,1.5023196E-2,-3.28356E-2,5.164636E-3,-2.7340353E-3,4.563209E-2,-2.2440003E-3,5.132098E-2],"categories":[],"categories_nodes":[],"categories_segments":[],"categories_sizes":[],"default_left":[0,0,0,0,0,0,0,0,0,0,0,0,0,0,0,0,0,0,0,0,0,0,0,0,0,0,0,0,0,0,0,0,0,0,0,0,0,0,0,0,0,0,0,0,0,0,0,0,0,0,0,0,0,0,0,0,0,0,0,0,0,0,0],"id":3,"left_children":[1,3,5,7,9,11,13,15,17,19,21,23,25,27,29,31,33,35,37,39,41,43,45,47,49,51,53,55,57,59,61,-1,-1,-1,-1,-1,-1,-1,-1,-1,-1,-1,-1,-1,-1,-1,-1,-1,-1,-1,-1,-1,-1,-1,-1,-1,-1,-1,-1,-1,-1,-1,-1],"loss_changes":[2.6347504E2,1.0686984E2,1.012715E2,5.7315136E1,3.1246185E1,5.3075256E1,4.713508E1,2.9827896E1,4.572247E1,1.5612778E1,2.6395313E1,3.14404E1,1.0085521E1,3.089032E1,2.0916405E1,6.195526E0,1.9012794E1,4.5690384E1,2.4407347E1,2.3039925E1,1.437117E1,1.2879976E1,1.5822243E1,4.309277E1,4.090045E1,2.884108E0,9.351616E0,2.6428234E1,5.1061203E1,1.1809387E1,2.2243095E1,0E0,0E0,0E0,0E0,0E0,0E0,0E0,0E0,0E0,0E0,0E0,0E0,0E0,0E0,0E0,0E0,0E0,0E0,0E0,0E0,0E0,0E0,0E0,0E0,0E0,0E0,0E0,0E0,0E0,0E0,0E0,0E0],"parents":[2147483647,0,0,1,1,2,2,3,3,4,4,5,5,6,6,7,7,8,8,9,9,10,10,11,11,12,12,13,13,14,14,15,15,16,16,17,17,18,18,19,19,20,20,21,21,22,22,23,23,24,24,25,25,26,26,27,27,28,28,29,29,30,30],"right_children":[2,4,6,8,10,12,14,16,18,20,22,24,26,28,30,32,34,36,38,40,42,44,46,48,50,52,54,56,58,60,62,-1,-1,-1,-1,-1,-1,-1,-1,-1,-1,-1,-1,-1,-1,-1,-1,-1,-1,-1,-1,-1,-1,-1,-1,-1,-1,-1,-1,-1,-1,-1,-1],"split_conditions":[2.3486836E0,2.3415769E-2,4.257143E-2,-3.3861745E-2,2.0709E0,4.6245832E0,5.3932615E-2,1.1295099E0,2.8592293E-4,1.10575E0,2.1488378E0,3.25E0,4.94382E1,3.9118195E0,-1.691934E-2,1.4991833E0,-8.108029E-2,7.0101666E-1,-2.5938403E-2,1.3827692E0,2.3988E0,2.0842834E0,2.2946167E0,2.755159E0,2.109375E1,3.35E-2,1.2467726E-2,6.314286E-2,1.05142854E-1,2.0318726E1,7.965291E0,8.035492E-2,-1.1460041E-2,6.510068E-2,1.6022792E-2,6.828164E-2,-1.2759096E-2,-3.1497452E-2,1.5381642E-2,3.2292247E-2,-8.1266604E-2,5.3040262E-2,-6.1446857E-2,1.5547777E-2,-6.8479E-2,5.5290934E-2,-5.0576883E-3,-3.524003E-2,2.8121382E-2,4.8561534E-3,-5.8439422E-2,1.5825732E-2,-6.387939E-2,5.6755092E-2,-1.4033662E-2,-1.177565E-2,1.5023196E-2,-3.28356E-2,5.164636E-3,-2.7340353E-3,4.563209E-2,-2.2440003E-3,5.132098E-2],"split_indices":[11,7,5,7,2,2,8,10,9,2,11,0,3,11,9,2,8,2,7,10,0,2,2,11,3,5,9,5,5,3,10,0,0,0,0,0,0,0,0,0,0,0,0,0,0,0,0,0,0,0,0,0,0,0,0,0,0,0,0,0,0,0,0],"split_type":[0,0,0,0,0,0,0,0,0,0,0,0,0,0,0,0,0,0,0,0,0,0,0,0,0,0,0,0,0,0,0,0,0,0,0,0,0,0,0,0,0,0,0,0,0,0,0,0,0,0,0,0,0,0,0,0,0,0,0,0,0,0,0],"sum_hessian":[3.078061E3,1.5173896E3,1.5606713E3,1.1415073E3,3.7588226E2,4.377122E2,1.1229591E3,2.0611156E2,9.353958E2,3.1416757E2,6.171469E1,4.08887E2,2.8825207E1,8.399414E2,2.830177E2,3.126102E1,1.7485054E2,4.5621857E2,4.7917725E2,9.8965065E1,2.1520251E2,1.9388405E1,4.232629E1,1.6469786E2,2.4418913E2,3.6600394E0,2.5165169E1,4.0964127E2,4.303001E2,6.99271E1,2.1309058E2,2.9553675E1,1.7073455E0,2.1911304E1,1.5293924E2,1.7123055E1,4.3909552E2,2.8665358E1,4.505119E2,9.521839E1,3.7466767E0,2.132174E2,1.9851094E0,6.2657194E0,1.31226845E1,2.2177986E1,2.0148304E1,1.3187515E2,3.282271E1,2.8768276E1,2.1542085E2,1.1925282E0,2.4675112E0,1.9577354E1,5.587813E0,2.7181216E2,1.3782913E2,3.065908E2,1.23709335E2,1.6268229E1,5.3658875E1,1.9254886E2,2.0541729E1],"tree_param":{"num_deleted":"0","num_feature":"12","num_nodes":"63","size_leaf_vector":"1"}},{"base_weights":[1.734966E-2,3.088144E-1,-2.6381165E-1,1.3452199E-1,5.883024E-1,-7.160541E-1,-8.457077E-2,9.113433E-1,7.782786E-2,6.0977286E-1,-8.297623E-1,-8.1094414E-1,5.910242E-1,6.0932684E-1,-1.4471525E-1,6.829525E-1,1.6199485E0,-7.3868227E-1,1.3283616E-1,7.377693E-1,3.6459255E-1,4.3493137E-2,-1.3279784E0,-8.6122257E-1,6.067215E-1,8.323055E-2,3.5688147E-1,6.9493043E-1,-1.0012184E0,1.3194442E-1,-2.6223868E-1,1.675657E-2,6.55398E-2,8.944331E-2,2.1853426E-2,-6.2348347E-2,5.2565E-4,1.2897267E-2,-1.2147247E-2,3.9165214E-2,-5.1635387E-3,7.115762E-2,1.3763288E-2,-8.305664E-2,1.0768279E-2,-8.280113E-3,-4.823995E-2,6.29143E-2,-4.3472577E-2,-4.3872412E-2,3.1224443E-2,3.7895765E-2,-3.600235E-2,-7.148292E-2,8.959411E-3,8.514664E-2,4.604582E-3,-1.5306589E-2,3.554009E-2],"categories":[],"categories_nodes":[],"categories_segments":[],"categories_sizes":[],"default_left":[0,0,0,0,0,0,0,0,0,0,0,0,0,0,0,0,0,0,0,0,0,0,0,0,0,0,0,0,0,0,0,0,0,0,0,0,0,0,0,0,0,0,0,0,0,0,0,0,0,0,0,0,0,0,0,0,0,0,0],"id":4,"left_children":[1,3,5,7,9,11,13,15,17,19,21,23,25,27,29,31,33,35,37,39,41,-1,43,45,47,-1,49,51,53,55,57,-1,-1,-1,-1,-1,-1,-1,-1,-1,-1,-1,-1,-1,-1,-1,-1,-1,-1,-1,-1,-1,-1,-1,-1,-1,-1,-1,-1],"loss_changes":[2.5281238E2,7.3707E1,1.2722798E2,4.1073692E1,1.8210464E1,5.5743988E1,4.706884E1,9.162518E0,3.925393E1,1.7725494E1,8.857905E0,3.0162994E1,7.1323233E0,1.3101448E1,3.374289E1,1.0417112E1,2.162777E0,2.102482E1,3.850112E1,1.4470856E1,1.8391891E1,0E0,4.178179E0,2.8805267E1,1.5357538E1,0E0,9.30345E0,8.21299E0,2.7600846E0,1.9236765E1,3.1309052E1,0E0,0E0,0E0,0E0,0E0,0E0,0E0,0E0,0E0,0E0,0E0,0E0,0E0,0E0,0E0,0E0,0E0,0E0,0E0,0E0,0E0,0E0,0E0,0E0,0E0,0E0,0E0,0E0],"parents":[2147483647,0,0,1,1,2,2,3,3,4,4,5,5,6,6,7,7,8,8,9,9,10,10,11,11,12,12,13,13,14,14,15,15,16,16,17,17,18,18,19,19,20,20,22,22,23,23,24,24,26,26,27,27,28,28,29,29,30,30],"right_children":[2,4,6,8,10,12,14,16,18,20,22,24,26,28,30,32,34,36,38,40,42,-1,44,46,48,-1,50,52,54,56,58,-1,-1,-1,-1,-1,-1,-1,-1,-1,-1,-1,-1,-1,-1,-1,-1,-1,-1,-1,-1,-1,-1,-1,-1,-1,-1,-1,-1],"split_conditions":[2.3185883E0,3.785714E-2,4.342857E-2,7.0615E-1,3.4077384E-2,4.6245832E0,-2.7977157E-2,6.6078544E-1,1.4857143E-2,2.0474167E0,4.277828E7,3.500459E8,1.4175053E8,5.111111E1,3.585566E0,1.957143E-2,3.210557E8,9.95691E-1,1.4152666E0,8.6642854E-2,-2.4758676E-2,4.3493137E-2,2.1321666E0,2.109375E1,8.283636E-3,8.323055E-2,4.94382E1,7.9932E0,3.0661533E8,-1.6117858E8,3.3953923E8,1.675657E-2,6.55398E-2,8.944331E-2,2.1853426E-2,-6.2348347E-2,5.2565E-4,1.2897267E-2,-1.2147247E-2,3.9165214E-2,-5.1635387E-3,7.115762E-2,1.3763288E-2,-8.305664E-2,1.0768279E-2,-8.280113E-3,-4.823995E-2,6.29143E-2,-4.3472577E-2,-4.3872412E-2,3.1224443E-2,3.7895765E-2,-3.600235E-2,-7.148292E-2,8.959411E-3,8.514664E-2,4.604582E-3,-1.5306589E-2,3.554009E-2],"split_indices":[11,5,5,1,9,2,9,11,5,2,6,6,6,3,10,5,6,11,2,5,9,0,2,3,9,0,3,1,6,6,6,0,0,0,0,0,0,0,0,0,0,0,0,0,0,0,0,0,0,0,0,0,0,0,0,0,0,0,0],"split_type":[0,0,0,0,0,0,0,0,0,0,0,0,0,0,0,0,0,0,0,0,0,0,0,0,0,0,0,0,0,0,0,0,0,0,0,0,0,0,0,0,0,0,0,0,0,0,0,0,0,0,0,0,0,0,0,0,0,0,0],"sum_hessian":[3.083017E3,1.5137235E3,1.5692937E3,9.3323016E2,5.804934E2,4.4457986E2,1.1247137E3,6.245117E1,8.70779E2,5.723969E2,8.096508E0,4.1484305E2,2.9736816E1,8.898195E1,1.0357318E3,4.871396E1,1.3737211E1,5.4177162E1,8.166018E2,3.7474966E2,1.9764722E2,1.6662551E0,6.430253E0,4.0101337E2,1.3829693E1,4.2303786E0,2.5506437E1,8.503091E1,3.951043E0,3.0876096E2,7.269709E2,3.233459E1,1.6379368E1,1.1572358E1,2.1648536E0,3.188242E1,2.2294744E1,6.1287146E2,2.0373033E2,3.5556747E2,1.918221E1,1.4218624E1,1.8342859E2,5.225852E0,1.2044008E0,5.230839E1,3.4870496E2,9.697112E0,4.132581E0,4.138568E0,2.1367868E1,8.18518E1,3.1791027E0,2.7439446E0,1.2070984E0,6.6064243E0,3.0215454E2,6.96249E2,3.0721851E1],"tree_param":{"num_deleted":"0","num_feature":"12","num_nodes":"59","size_leaf_vector":"1"}},{"base_weights":[2.5500305E-2,2.771233E-1,-2.1641657E-1,1.6349821E-1,7.279352E-1,-4.0121973E-1,1.0794445E-1,6.45727E-1,7.67503E-2,1.4140782E0,6.609671E-1,-4.3407926E-1,4.330427E-1,7.6976246E-1,8.830683E-3,1.2904141E0,3.083686E-1,1.5417867E0,5.2699786E-2,8.1327535E-2,4.7420573E-1,-2.3509793E-3,7.708967E-1,-2.1324742E-1,-6.174426E-1,-1.2143793E-1,1.2502196E0,-5.2197176E-1,1.0927383E0,-1.4303051E-1,4.8148084E-1,2.166987E-2,6.901289E-2,2.1941116E-2,-5.0618112E-2,7.5874142E-3,8.199372E-2,-9.104113E-3,1.1991849E-2,6.315499E-2,-6.1115365E-2,4.703805E-2,-2.866066E-2,-7.778834E-3,4.442645E-2,6.626413E-2,-1.2289303E-2,-4.2046547E-2,-1.8616574E-2,6.2868744E-2,-3.7418243E-2,8.15081E-2,-2.8566135E-2,4.8537333E-2,-7.119536E-2,-4.8410445E-2,6.175486E-2,3.485998E-2,-1.1356107E-2,2.7437134E-2,-7.068201E-2],"categories":[],"categories_nodes":[],"categories_segments":[],"categories_sizes":[],"default_left":[0,0,0,0,0,0,0,0,0,0,0,0,0,0,0,0,0,0,0,0,0,0,0,0,0,0,0,0,0,0,0,0,0,0,0,0,0,0,0,0,0,0,0,0,0,0,0,0,0,0,0,0,0,0,0,0,0,0,0,0,0],"id":5,"left_children":[1,3,5,7,9,11,13,15,17,19,21,23,25,27,29,31,33,35,37,-1,39,41,43,45,47,49,51,53,55,57,59,-1,-1,-1,-1,-1,-1,-1,-1,-1,-1,-1,-1,-1,-1,-1,-1,-1,-1,-1,-1,-1,-1,-1,-1,-1,-1,-1,-1,-1,-1],"loss_changes":[1.8891399E2,7.780088E1,9.489172E1,5.0828625E1,1.3122879E1,2.7826675E1,3.7716667E1,3.9902397E1,3.627916E1,4.4860077E0,2.0463173E1,3.9166687E1,1.7690264E1,3.1816998E1,3.604346E1,4.2788544E0,2.1628956E1,2.018818E0,4.4696815E1,0E0,9.929669E0,2.255375E1,2.637236E1,2.2443003E1,2.8704132E1,2.1662245E1,1.1821568E1,2.2462574E1,1.8869514E1,2.7014364E1,1.6340271E1,0E0,0E0,0E0,0E0,0E0,0E0,0E0,0E0,0E0,0E0,0E0,0E0,0E0,0E0,0E0,0E0,0E0,0E0,0E0,0E0,0E0,0E0,0E0,0E0,0E0,0E0,0E0,0E0,0E0,0E0],"parents":[2147483647,0,0,1,1,2,2,3,3,4,4,5,5,6,6,7,7,8,8,9,9,10,10,11,11,12,12,13,13,14,14,15,15,16,16,17,17,18,18,20,20,21,21,22,22,23,23,24,24,25,25,26,26,27,27,28,28,29,29,30,30],"right_children":[2,4,6,8,10,12,14,16,18,20,22,24,26,28,30,32,34,36,38,-1,40,42,44,46,48,50,52,54,56,58,60,-1,-1,-1,-1,-1,-1,-1,-1,-1,-1,-1,-1,-1,-1,-1,-1,-1,-1,-1,-1,-1,-1,-1,-1,-1,-1,-1,-1,-1,-1],"split_conditions":[2.3185883E0,2.7940188E-2,7.314286E-2,-3.5177443E-2,1.116694E7,3.210557E8,3.4120114E0,1.34805E0,1.3714286E1,1.6692E0,5.351224E7,7.219553E7,4.06049E0,2.8318632E0,8.517462E-2,-8.488367E-3,2.1654742E0,8.871E-1,4.6902657E1,8.1327535E-2,5.017857E1,5.318352E1,1.2438977E0,-1.6117858E8,1.2334364E8,3.7142858E-2,5.6785714E-2,4.326711E1,-3.5660863E-2,2.4539877E1,7.80085E0,2.166987E-2,6.901289E-2,2.1941116E-2,-5.0618112E-2,7.5874142E-3,8.199372E-2,-9.104113E-3,1.1991849E-2,6.315499E-2,-6.1115365E-2,4.703805E-2,-2.866066E-2,-7.778834E-3,4.442645E-2,6.626413E-2,-1.2289303E-2,-4.2046547E-2,-1.8616574E-2,6.2868744E-2,-3.7418243E-2,8.15081E-2,-2.8566135E-2,4.8537333E-2,-7.119536E-2,-4.8410445E-2,6.175486E-2,3.485998E-2,-1.1356107E-2,2.7437134E-2,-7.068201E-2],"split_indices":[11,8,5,8,6,6,10,1,4,2,6,6,11,10,8,9,11,1,4,0,4,4,10,6,6,5,5,4,9,4,2,0,0,0,0,0,0,0,0,0,0,0,0,0,0,0,0,0,0,0,0,0,0,0,0,0,0,0,0,0,0],"split_type":[0,0,0,0,0,0,0,0,0,0,0,0,0,0,0,0,0,0,0,0,0,0,0,0,0,0,0,0,0,0,0,0,0,0,0,0,0,0,0,0,0,0,0,0,0,0,0,0,0,0,0,0,0,0,0,0,0,0,0,0,0],"sum_hessian":[3.101485E3,1.5201738E3,1.5813114E3,1.2152406E3,3.0493323E2,1.00721716E3,5.740942E2,1.8429684E2,1.0309437E3,2.532651E1,2.7960672E2,9.6951025E2,3.770691E1,7.389623E1,5.0019797E2,6.2340317E1,1.21956535E2,1.5631721E1,1.015312E3,2.0060844E1,5.2656655E0,3.9889717E1,2.39717E2,4.4080008E2,5.287102E2,2.2971443E1,1.4735465E1,1.4657555E1,5.9238678E1,3.7909363E2,1.2110434E2,6.467821E0,5.5872494E1,1.11601006E2,1.0355524E1,1.1982294E0,1.4433491E1,4.5034137E2,5.6497064E2,3.7686715E0,1.4969938E0,1.47965765E1,2.5093142E1,2.6970936E1,2.1274606E2,8.30664E0,4.3249344E2,2.752819E2,2.534283E2,6.8657794E0,1.6105663E1,1.2279283E1,2.4561825E0,5.4919653E0,9.165589E0,3.4526753E0,5.5786003E1,3.3825333E1,3.4526828E2,1.1763952E2,3.4648263E0],"tree_param":{"num_deleted":"0","num_feature":"12","num_nodes":"61","size_leaf_vector":"1"}},{"base_weights":[8.1058964E-4,2.5006294E-1,-2.4031198E-1,1.3126756E-1,7.2349805E-1,-3.592627E-1,2.0421453E-1,5.854767E-1,5.2845813E-2,8.523574E-1,3.2227236E-1,-6.1067903E-1,-2.2532094E-1,7.35606E-1,6.6686645E-2,9.6874136E-1,9.27484E-2,-1.2495865E-1,4.1567567E-1,8.9154625E-1,-7.1575016E-2,1.412491E0,1.0141129E-1,3.9704087E-1,-6.5218276E-1,-8.3351284E-2,-6.3505125E-1,-5.524509E-2,7.9371583E-1,-2.0054485E-1,3.6845797E-1,5.1740177E-2,-1.3177228E-2,1.3887524E-2,-5.764846E-2,-9.02317E-3,4.458048E-2,1.803477E-2,6.308078E-2,3.790894E-2,6.453733E-2,7.657704E-2,7.928534E-3,-8.3560124E-2,1.3238764E-2,3.3290785E-2,-5.753786E-2,-4.9399633E-2,-2.3873052E-2,2.274671E-2,-9.379121E-3,-3.473495E-2,5.892246E-2,4.260165E-2,-5.265367E-2,-4.3404337E-2,1.7244974E-2,4.396116E-2,-5.8338544E-3],"categories":[],"categories_nodes":[],"categories_segments":[],"categories_sizes":[],"default_left":[0,0,0,0,0,0,0,0,0,0,0,0,0,0,0,0,0,0,0,0,0,0,0,0,0,0,0,0,0,0,0,0,0,0,0,0,0,0,0,0,0,0,0,0,0,0,0,0,0,0,0,0,0,0,0,0,0,0,0],"id":6,"left_children":[1,3,5,7,9,11,13,15,17,19,21,23,25,27,29,31,33,35,37,39,-1,41,43,45,47,49,51,-1,53,55,57,-1,-1,-1,-1,-1,-1,-1,-1,-1,-1,-1,-1,-1,-1,-1,-1,-1,-1,-1,-1,-1,-1,-1,-1,-1,-1,-1,-1],"loss_changes":[1.8413336E2,8.463257E1,8.241731E1,4.290955E1,1.5337341E1,4.1245743E1,2.4022514E1,3.3410404E1,6.644365E1,2.1678268E1,1.7918865E1,1.8099152E1,4.667713E1,8.109066E0,2.1263693E1,8.387039E0,1.8462048E1,3.9174644E1,1.5297466E1,1.0985626E1,0E0,1.631958E0,1.8817503E1,8.044094E0,2.3587738E1,3.362395E1,2.3164131E1,0E0,8.019688E0,5.127558E1,3.0768581E1,0E0,0E0,0E0,0E0,0E0,0E0,0E0,0E0,0E0,0E0,0E0,0E0,0E0,0E0,0E0,0E0,0E0,0E0,0E0,0E0,0E0,0E0,0E0,0E0,0E0,0E0,0E0,0E0],"parents":[2147483647,0,0,1,1,2,2,3,3,4,4,5,5,6,6,7,7,8,8,9,9,10,10,11,11,12,12,13,13,14,14,15,15,16,16,17,17,18,18,19,19,21,21,22,22,23,23,24,24,25,25,26,26,28,28,29,29,30,30],"right_children":[2,4,6,8,10,12,14,16,18,20,22,24,26,28,30,32,34,36,38,40,-1,42,44,46,48,50,52,-1,54,56,58,-1,-1,-1,-1,-1,-1,-1,-1,-1,-1,-1,-1,-1,-1,-1,-1,-1,-1,-1,-1,-1,-1,-1,-1,-1,-1,-1,-1],"split_conditions":[2.3185883E0,2.8533941E-2,4.8467666E-2,-3.5177443E-2,7.514286E-2,4.342857E-2,4.894309E1,1.5914351E0,5.8381504E1,2.223784E0,2.9229182E7,-3.9654583E-2,6.511628E1,2.6558292E0,6.160937E0,8.435714E-2,2.1654742E0,2.1993742E0,7.0637274E8,1.9116E0,-7.1575016E-2,2.5310245E0,1.4091812E0,8.504927E7,-3.4142437E-3,2.7080238E0,3.2942902E8,-5.524509E-2,7.6682E0,1.2868282E8,7.0498E0,5.1740177E-2,-1.3177228E-2,1.3887524E-2,-5.764846E-2,-9.02317E-3,4.458048E-2,1.803477E-2,6.308078E-2,3.790894E-2,6.453733E-2,7.657704E-2,7.928534E-3,-8.3560124E-2,1.3238764E-2,3.3290785E-2,-5.753786E-2,-4.9399633E-2,-2.3873052E-2,2.274671E-2,-9.379121E-3,-3.473495E-2,5.892246E-2,4.260165E-2,-5.265367E-2,-4.3404337E-2,1.7244974E-2,4.396116E-2,-5.8338544E-3],"split_indices":[11,8,8,8,5,5,4,11,4,11,6,8,3,11,10,5,11,11,6,0,0,10,11,6,8,11,6,0,0,6,0,0,0,0,0,0,0,0,0,0,0,0,0,0,0,0,0,0,0,0,0,0,0,0,0,0,0,0,0],"split_type":[0,0,0,0,0,0,0,0,0,0,0,0,0,0,0,0,0,0,0,0,0,0,0,0,0,0,0,0,0,0,0,0,0,0,0,0,0,0,0,0,0,0,0,0,0,0,0,0,0,0,0,0,0,0,0,0,0,0,0],"sum_hessian":[3.0617646E3,1.505484E3,1.5562806E3,1.2045204E3,3.0096362E2,1.2278992E3,3.283814E2,1.7639522E2,1.0281251E3,2.2695078E2,7.401285E1,4.2555292E2,8.023463E2,6.662017E1,2.6176123E2,9.867534E1,7.771989E1,6.904341E2,3.3769104E2,2.2372156E2,3.2292233E0,1.155912E1,6.245373E1,1.6494574E1,4.0905835E2,5.9677124E2,2.0557503E2,1.487658E0,6.513251E1,1.390033E2,1.2275795E2,9.380667E1,4.8686676E0,6.834672E1,9.373165E0,6.554679E2,3.496616E1,3.1842218E2,1.926887E1,1.6986964E2,5.3851906E1,1.0354628E1,1.2044921E0,4.4911947E0,5.7962536E1,1.4539604E1,1.9549687E0,1.3840103E2,2.7065732E2,9.626433E1,5.0050693E2,1.9962607E2,5.948962E0,6.3660892E1,1.4716167E0,6.2239708E1,7.676358E1,5.9403637E1,6.3354317E1],"tree_param":{"num_deleted":"0","num_feature":"12","num_nodes":"59","size_leaf_vector":"1"}},{"base_weights":[-1.0428566E-2,2.208615E-1,-2.2726163E-1,1.3262162E-1,6.6774136E-1,-6.33552E-1,-7.582321E-2,1.3654202E0,1.0699643E-1,8.324319E-1,1.9749868E-1,-7.4436873E-1,5.986106E-1,5.563597E-1,-1.3948742E-1,-6.1945733E-2,1.5828228E0,-9.423778E-2,2.6956338E-1,8.690678E-1,-7.196381E-2,-8.090337E-2,3.6820182E-1,1.3469646E0,-7.7435833E-1,9.645026E-1,-1.74372E-1,6.2211084E-1,-7.007456E-2,-2.4128807E-1,1.3068259E-1,2.2101548E-2,8.38651E-2,6.7037046E-2,-7.391969E-3,-1.442775E-2,1.6879251E-2,-3.696448E-2,4.6043117E-2,3.0102748E-2,-4.438232E-2,4.4533364E-3,8.655347E-2,-3.3348665E-2,-6.1867196E-2,-2.5893733E-2,6.872889E-2,5.3111345E-2,-3.7295714E-2,1.9075623E-2,5.7677086E-2,-9.267627E-3,-4.165311E-2,1.2274128E-2,-1.724678E-2],"categories":[],"categories_nodes":[],"categories_segments":[],"categories_sizes":[],"default_left":[0,0,0,0,0,0,0,0,0,0,0,0,0,0,0,0,0,0,0,0,0,0,0,0,0,0,0,0,0,0,0,0,0,0,0,0,0,0,0,0,0,0,0,0,0,0,0,0,0,0,0,0,0,0,0],"id":7,"left_children":[1,3,5,7,9,11,13,15,17,19,21,23,25,27,29,-1,31,33,35,37,-1,-1,39,41,43,45,47,49,-1,51,53,-1,-1,-1,-1,-1,-1,-1,-1,-1,-1,-1,-1,-1,-1,-1,-1,-1,-1,-1,-1,-1,-1,-1,-1],"loss_changes":[1.5358398E2,5.8343887E1,9.7201866E1,3.8986168E1,1.8739967E1,5.9027756E1,4.646461E1,1.6194466E1,3.975949E1,1.6271072E1,2.062511E1,2.5758896E1,1.0337629E1,1.4472141E1,2.8852352E1,0E0,1.8066597E0,4.2001762E1,2.5613121E1,1.5528442E1,0E0,0E0,1.8122366E1,2.7139807E0,1.8521973E1,1.5640049E1,9.555376E0,1.2717953E1,0E0,2.505085E1,1.5778976E1,0E0,0E0,0E0,0E0,0E0,0E0,0E0,0E0,0E0,0E0,0E0,0E0,0E0,0E0,0E0,0E0,0E0,0E0,0E0,0E0,0E0,0E0,0E0,0E0],"parents":[2147483647,0,0,1,1,2,2,3,3,4,4,5,5,6,6,7,7,8,8,9,9,10,10,11,11,12,12,13,13,14,14,16,16,17,17,18,18,19,19,22,22,23,23,24,24,25,25,26,26,27,27,29,29,30,30],"right_children":[2,4,6,8,10,12,14,16,18,20,22,24,26,28,30,-1,32,34,36,38,-1,-1,40,42,44,46,48,50,-1,52,54,-1,-1,-1,-1,-1,-1,-1,-1,-1,-1,-1,-1,-1,-1,-1,-1,-1,-1,-1,-1,-1,-1,-1,-1],"split_conditions":[2.4518E0,3.227842E-2,4.342857E-2,1.3714286E1,7.514286E-2,4.6245832E0,-2.6866255E-2,-1.4066806E-1,-4.067882E-4,8.8729024E-2,1.651E0,-1.8989641E-2,8.283636E-3,5.017857E1,4.8467666E-2,-6.1945733E-2,2.2714285E-2,7.0615E-1,1.7E-2,3.35E-2,-7.196381E-2,-8.090337E-2,2.3988E0,3.653E0,3.8642857E-2,4.94382E1,7.345177E-3,7.14117E-2,-7.007456E-2,6.9884E0,1.14214286E-1,2.2101548E-2,8.38651E-2,6.7037046E-2,-7.391969E-3,-1.442775E-2,1.6879251E-2,-3.696448E-2,4.6043117E-2,3.0102748E-2,-4.438232E-2,4.4533364E-3,8.655347E-2,-3.3348665E-2,-6.1867196E-2,-2.5893733E-2,6.872889E-2,5.3111345E-2,-3.7295714E-2,1.9075623E-2,5.7677086E-2,-9.267627E-3,-4.165311E-2,1.2274128E-2,-1.724678E-2],"split_indices":[1,8,5,4,5,2,9,8,9,8,1,9,9,4,8,0,5,1,5,5,0,0,0,0,5,3,8,8,0,0,5,0,0,0,0,0,0,0,0,0,0,0,0,0,0,0,0,0,0,0,0,0,0,0,0],"split_type":[0,0,0,0,0,0,0,0,0,0,0,0,0,0,0,0,0,0,0,0,0,0,0,0,0,0,0,0,0,0,0,0,0,0,0,0,0,0,0,0,0,0,0,0,0,0,0,0,0,0,0,0,0,0,0],"sum_hessian":[3.06041E3,1.4808297E3,1.5795802E3,1.2377277E3,2.431021E2,4.2803427E2,1.151546E3,2.413909E1,1.2135885E3,1.7947525E2,6.3626846E1,3.9307797E2,3.4956287E1,1.046488E2,1.0468972E3,1.4977971E0,2.2641293E1,5.4248785E2,6.7110065E2,1.7723442E2,2.240825E0,4.7395077E0,5.8887337E1,4.936199E0,3.8814178E2,2.3557537E1,1.1398749E1,1.0190862E2,2.7401805E0,7.604608E2,2.864364E2,2.1660328E0,2.047526E1,1.8669521E1,5.2381836E2,7.255379E1,5.985469E2,5.1153626E0,1.7211906E2,5.008209E1,8.805251E0,1.4428653E0,3.493334E0,3.170465E2,7.1095276E1,5.047716E0,1.850982E1,3.3316991E0,8.06705E0,7.133192E1,3.0576702E1,6.9598804E2,6.447276E1,2.3113194E2,5.5304455E1],"tree_param":{"num_deleted":"0","num_feature":"12","num_nodes":"55","size_leaf_vector":"1"}},{"base_weights":[4.528129E-3,2.3399037E-1,-2.1466863E-1,1.13076694E-1,6.2793916E-1,-8.1235087E-1,-1.4937599E-1,5.808693E-1,3.3416387E-2,6.7261165E-1,-4.9136373E-1,-7.928143E-2,-6.939261E-1,3.3353135E-1,-2.1065977E-1,6.5553874E-1,-7.5517756E-1,-4.445477E-2,5.1750726E-1,1.0976651E0,5.762246E-1,6.1186624E-1,-1.3720579E0,8.33171E-1,-8.478659E-1,1.1222297E0,2.3984025E-1,-2.7068642E-1,1.22252524E-1,4.99282E-2,2.1302974E-2,4.780626E-2,-7.835584E-2,3.6493793E-2,-4.3766643E-3,-4.6008218E-2,3.092644E-2,6.077818E-2,4.205489E-3,3.1386737E-2,-3.8141176E-2,5.865792E-2,-5.4659564E-2,-2.4376276E-3,-8.255532E-2,8.611496E-2,-2.3880389E-2,-4.519276E-2,3.6405377E-2,7.1237735E-2,-5.8595505E-2,1.5034092E-2,-5.376136E-2,-3.0950995E-3,-1.928529E-2,7.2456054E-2,1.6488325E-3],"categories":[],"categories_nodes":[],"categories_segments":[],"categories_sizes":[],"default_left":[0,0,0,0,0,0,0,0,0,0,0,0,0,0,0,0,0,0,0,0,0,0,0,0,0,0,0,0,0,0,0,0,0,0,0,0,0,0,0,0,0,0,0,0,0,0,0,0,0,0,0,0,0,0,0,0,0],"id":8,"left_children":[1,3,5,7,9,11,13,15,17,19,21,-1,23,25,27,29,31,33,35,37,39,41,43,45,47,49,51,53,55,-1,-1,-1,-1,-1,-1,-1,-1,-1,-1,-1,-1,-1,-1,-1,-1,-1,-1,-1,-1,-1,-1,-1,-1,-1,-1,-1,-1],"loss_changes":[1.5448434E2,7.140649E1,6.118022E1,4.281167E1,1.7940338E1,1.3046181E1,4.2016705E1,1.7173847E1,3.708619E1,1.3259796E1,1.4533699E1,0E0,3.261673E1,1.1554207E1,2.517994E1,1.2080528E1,1.4439738E1,2.834642E1,2.0367748E1,7.2557144E0,1.9689178E1,7.9322414E0,2.9275732E0,1.5897479E1,1.1582535E1,1.3272057E1,1.1867826E1,2.5586159E1,2.280526E1,0E0,0E0,0E0,0E0,0E0,0E0,0E0,0E0,0E0,0E0,0E0,0E0,0E0,0E0,0E0,0E0,0E0,0E0,0E0,0E0,0E0,0E0,0E0,0E0,0E0,0E0,0E0,0E0],"parents":[2147483647,0,0,1,1,2,2,3,3,4,4,5,5,6,6,7,7,8,8,9,9,10,10,12,12,13,13,14,14,15,15,16,16,17,17,18,18,19,19,20,20,21,21,22,22,23,23,24,24,25,25,26,26,27,27,28,28],"right_children":[2,4,6,8,10,12,14,16,18,20,22,-1,24,26,28,30,32,34,36,38,40,42,44,46,48,50,52,54,56,-1,-1,-1,-1,-1,-1,-1,-1,-1,-1,-1,-1,-1,-1,-1,-1,-1,-1,-1,-1,-1,-1,-1,-1,-1,-1,-1,-1],"split_conditions":[2.4518E0,2.3415769E-2,2.9785715E-2,-3.8532495E-2,1.1621911E-1,2.565E0,-2.1089477E-2,2.2628E0,8.654236E-3,5.318352E1,5.882353E1,-7.928143E-2,2.711E0,1.7821783E1,6.823066E-2,2.6666666E1,2.4598668E0,7.0101666E-1,-2.4933139E-2,2.0842834E0,8.571429E-2,1.9354167E0,2.4045403E0,2.5857143E-2,4.6245832E0,2.2222221E1,7.8171E0,3.585566E0,5.2214287E-2,4.99282E-2,2.1302974E-2,4.780626E-2,-7.835584E-2,3.6493793E-2,-4.3766643E-3,-4.6008218E-2,3.092644E-2,6.077818E-2,4.205489E-3,3.1386737E-2,-3.8141176E-2,5.865792E-2,-5.4659564E-2,-2.4376276E-3,-8.255532E-2,8.611496E-2,-2.3880389E-2,-4.519276E-2,3.6405377E-2,7.1237735E-2,-5.8595505E-2,1.5034092E-2,-5.376136E-2,-3.0950995E-3,-1.928529E-2,7.2456054E-2,1.6488325E-3],"split_indices":[1,7,5,7,7,0,9,0,9,4,3,0,0,4,7,3,2,2,7,2,5,2,10,5,2,3,1,10,5,0,0,0,0,0,0,0,0,0,0,0,0,0,0,0,0,0,0,0,0,0,0,0,0,0,0,0,0],"split_type":[0,0,0,0,0,0,0,0,0,0,0,0,0,0,0,0,0,0,0,0,0,0,0,0,0,0,0,0,0,0,0,0,0,0,0,0,0,0,0,0,0,0,0,0,0,0,0,0,0,0,0,0,0,0,0,0,0],"sum_hessian":[3.0694204E3,1.4995625E3,1.5698579E3,1.1483801E3,3.511823E2,1.534796E2,1.4163783E3,1.6618617E2,9.82194E2,3.3808795E2,1.3094349E1,1.873785E1,1.3474176E2,1.590044E2,1.2573739E3,1.578723E2,8.31387E0,8.468736E2,1.3532043E2,6.0574547E1,2.7751343E2,5.948284E0,7.1460643E0,1.1934828E1,1.2280692E2,1.5717274E1,1.4328712E2,1.0654517E3,1.9192215E2,6.193721E1,9.593509E1,2.6181283E0,5.695742E0,4.379112E1,8.0308246E2,8.351975E0,1.2696845E2,5.4084087E1,6.4904594E0,2.677451E2,9.768332E0,4.709805E0,1.2384789E0,1.4490547E0,5.6970096E0,6.924111E0,5.010717E0,1.19005516E2,3.8014073E0,1.4220937E1,1.4963365E0,1.3768834E2,5.5987935E0,3.790089E2,6.864428E2,1.1138815E1,1.8078333E2],"tree_param":{"num_deleted":"0","num_feature":"12","num_nodes":"57","size_leaf_vector":"1"}},{"base_weights":[-1.3746237E-2,1.7769189E-1,-1.9413587E-1,7.09063E-2,6.2140423E-1,2.7671933E-1,-2.663594E-1,8.1433076E-1,3.163031E-2,6.444682E-1,-6.598764E-2,3.247476E-1,-1.0962929E0,-3.654877E-1,5.2716073E-2,5.9344137E-1,1.5567853E0,4.2467752E-1,-4.940459E-2,6.830939E-1,-5.425296E-1,3.975446E-1,-5.6858945E-1,-3.8020972E-3,-6.9521986E-2,-1.0632214E-1,-5.865887E-1,-2.2934315E-1,4.1457483E-1,4.6814594E-2,-7.842583E-3,8.4134676E-2,8.771719E-3,5.2244928E-2,7.6915966E-3,-1.3254747E-2,6.1994684E-3,6.7070276E-2,3.0825177E-2,5.668326E-2,-8.128737E-2,1.3382641E-2,4.06171E-2,1.7223809E-3,-8.0836765E-2,-1.5292083E-3,-5.7965685E-2,-8.236784E-4,-4.1675333E-2,-5.481572E-2,3.0290026E-3,3.7449107E-2,4.156535E-3],"categories":[],"categories_nodes":[],"categories_segments":[],"categories_sizes":[],"default_left":[0,0,0,0,0,0,0,0,0,0,0,0,0,0,0,0,0,0,0,0,0,0,0,0,0,0,0,0,0,0,0,0,0,0,0,0,0,0,0,0,0,0,0,0,0,0,0,0,0,0,0,0,0],"id":9,"left_children":[1,3,5,7,9,11,13,15,17,19,-1,21,23,25,27,29,31,33,35,37,39,41,43,-1,-1,45,47,49,51,-1,-1,-1,-1,-1,-1,-1,-1,-1,-1,-1,-1,-1,-1,-1,-1,-1,-1,-1,-1,-1,-1,-1,-1],"loss_changes":[1.04885254E2,6.9774254E1,5.3249863E1,3.4686073E1,1.3641708E1,1.4101529E1,4.291655E1,8.852913E0,3.601842E1,1.3346718E1,0E0,1.3373657E1,2.077077E0,5.9239014E1,3.2995907E1,1.2381409E1,1.9750595E0,3.2308773E1,3.5110126E1,1.1208298E1,1.9049921E1,9.88624E0,9.944307E0,0E0,0E0,3.8058475E1,7.857042E1,4.5760975E1,1.5627539E1,0E0,0E0,0E0,0E0,0E0,0E0,0E0,0E0,0E0,0E0,0E0,0E0,0E0,0E0,0E0,0E0,0E0,0E0,0E0,0E0,0E0,0E0,0E0,0E0],"parents":[2147483647,0,0,1,1,2,2,3,3,4,4,5,5,6,6,7,7,8,8,9,9,11,11,12,12,13,13,14,14,15,15,16,16,17,17,18,18,19,19,20,20,21,21,22,22,25,25,26,26,27,27,28,28],"right_children":[2,4,6,8,10,12,14,16,18,20,-1,22,24,26,28,30,32,34,36,38,40,42,44,-1,-1,46,48,50,52,-1,-1,-1,-1,-1,-1,-1,-1,-1,-1,-1,-1,-1,-1,-1,-1,-1,-1,-1,-1,-1,-1,-1,-1],"split_conditions":[2.4518E0,2.8533941E-2,-1.7542837E-2,7.0615E-1,3.833684E-2,7.9932E0,4.123545E-2,6.6078544E-1,-3.3861745E-2,2.232105E0,-6.598764E-2,5.2604168E1,1.779661E1,6.764467E7,1.207958E8,6.362108E-1,3.210557E8,1.32135E0,-1.605027E-5,8.0069955E6,3.410242E-2,6.74325E0,7.0498E0,-3.8020972E-3,-6.9521986E-2,6.9884E0,3.25495E0,3.98165E0,7.724217E-2,4.6814594E-2,-7.842583E-3,8.4134676E-2,8.771719E-3,5.2244928E-2,7.6915966E-3,-1.3254747E-2,6.1994684E-3,6.7070276E-2,3.0825177E-2,5.668326E-2,-8.128737E-2,1.3382641E-2,4.06171E-2,1.7223809E-3,-8.0836765E-2,-1.5292083E-3,-5.7965685E-2,-8.236784E-4,-4.1675333E-2,-5.481572E-2,3.0290026E-3,3.7449107E-2,4.156535E-3],"split_indices":[1,8,9,1,9,1,8,11,7,11,0,3,3,6,6,11,6,1,9,6,7,1,0,0,0,0,1,1,7,0,0,0,0,0,0,0,0,0,0,0,0,0,0,0,0,0,0,0,0,0,0,0,0],"split_type":[0,0,0,0,0,0,0,0,0,0,0,0,0,0,0,0,0,0,0,0,0,0,0,0,0,0,0,0,0,0,0,0,0,0,0,0,0,0,0,0,0,0,0,0,0,0,0,0,0,0,0,0,0],"sum_hessian":[3.035208E3,1.4725171E3,1.5626908E3,1.1878131E3,2.8470404E2,2.074442E2,1.3552466E3,5.861435E1,1.1291987E3,2.820212E2,2.6828487E0,2.0117068E2,6.2735133E0,1.0338967E3,3.2134985E2,4.6561134E1,1.2053214E1,1.9228918E2,9.3690955E2,2.735444E2,8.476797E0,1.865259E2,1.4644792E1,1.6855807E0,4.5879326E0,4.7665823E2,5.572385E2,1.8079286E2,1.4055699E2,3.178768E1,1.4773454E1,1.0846427E1,1.2067873E0,5.7578896E1,1.347103E2,4.1729453E2,5.19615E2,2.3369507E1,2.501749E2,3.3093164E0,5.16748E0,1.4329807E2,4.322783E1,9.910213E0,4.734578E0,4.4563434E2,3.1023867E1,1.6872708E2,3.8851147E2,4.4610508E1,1.3618234E2,6.933866E1,7.121832E1],"tree_param":{"num_deleted":"0","num_feature":"12","num_nodes":"53","size_leaf_vector":"1"}},{"base_weights":[1.3103489E-2,1.9677266E-1,-1.6543023E-1,5.156994E-2,4.3018097E-1,-5.014008E-1,-3.9704055E-2,8.0256695E-1,-3.1375824E-3,5.519405E-1,1.9687285E-1,-5.823366E-1,4.519837E-1,1.2514748E-1,-2.1586668E-1,8.5544324E-1,-5.06229E-2,1.1256235E-1,-4.2464548E-1,1.1382251E0,4.712116E-1,-4.9544428E-2,7.379908E-1,-5.008212E-1,-1.3324008E0,6.3203347E-1,-6.440573E-2,-1.6708867E-1,3.7078804E-1,-3.3796936E-1,3.15811E-1,-3.159815E-2,4.6040297E-2,-6.096723E-3,1.6094575E-2,-3.164779E-2,1.142096E-2,1.6303748E-2,6.508947E-2,2.6407732E-2,-3.02173E-2,-1.1013656E-2,6.1891932E-2,5.075441E-2,-3.935601E-3,-1.8947078E-2,-4.8865568E-2,7.78657E-2,-7.735764E-2,-2.6741771E-2,4.509318E-2,9.36323E-3,-3.691131E-2,2.200449E-2,-5.3119462E-2,-8.987404E-3,-2.9310042E-2,2.978441E-2,-1.6274495E-2],"categories":[],"categories_nodes":[],"categories_segments":[],"categories_sizes":[],"default_left":[0,0,0,0,0,0,0,0,0,0,0,0,0,0,0,0,0,0,0,0,0,0,0,0,0,0,0,0,0,0,0,0,0,0,0,0,0,0,0,0,0,0,0,0,0,0,0,0,0,0,0,0,0,0,0,0,0,0,0],"id":10,"left_children":[1,3,5,7,9,11,13,15,17,19,21,23,25,27,29,31,-1,33,35,37,39,41,43,45,47,49,-1,51,53,55,57,-1,-1,-1,-1,-1,-1,-1,-1,-1,-1,-1,-1,-1,-1,-1,-1,-1,-1,-1,-1,-1,-1,-1,-1,-1,-1,-1,-1],"loss_changes":[9.977258E1,5.0806023E1,6.5154526E1,3.803505E1,1.6226555E1,3.2677666E1,3.2664852E1,6.898796E0,4.2175945E1,1.7320747E1,2.6537256E1,2.3033966E1,1.1289216E1,4.1783768E1,3.540083E1,6.572838E0,0E0,3.3348877E1,2.5483025E1,5.5475388E0,2.0734215E1,3.049308E1,1.4167309E1,2.0028168E1,2.5616608E1,1.0233441E1,0E0,5.399624E1,3.1861908E1,1.727829E1,1.8510983E1,0E0,0E0,0E0,0E0,0E0,0E0,0E0,0E0,0E0,0E0,0E0,0E0,0E0,0E0,0E0,0E0,0E0,0E0,0E0,0E0,0E0,0E0,0E0,0E0,0E0,0E0,0E0,0E0],"parents":[2147483647,0,0,1,1,2,2,3,3,4,4,5,5,6,6,7,7,8,8,9,9,10,10,11,11,12,12,13,13,14,14,15,15,17,17,18,18,19,19,20,20,21,21,22,22,23,23,24,24,25,25,27,27,28,28,29,29,30,30],"right_children":[2,4,6,8,10,12,14,16,18,20,22,24,26,28,30,32,-1,34,36,38,40,42,44,46,48,50,-1,52,54,56,58,-1,-1,-1,-1,-1,-1,-1,-1,-1,-1,-1,-1,-1,-1,-1,-1,-1,-1,-1,-1,-1,-1,-1,-1,-1,-1,-1,-1],"split_conditions":[2.4412832E0,3.785714E-2,4.342857E-2,-3.5932403E-2,2.0207834E0,4.6245832E0,5.15625E1,2.1142E0,1.3858E0,2.4850895E1,8.915131E-3,4.3302E0,8.31307E1,7.164286E-2,7.493606E1,2.2714285E-2,-5.06229E-2,2.8592293E-4,2.2569585E0,1.0588235E1,8.6642854E-2,1.05142854E-1,6.442857E-2,3.8642857E-2,-1.0832225E-2,4.94382E1,-6.440573E-2,3.8724E0,7.80085E0,5.13585E0,2.9237814E-2,-3.159815E-2,4.6040297E-2,-6.096723E-3,1.6094575E-2,-3.164779E-2,1.142096E-2,1.6303748E-2,6.508947E-2,2.6407732E-2,-3.02173E-2,-1.1013656E-2,6.1891932E-2,5.075441E-2,-3.935601E-3,-1.8947078E-2,-4.8865568E-2,7.78657E-2,-7.735764E-2,-2.6741771E-2,4.509318E-2,9.36323E-3,-3.691131E-2,2.200449E-2,-5.3119462E-2,-8.987404E-3,-2.9310042E-2,2.978441E-2,-1.6274495E-2],"split_indices":[2,5,5,8,2,2,3,0,2,3,9,0,4,5,4,5,0,9,10,3,5,5,5,5,9,3,0,0,2,2,9,0,0,0,0,0,0,0,0,0,0,0,0,0,0,0,0,0,0,0,0,0,0,0,0,0,0,0,0],"split_type":[0,0,0,0,0,0,0,0,0,0,0,0,0,0,0,0,0,0,0,0,0,0,0,0,0,0,0,0,0,0,0,0,0,0,0,0,0,0,0,0,0,0,0,0,0,0,0,0,0,0,0,0,0,0,0,0,0,0,0],"sum_hessian":[3.0406763E3,1.4987318E3,1.5419445E3,9.246995E2,5.740323E2,4.190783E2,1.1228662E3,6.18591E1,8.628404E2,3.7628824E2,1.9774406E2,3.8664407E2,3.243422E1,5.8020483E2,5.426613E2,6.0621723E1,1.2373759E0,6.775832E2,1.8525722E2,4.395688E1,3.3233136E2,1.3649477E2,6.1249302E1,3.502476E2,3.6396484E1,2.9969978E1,2.4642413E0,2.6511725E2,3.1508762E2,4.4160797E2,1.0105334E2,2.1869318E0,5.843479E1,3.1977692E2,3.5780627E2,1.4047896E2,4.4778267E1,7.8705587E0,3.608632E1,3.1610486E2,1.6226513E1,1.2124459E2,1.5250178E1,4.555136E1,1.569794E1,2.803366E2,6.9910965E1,2.0852718E0,3.4311214E1,5.4442844E0,2.4525694E1,1.6402354E2,1.01093704E2,3.0121518E2,1.3872431E1,2.707547E2,1.7085329E2,7.04003E1,3.0653042E1],"tree_param":{"num_deleted":"0","num_feature":"12","num_nodes":"59","size_leaf_vector":"1"}},{"base_weights":[-4.372922E-3,1.8492526E-1,-1.8770206E-1,1.0218255E-1,6.0776085E-1,-5.503292E-1,-6.361727E-2,7.775536E-1,6.4471915E-2,-6.901564E-2,6.3579756E-1,1.2387022E0,-5.826405E-1,5.122052E-1,-1.1174253E-1,5.4188234E-1,1.443947E0,-6.0008776E-1,1.1653828E-1,7.696762E-1,2.4516985E-1,8.848435E-2,-8.833463E-3,-1.3825036E0,-5.1572114E-1,9.2781234E-1,9.029651E-2,-9.543643E-2,-1.2187605E0,4.1981794E-2,-2.8034944E-2,8.051235E-2,-9.1159055E-3,-6.041904E-2,-5.8743795E-3,-2.9997397E-3,1.3150419E-2,2.9385656E-2,6.473738E-2,3.2458328E-2,-2.4754664E-2,-1.9360077E-2,-7.321973E-2,6.694355E-2,-2.935927E-2,5.0376244E-2,-5.1400166E-2,-5.462262E-2,3.1541687E-2,-5.950325E-3,3.7144434E-2,1.9379472E-2,-7.569005E-2],"categories":[],"categories_nodes":[],"categories_segments":[],"categories_sizes":[],"default_left":[0,0,0,0,0,0,0,0,0,0,0,0,0,0,0,0,0,0,0,0,0,0,0,0,0,0,0,0,0,0,0,0,0,0,0,0,0,0,0,0,0,0,0,0,0,0,0,0,0,0,0,0,0],"id":11,"left_children":[1,3,5,7,9,11,13,15,17,-1,19,21,23,25,27,29,31,33,35,37,39,-1,-1,41,43,45,47,49,51,-1,-1,-1,-1,-1,-1,-1,-1,-1,-1,-1,-1,-1,-1,-1,-1,-1,-1,-1,-1,-1,-1,-1,-1],"loss_changes":[1.04895775E2,5.196642E1,6.9056915E1,3.1656435E1,1.4431999E1,2.3343292E1,3.1791426E1,9.54298E0,4.090551E1,0E0,1.2387558E1,5.7706003E0,1.9898605E1,1.5435513E1,1.8975533E1,1.6941538E1,4.776512E0,2.5077461E1,2.8335978E1,1.6306023E1,1.9117249E1,0E0,0E0,1.807621E0,4.8093857E1,7.969982E0,2.94762E1,2.0705063E1,7.8227577E0,0E0,0E0,0E0,0E0,0E0,0E0,0E0,0E0,0E0,0E0,0E0,0E0,0E0,0E0,0E0,0E0,0E0,0E0,0E0,0E0,0E0,0E0,0E0,0E0],"parents":[2147483647,0,0,1,1,2,2,3,3,4,4,5,5,6,6,7,7,8,8,10,10,11,11,12,12,13,13,14,14,15,15,16,16,17,17,18,18,19,19,20,20,23,23,24,24,25,25,26,26,27,27,28,28],"right_children":[2,4,6,8,10,12,14,16,18,-1,20,22,24,26,28,30,32,34,36,38,40,-1,-1,42,44,46,48,50,52,-1,-1,-1,-1,-1,-1,-1,-1,-1,-1,-1,-1,-1,-1,-1,-1,-1,-1,-1,-1,-1,-1,-1,-1],"split_conditions":[2.4518E0,3.3569045E-2,4.257143E-2,7.0615E-1,3.307143E-2,-4.8187304E-2,-2.7977157E-2,7.1566665E-1,1.6357142E-2,-6.901564E-2,7.514286E-2,3.8979461E0,2.5086627E0,2.109375E1,7.9932E0,7.0101666E-1,1.2467726E-2,9.4663334E-1,-4.067882E-4,1.8101E0,5.2941177E1,8.848435E-2,-8.833463E-3,2.4907687E0,2.5975332E0,8.8679016E-2,-2.799801E-2,7.6364E0,7.80085E0,4.1981794E-2,-2.8034944E-2,8.051235E-2,-9.1159055E-3,-6.041904E-2,-5.8743795E-3,-2.9997397E-3,1.3150419E-2,2.9385656E-2,6.473738E-2,3.2458328E-2,-2.4754664E-2,-1.9360077E-2,-7.321973E-2,6.694355E-2,-2.935927E-2,5.0376244E-2,-5.1400166E-2,-5.462262E-2,3.1541687E-2,-5.950325E-3,3.7144434E-2,1.9379472E-2,-7.569005E-2],"split_indices":[1,8,5,1,5,8,9,2,5,0,5,10,11,3,1,2,9,2,9,1,3,0,0,10,2,7,7,1,2,0,0,0,0,0,0,0,0,0,0,0,0,0,0,0,0,0,0,0,0,0,0,0,0],"split_type":[0,0,0,0,0,0,0,0,0,0,0,0,0,0,0,0,0,0,0,0,0,0,0,0,0,0,0,0,0,0,0,0,0,0,0,0,0,0,0,0,0,0,0,0,0,0,0,0,0,0,0,0,0],"sum_hessian":[3.0205955E3,1.4861002E3,1.5344951E3,1.2439242E3,2.4217603E2,3.9033615E2,1.144159E3,6.474619E1,1.179178E3,2.6970463E0,2.3947897E2,6.26235E0,3.840738E2,8.7505516E1,1.0566534E3,4.917021E1,1.5575981E1,8.490827E1,1.0942698E3,1.7763002E2,6.184896E1,4.37188E0,1.8904701E0,2.8134394E1,3.559394E2,4.34779E1,4.4027615E1,1.0423856E3,1.4267864E1,3.890291E1,1.0267302E1,1.41399E1,1.4360808E0,3.689726E1,4.8011017E1,4.96479E2,5.977907E2,1.3348885E2,4.4141167E1,4.0091946E1,2.1757013E1,2.5743265E0,2.5560066E1,1.2548719E1,3.433907E2,4.224115E1,1.2367523E0,1.348972E1,3.0537895E1,1.0147143E3,2.7671324E1,2.1652837E0,1.2102581E1],"tree_param":{"num_deleted":"0","num_feature":"12","num_nodes":"53","size_leaf_vector":"1"}},{"base_weights":[-7.4889446E-3,1.8325809E-1,-1.8995751E-1,5.3268112E-2,3.9903033E-1,-5.249243E-1,-7.09412E-2,7.4729735E-1,-2.8439678E-2,5.336742E-1,1.4139159E-1,-6.2042654E-1,5.969741E-1,-9.777721E-2,8.7529314E-1,1.2262167E0,4.6903822E-1,7.12547E-2,-5.697402E-1,6.698275E-1,1.444849E-1,6.1855417E-2,1.3022497E0,-5.115419E-1,-1.1980135E0,-7.134087E-1,7.827022E-1,5.0021343E-2,-2.5362056E-1,1.0542874E0,-6.0275543E-2,-1.6525572E-2,6.573477E-2,4.7657814E-2,2.217393E-3,-6.4831856E-3,1.0918821E-2,-5.164314E-2,-1.1550527E-2,2.0547682E-2,4.2214658E-2,1.8008864E-2,-4.6531588E-2,1.7546821E-2,-1.7709434E-2,7.875464E-2,6.04764E-3,-8.765523E-3,-4.2172622E-2,5.663243E-2,-6.4178035E-2,2.2927199E-2,-6.210782E-2,6.649516E-2,1.3237963E-2,-7.1845255E-3,1.3322368E-2,-1.8089576E-2,1.3722189E-2,7.010216E-2,-1.0983213E-2],"categories":[],"categories_nodes":[],"categories_segments":[],"categories_sizes":[],"default_left":[0,0,0,0,0,0,0,0,0,0,0,0,0,0,0,0,0,0,0,0,0,0,0,0,0,0,0,0,0,0,0,0,0,0,0,0,0,0,0,0,0,0,0,0,0,0,0,0,0,0,0,0,0,0,0,0,0,0,0,0,0],"id":12,"left_children":[1,3,5,7,9,11,13,15,17,19,21,23,25,27,29,31,33,35,37,39,41,43,45,47,49,51,53,55,57,59,-1,-1,-1,-1,-1,-1,-1,-1,-1,-1,-1,-1,-1,-1,-1,-1,-1,-1,-1,-1,-1,-1,-1,-1,-1,-1,-1,-1,-1,-1,-1],"loss_changes":[1.05501305E2,4.1546032E1,6.172352E1,5.2531853E1,1.9246712E1,4.3868546E1,2.9140665E1,1.2427444E1,4.4799847E1,1.9268837E1,1.7696886E1,2.294725E1,8.433456E0,2.5661625E1,1.3061401E1,5.287979E0,1.2979057E1,2.0758583E1,2.001551E1,1.1868706E1,2.259521E1,2.1922794E1,3.7726746E0,3.5222946E1,1.3152626E1,3.382917E0,7.8153687E0,2.4034206E1,3.1069824E1,1.3457954E1,0E0,0E0,0E0,0E0,0E0,0E0,0E0,0E0,0E0,0E0,0E0,0E0,0E0,0E0,0E0,0E0,0E0,0E0,0E0,0E0,0E0,0E0,0E0,0E0,0E0,0E0,0E0,0E0,0E0,0E0,0E0],"parents":[2147483647,0,0,1,1,2,2,3,3,4,4,5,5,6,6,7,7,8,8,9,9,10,10,11,11,12,12,13,13,14,14,15,15,16,16,17,17,18,18,19,19,20,20,21,21,22,22,23,23,24,24,25,25,26,26,27,27,28,28,29,29],"right_children":[2,4,6,8,10,12,14,16,18,20,22,24,26,28,30,32,34,36,38,40,42,44,46,48,50,52,54,56,58,60,-1,-1,-1,-1,-1,-1,-1,-1,-1,-1,-1,-1,-1,-1,-1,-1,-1,-1,-1,-1,-1,-1,-1,-1,-1,-1,-1,-1,-1,-1,-1],"split_conditions":[2.4412832E0,3.785714E-2,4.257143E-2,-3.3861745E-2,2.0207834E0,4.6245832E0,1.8292858E-1,9.952E-1,1.5174E0,1.1416307E8,1.6752762E8,3.8642857E-2,-2.8358703E-3,5.15625E1,7.016575E1,2.2714285E-2,2.5205479E1,4.6902657E1,1.9706167E0,2.2468798E-2,6.823066E-2,1.7223193E-3,2.0163547E-2,8.610228E7,-1.8501813E-2,4.4E1,6.0559795E1,7.4285716E-2,7.545126E1,7.0498E0,-6.0275543E-2,-1.6525572E-2,6.573477E-2,4.7657814E-2,2.217393E-3,-6.4831856E-3,1.0918821E-2,-5.164314E-2,-1.1550527E-2,2.0547682E-2,4.2214658E-2,1.8008864E-2,-4.6531588E-2,1.7546821E-2,-1.7709434E-2,7.875464E-2,6.04764E-3,-8.765523E-3,-4.2172622E-2,5.663243E-2,-6.4178035E-2,2.2927199E-2,-6.210782E-2,6.649516E-2,1.3237963E-2,-7.1845255E-3,1.3322368E-2,-1.8089576E-2,1.3722189E-2,7.010216E-2,-1.0983213E-2],"split_indices":[2,5,5,7,2,2,5,0,0,6,6,5,9,3,4,5,4,4,2,7,7,8,9,6,9,4,4,5,4,0,0,0,0,0,0,0,0,0,0,0,0,0,0,0,0,0,0,0,0,0,0,0,0,0,0,0,0,0,0,0,0],"split_type":[0,0,0,0,0,0,0,0,0,0,0,0,0,0,0,0,0,0,0,0,0,0,0,0,0,0,0,0,0,0,0,0,0,0,0,0,0,0,0,0,0,0,0,0,0,0,0,0,0,0,0,0,0,0,0,0,0,0,0,0,0],"sum_hessian":[3.0291814E3,1.4809929E3,1.5481886E3,9.249889E2,5.5600397E2,4.049794E2,1.1432092E3,9.6570366E1,8.284185E2,3.6446207E2,1.9154192E2,3.7362164E2,3.1357761E1,1.112553E3,3.065628E1,3.4237144E1,6.2333218E1,7.003073E2,1.281112E2,2.6947006E2,9.499202E1,1.8024567E2,1.1296246E1,3.1594623E2,5.7675404E1,3.5400705E0,2.781769E1,5.713632E2,5.4118976E2,2.8682306E1,1.973974E0,1.6941456E0,3.2543E1,2.8547108E1,3.3786114E1,2.9608044E2,4.0422687E2,5.325286E1,7.4858345E1,1.0984155E2,1.596285E2,7.967286E1,1.5319164E1,1.0644247E2,7.380321E1,8.905899E0,2.3903465E0,1.5771066E2,1.5823557E2,1.6086625E0,5.606674E1,1.1418872E0,2.3981833E0,1.2764488E1,1.5053202E1,3.016805E2,2.6968268E2,4.4943954E2,9.175022E1,2.2452744E1,6.229563E0],"tree_param":{"num_deleted":"0","num_feature":"12","num_nodes":"61","size_leaf_vector":"1"}},{"base_weights":[1.1748346E-3,1.9981566E-1,-1.9185224E-1,7.3569454E-2,4.9418288E-1,-2.7986354E-1,1.4419755E-1,5.835503E-1,-2.1086553E-2,4.3386188E-1,1.0302323E0,2.0099056E-1,-3.3515525E-1,5.863648E-1,9.969647E-3,6.2968045E-1,-6.647961E-2,7.2957796E-1,-6.4301334E-2,5.5432063E-1,6.4100176E-2,1.4344625E0,-1.0228709E0,1.4274441E0,4.9833406E-2,-3.5594606E-1,9.166021E-1,7.8558767E-1,-5.1566042E-2,-4.3280798E-1,1.8566799E-1,5.929602E-2,2.6434336E-2,5.9000584E-3,7.0821635E-2,-3.9941273E-3,8.2077645E-2,1.631779E-2,4.923192E-2,-1.4249536E-2,3.3958655E-2,7.5461455E-2,4.073875E-3,-1.0622509E-2,-9.0002574E-2,7.960721E-2,8.474739E-4,3.0040888E-2,-1.6339142E-2,6.427939E-2,-1.849681E-2,7.117304E-2,-1.8004396E-3,-1.721496E-3,6.038667E-2,4.604463E-2,-4.9299203E-2,-3.963969E-2,4.0969565E-3,4.7921136E-2,2.328987E-3],"categories":[],"categories_nodes":[],"categories_segments":[],"categories_sizes":[],"default_left":[0,0,0,0,0,0,0,0,0,0,0,0,0,0,0,0,0,0,0,0,0,0,0,0,0,0,0,0,0,0,0,0,0,0,0,0,0,0,0,0,0,0,0,0,0,0,0,0,0,0,0,0,0,0,0,0,0,0,0,0,0],"id":13,"left_children":[1,3,5,7,9,11,13,15,17,19,21,23,25,27,29,31,-1,33,35,37,39,41,43,45,47,49,51,53,55,57,59,-1,-1,-1,-1,-1,-1,-1,-1,-1,-1,-1,-1,-1,-1,-1,-1,-1,-1,-1,-1,-1,-1,-1,-1,-1,-1,-1,-1,-1,-1],"loss_changes":[1.1619757E2,5.5466778E1,4.5497677E1,5.052562E1,1.4042374E1,3.2458893E1,1.8965527E1,1.5297684E1,2.8709541E1,1.7981499E1,3.847904E1,2.3337198E1,2.8772789E1,9.498604E0,1.9235573E1,8.399048E0,0E0,2.0070616E1,2.2361649E1,2.9596092E1,2.1778347E1,3.688324E0,4.605838E0,3.1831455E0,2.3738068E1,2.518399E1,8.808894E0,1.969402E1,1.7853703E1,1.3082166E1,1.8977055E1,0E0,0E0,0E0,0E0,0E0,0E0,0E0,0E0,0E0,0E0,0E0,0E0,0E0,0E0,0E0,0E0,0E0,0E0,0E0,0E0,0E0,0E0,0E0,0E0,0E0,0E0,0E0,0E0,0E0,0E0],"parents":[2147483647,0,0,1,1,2,2,3,3,4,4,5,5,6,6,7,7,8,8,9,9,10,10,11,11,12,12,13,13,14,14,15,15,17,17,18,18,19,19,20,20,21,21,22,22,23,23,24,24,25,25,26,26,27,27,28,28,29,29,30,30],"right_children":[2,4,6,8,10,12,14,16,18,20,22,24,26,28,30,32,-1,34,36,38,40,42,44,46,48,50,52,54,56,58,60,-1,-1,-1,-1,-1,-1,-1,-1,-1,-1,-1,-1,-1,-1,-1,-1,-1,-1,-1,-1,-1,-1,-1,-1,-1,-1,-1,-1,-1,-1],"split_conditions":[2.3185883E0,1.6604725E-2,4.8467666E-2,-3.8532495E-2,7.0637274E8,-7.015921E-2,-1.691934E-2,2.302E0,7.361498E-1,1.151259E8,6.653287E-2,2.6084E0,3.833684E-2,6.843113E0,-2.2150525E-3,1.1759833E0,-6.647961E-2,6.4823216E-1,2.5618744E0,8.328151E7,1.99315E0,1.4786E0,1.0739386E9,-7.765106E-2,2.4096386E1,-1.6117858E8,-1.9562237E-2,2.6666666E1,2.7692308E1,1.3688227E8,4.7457626E1,5.929602E-2,2.6434336E-2,5.9000584E-3,7.0821635E-2,-3.9941273E-3,8.2077645E-2,1.631779E-2,4.923192E-2,-1.4249536E-2,3.3958655E-2,7.5461455E-2,4.073875E-3,-1.0622509E-2,-9.0002574E-2,7.960721E-2,8.474739E-4,3.0040888E-2,-1.6339142E-2,6.427939E-2,-1.849681E-2,7.117304E-2,-1.8004396E-3,-1.721496E-3,6.038667E-2,4.604463E-2,-4.9299203E-2,-3.963969E-2,4.0969565E-3,4.7921136E-2,2.328987E-3],"split_indices":[11,7,8,7,6,7,9,0,10,6,7,0,9,11,9,2,0,11,10,6,2,0,6,7,3,6,8,3,3,6,3,0,0,0,0,0,0,0,0,0,0,0,0,0,0,0,0,0,0,0,0,0,0,0,0,0,0,0,0,0,0],"split_type":[0,0,0,0,0,0,0,0,0,0,0,0,0,0,0,0,0,0,0,0,0,0,0,0,0,0,0,0,0,0,0,0,0,0,0,0,0,0,0,0,0,0,0,0,0,0,0,0,0,0,0,0,0,0,0,0,0,0,0,0,0],"sum_hessian":[3.0284724E3,1.4925154E3,1.535957E3,1.0454149E3,4.471005E2,1.2173109E3,3.1864606E2,1.6285132E2,8.8256354E2,4.0350406E2,4.359645E1,1.25267235E2,1.0920437E3,7.342021E1,2.4522586E2,1.5967212E2,3.1791873E0,4.7177734E1,8.353858E2,3.0397708E2,9.952697E1,3.667661E1,6.919843E0,1.2818391E1,1.12448845E2,1.0749059E3,1.7137794E1,5.5771553E1,1.764866E1,6.924872E1,1.7597714E2,2.2885248E1,1.3678688E2,2.5576324E1,2.1601408E1,8.2876904E2,6.616771E0,1.9985855E2,1.0411852E2,6.3833996E1,3.5692978E1,3.4646545E1,2.0300622E0,4.01083E0,2.9090133E0,1.1362799E1,1.4555917E0,4.5413795E1,6.703506E1,8.315459E0,1.0665905E3,1.0863399E1,6.274396E0,1.9265936E1,3.6505615E1,8.655385E0,8.993276E0,4.0432377E1,2.8816341E1,2.5944181E1,1.5003296E2],"tree_param":{"num_deleted":"0","num_feature":"12","num_nodes":"61","size_leaf_vector":"1"}},{"base_weights":[3.1599356E-4,1.7308228E-1,-1.770293E-1,3.854081E-2,3.7640554E-1,-3.0875292E-1,4.1785423E-2,6.5174437E-1,-1.8696547E-2,4.972299E-1,1.643604E-1,-5.577722E-2,-4.4007856E-1,2.7932176E-1,-2.3834665E-1,8.241656E-1,-2.4268265E-1,-6.141792E-1,5.8474403E-2,6.050624E-1,2.4852777E-1,8.698238E-1,5.4302637E-2,-4.587151E-1,2.1091306E-1,-6.377734E-1,-1.8767454E-1,3.377783E-1,-8.671372E-1,-1.04238644E-1,-6.2128484E-1,3.0063463E-2,7.0204735E-2,-6.1251312E-2,3.0933997E-2,-5.582089E-2,-7.055161E-3,1.8692285E-2,-5.6819883E-3,3.7312336E-2,5.421437E-3,-3.1090882E-3,3.45571E-2,5.3088315E-2,-3.983333E-2,-3.0036284E-2,1.2851826E-2,8.438143E-3,-3.941531E-2,3.1658962E-2,-7.6115723E-3,2.626878E-2,-3.357842E-2,4.220223E-2,-1.4547455E-2,1.4017701E-2,6.8716034E-2,2.2666696E-2,-7.344615E-2,-1.6787207E-2,3.1484492E-2,-5.739797E-2,7.932021E-3],"categories":[],"categories_nodes":[],"categories_segments":[],"categories_sizes":[],"default_left":[0,0,0,0,0,0,0,0,0,0,0,0,0,0,0,0,0,0,0,0,0,0,0,0,0,0,0,0,0,0,0,0,0,0,0,0,0,0,0,0,0,0,0,0,0,0,0,0,0,0,0,0,0,0,0,0,0,0,0,0,0,0,0],"id":14,"left_children":[1,3,5,7,9,11,13,15,17,19,21,23,25,27,29,31,33,35,37,39,41,43,45,47,49,51,53,55,57,59,61,-1,-1,-1,-1,-1,-1,-1,-1,-1,-1,-1,-1,-1,-1,-1,-1,-1,-1,-1,-1,-1,-1,-1,-1,-1,-1,-1,-1,-1,-1,-1,-1],"loss_changes":[9.3230865E1,4.214904E1,4.3291584E1,3.260664E1,1.5640335E1,3.1118301E1,3.767042E1,1.2431149E1,3.911311E1,1.0319977E1,1.7363016E1,3.464314E1,3.0664406E1,2.0818481E1,1.3279792E1,7.7802696E0,1.2257552E1,2.3042606E1,4.095378E1,1.8965752E1,1.6515388E1,1.0504442E1,2.6055433E1,2.6677374E1,2.9865284E1,1.3935547E1,2.9268562E1,1.7003098E1,1.2695994E1,3.3114613E1,2.7784082E1,0E0,0E0,0E0,0E0,0E0,0E0,0E0,0E0,0E0,0E0,0E0,0E0,0E0,0E0,0E0,0E0,0E0,0E0,0E0,0E0,0E0,0E0,0E0,0E0,0E0,0E0,0E0,0E0,0E0,0E0,0E0,0E0],"parents":[2147483647,0,0,1,1,2,2,3,3,4,4,5,5,6,6,7,7,8,8,9,9,10,10,11,11,12,12,13,13,14,14,15,15,16,16,17,17,18,18,19,19,20,20,21,21,22,22,23,23,24,24,25,25,26,26,27,27,28,28,29,29,30,30],"right_children":[2,4,6,8,10,12,14,16,18,20,22,24,26,28,30,32,34,36,38,40,42,44,46,48,50,52,54,56,58,60,62,-1,-1,-1,-1,-1,-1,-1,-1,-1,-1,-1,-1,-1,-1,-1,-1,-1,-1,-1,-1,-1,-1,-1,-1,-1,-1,-1,-1,-1,-1,-1,-1],"split_conditions":[2.3716428E0,3.7357144E-2,7.314286E-2,7.221E-1,6.2785715E-2,5.8488884E7,5.15625E1,3.588759E8,1.6642857E-2,1.01021256E8,3.545422E7,-1.195508E-2,1.2334364E8,7.80085E0,6.6929965E0,6.6078544E-1,5.510204E1,9.3868333E-1,9.7327197E-1,2.0260444E0,4.279E-2,6.415094E1,7.037309E7,-4.038191E-2,1.0072526E-2,1.957143E-2,2.5744178E0,7.4868E0,1.779661E1,6.349406E0,7.6364E0,3.0063463E-2,7.0204735E-2,-6.1251312E-2,3.0933997E-2,-5.582089E-2,-7.055161E-3,1.8692285E-2,-5.6819883E-3,3.7312336E-2,5.421437E-3,-3.1090882E-3,3.45571E-2,5.3088315E-2,-3.983333E-2,-3.0036284E-2,1.2851826E-2,8.438143E-3,-3.941531E-2,3.1658962E-2,-7.6115723E-3,2.626878E-2,-3.357842E-2,4.220223E-2,-1.4547455E-2,1.4017701E-2,6.8716034E-2,2.2666696E-2,-7.344615E-2,-1.6787207E-2,3.1484492E-2,-5.739797E-2,7.932021E-3],"split_indices":[11,5,5,1,5,6,3,6,5,6,6,7,6,2,11,11,3,2,11,11,7,3,6,7,7,5,11,1,3,10,1,0,0,0,0,0,0,0,0,0,0,0,0,0,0,0,0,0,0,0,0,0,0,0,0,0,0,0,0,0,0,0,0],"split_type":[0,0,0,0,0,0,0,0,0,0,0,0,0,0,0,0,0,0,0,0,0,0,0,0,0,0,0,0,0,0,0,0,0,0,0,0,0,0,0,0,0,0,0,0,0,0,0,0,0,0,0,0,0,0,0,0,0,0,0,0,0,0,0],"sum_hessian":[3.0408535E3,1.5403241E3,1.5005293E3,9.276659E2,6.1265826E2,9.36411E2,5.6411835E2,7.831061E1,8.493553E2,3.8941992E2,2.2323833E2,3.204825E2,6.1592847E2,3.0526965E2,2.5884872E2,6.5720116E1,1.2590496E1,9.6644905E1,7.527104E2,2.7064185E2,1.1877806E2,2.9195251E1,1.9404308E2,1.2735059E2,1.9313191E2,3.445409E2,2.7138757E2,2.911306E2,1.4139017E1,1.9265248E2,6.619622E1,4.8944897E1,1.6775219E1,5.6849184E0,6.9055777E0,4.6217953E1,5.0426952E1,2.6534204E2,4.8736835E2,2.1034254E2,6.0299313E1,7.029287E1,4.8485188E1,2.6505304E1,2.689947E0,4.53985E1,1.4864458E2,4.4024464E1,8.3326126E1,8.8953156E1,1.0417876E2,9.3172E0,3.352237E2,2.4041248E1,2.4734634E2,2.7705243E2,1.4078185E1,4.5036187E0,9.635399E0,1.4686797E2,4.5784515E1,3.9231655E1,2.6964567E1],"tree_param":{"num_deleted":"0","num_feature":"12","num_nodes":"63","size_leaf_vector":"1"}},{"base_weights":[3.3283778E-3,1.4407334E-1,-2.482054E-1,5.9226897E-2,4.1741133E-1,-1.5358184E-2,-4.5944843E-1,2.991302E-1,-4.3979246E-2,1.134819E0,3.458001E-1,-7.684048E-1,1.02988005E-1,-6.43039E-1,-4.6805445E-2,1.9099961E-1,1.1556418E0,9.6486956E-1,-7.370973E-2,-1.5370627E-2,1.2045733E0,1.0732543E0,3.0100802E-1,-9.6442914E-1,7.8807527E-1,1.629E-1,-9.0624195E-1,1.8703023E-1,-7.7480954E-1,-2.638783E-1,3.6910066E-1,6.900685E-2,6.4795944E-3,6.316478E-2,-7.15689E-2,6.1836805E-2,-1.402685E-2,-7.476169E-2,-2.7557435E-3,6.292996E-2,-6.160499E-3,6.899159E-2,-1.2614776E-2,-3.0038169E-2,1.938151E-2,2.3048706E-2,-5.5870414E-2,5.561585E-2,-9.753543E-3,-3.8369264E-2,1.0206939E-2,4.5328245E-2,-5.3609043E-2,2.5478547E-2,-3.654133E-2,-4.0463794E-2,4.8801016E-2,-1.5373243E-3,-4.908702E-2,2.7112989E-2,-5.8757074E-2],"categories":[],"categories_nodes":[],"categories_segments":[],"categories_sizes":[],"default_left":[0,0,0,0,0,0,0,0,0,0,0,0,0,0,0,0,0,0,0,0,0,0,0,0,0,0,0,0,0,0,0,0,0,0,0,0,0,0,0,0,0,0,0,0,0,0,0,0,0,0,0,0,0,0,0,0,0,0,0,0,0],"id":15,"left_children":[1,3,5,7,9,11,13,15,17,19,21,23,25,27,29,31,33,35,37,-1,39,41,43,45,47,49,51,53,55,57,59,-1,-1,-1,-1,-1,-1,-1,-1,-1,-1,-1,-1,-1,-1,-1,-1,-1,-1,-1,-1,-1,-1,-1,-1,-1,-1,-1,-1,-1,-1],"loss_changes":[1.0621077E2,4.458928E1,5.293892E1,3.6389343E1,2.3009628E1,4.5803043E1,4.2723953E1,4.0720055E1,3.090836E1,4.485382E0,1.3219421E1,2.2056007E1,2.7009842E1,4.2857513E1,1.5883481E1,2.8569956E1,1.5553314E1,1.0335962E1,2.634075E1,0E0,2.9685593E0,9.986263E0,3.0923462E1,1.4130692E1,2.8811588E0,1.6277641E1,8.506708E0,1.6448818E1,2.1138E1,1.9294876E1,1.6783024E1,0E0,0E0,0E0,0E0,0E0,0E0,0E0,0E0,0E0,0E0,0E0,0E0,0E0,0E0,0E0,0E0,0E0,0E0,0E0,0E0,0E0,0E0,0E0,0E0,0E0,0E0,0E0,0E0,0E0,0E0],"parents":[2147483647,0,0,1,1,2,2,3,3,4,4,5,5,6,6,7,7,8,8,9,9,10,10,11,11,12,12,13,13,14,14,15,15,16,16,17,17,18,18,20,20,21,21,22,22,23,23,24,24,25,25,26,26,27,27,28,28,29,29,30,30],"right_children":[2,4,6,8,10,12,14,16,18,20,22,24,26,28,30,32,34,36,38,-1,40,42,44,46,48,50,52,54,56,58,60,-1,-1,-1,-1,-1,-1,-1,-1,-1,-1,-1,-1,-1,-1,-1,-1,-1,-1,-1,-1,-1,-1,-1,-1,-1,-1,-1,-1,-1,-1],"split_conditions":[3.3544E0,2.4321001E-2,6.722217E7,1.05045E0,-1.691934E-2,-2.4027462E7,4.1624725E-2,1.0773833E0,-8.998462E-2,1.1235955E1,1.0489111E0,1.8507857E-2,7.80085E0,2.077922E1,6.0282717E0,-3.2521352E-2,1.4106355E8,3.0656986E0,1.1012905E0,-1.5370627E-2,5.6395348E1,7.692308E1,9.95691E-1,-1.5191365E-2,-3.265296E7,3.4686E0,3.9895964E7,-5.837105E-3,3.500459E8,9.6414536E-2,1.9273019E-1,6.900685E-2,6.4795944E-3,6.316478E-2,-7.15689E-2,6.1836805E-2,-1.402685E-2,-7.476169E-2,-2.7557435E-3,6.292996E-2,-6.160499E-3,6.899159E-2,-1.2614776E-2,-3.0038169E-2,1.938151E-2,2.3048706E-2,-5.5870414E-2,5.561585E-2,-9.753543E-3,-3.8369264E-2,1.0206939E-2,4.5328245E-2,-5.3609043E-2,2.5478547E-2,-3.654133E-2,-4.0463794E-2,4.8801016E-2,-1.5373243E-3,-4.908702E-2,2.7112989E-2,-5.8757074E-2],"split_indices":[0,7,6,1,9,6,7,2,7,3,10,9,2,3,11,7,6,10,10,0,3,3,11,9,6,0,6,7,6,7,7,0,0,0,0,0,0,0,0,0,0,0,0,0,0,0,0,0,0,0,0,0,0,0,0,0,0,0,0,0,0],"split_type":[0,0,0,0,0,0,0,0,0,0,0,0,0,0,0,0,0,0,0,0,0,0,0,0,0,0,0,0,0,0,0,0,0,0,0,0,0,0,0,0,0,0,0,0,0,0,0,0,0,0,0,0,0,0,0,0,0,0,0,0,0],"sum_hessian":[2.9981152E3,1.9227009E3,1.0754142E3,1.4681815E3,4.5451935E2,5.120589E2,5.633553E2,4.4105295E2,1.0271287E3,3.9904587E1,4.1461478E2,6.8798096E1,4.432608E2,3.895021E2,1.7385321E2,3.9269946E2,4.8353474E1,2.8502293E1,9.986263E2,1.6837834E0,3.8220802E1,2.2716854E1,3.9189792E2,6.1440594E1,7.3575015E0,4.192132E2,2.404761E1,5.3303722E1,3.361984E2,1.14472435E2,5.938078E1,1.8228897E1,3.7447058E2,4.691296E1,1.4405103E0,2.3400938E1,5.101356E0,1.1868935E1,9.867574E2,3.6776516E1,1.4442873E0,1.8416481E1,4.300373E0,3.38255E1,3.5807242E2,5.759777E0,5.5680817E1,5.4339867E0,1.9235146E0,1.7047125E1,4.0216608E2,1.6423585E0,2.240525E1,3.9772305E1,1.3531415E1,3.3023523E2,5.9631424E0,8.719723E1,2.7275208E1,5.3977066E1,5.4037104E0],"tree_param":{"num_deleted":"0","num_feature":"12","num_nodes":"61","size_leaf_vector":"1"}},{"base_weights":[3.5659603E-3,1.6767783E-1,-1.6204202E-1,2.9852293E-2,3.786028E-1,-2.897234E-1,5.4790113E-2,6.791606E-1,-2.139593E-2,6.5211266E-1,3.0773446E-1,-1.0054729E-1,-4.364128E-1,7.3607504E-1,-1.2559201E-2,7.913946E-1,-5.745458E-1,-7.1110845E-2,6.3585174E-1,-2.012686E-1,1.1083082E0,6.719999E-1,2.0525041E-1,-1.8972251E-1,6.201766E-1,-7.1994495E-1,-1.7958848E-1,-8.0563504E-1,1.2157499E0,-1.2000851E-1,3.4830138E-1,2.9949147E-2,7.573348E-2,3.5737433E-2,-6.673058E-2,3.0239651E-2,-5.577436E-3,6.099601E-4,4.9399924E-2,2.3479003E-3,-9.335684E-2,6.757396E-2,2.930132E-2,3.9424665E-2,-7.982162E-2,1.5413349E-3,2.1531647E-2,-1.757965E-2,3.2792126E-3,3.9288748E-2,-6.6595785E-2,3.5004336E-2,-3.8646515E-2,2.1415656E-2,-1.6592598E-2,3.1469114E-2,-7.8910224E-2,-4.2744037E-3,6.6220716E-2,3.1579755E-2,-1.0313066E-2,4.41455E-2,7.9724E-3],"categories":[],"categories_nodes":[],"categories_segments":[],"categories_sizes":[],"default_left":[0,0,0,0,0,0,0,0,0,0,0,0,0,0,0,0,0,0,0,0,0,0,0,0,0,0,0,0,0,0,0,0,0,0,0,0,0,0,0,0,0,0,0,0,0,0,0,0,0,0,0,0,0,0,0,0,0,0,0,0,0,0,0],"id":16,"left_children":[1,3,5,7,9,11,13,15,17,19,21,23,25,27,29,31,33,35,37,39,41,43,45,47,49,51,53,55,57,59,61,-1,-1,-1,-1,-1,-1,-1,-1,-1,-1,-1,-1,-1,-1,-1,-1,-1,-1,-1,-1,-1,-1,-1,-1,-1,-1,-1,-1,-1,-1,-1,-1],"loss_changes":[8.163756E1,4.3847782E1,4.1408024E1,3.0413662E1,1.1354584E1,2.6073074E1,2.547219E1,9.86244E0,2.7743437E1,4.763526E1,1.760802E1,2.6619423E1,3.8449783E1,3.7911697E1,1.9661554E1,7.6914024E0,6.9051313E0,2.163187E1,1.3101635E1,1.7980684E1,9.306702E0,2.8724506E1,1.4627604E1,1.5219258E1,1.5799107E1,1.9462341E1,2.59969E1,1.4798674E1,5.555416E0,2.5455088E1,1.1606547E1,0E0,0E0,0E0,0E0,0E0,0E0,0E0,0E0,0E0,0E0,0E0,0E0,0E0,0E0,0E0,0E0,0E0,0E0,0E0,0E0,0E0,0E0,0E0,0E0,0E0,0E0,0E0,0E0,0E0,0E0,0E0,0E0],"parents":[2147483647,0,0,1,1,2,2,3,3,4,4,5,5,6,6,7,7,8,8,9,9,10,10,11,11,12,12,13,13,14,14,15,15,16,16,17,17,18,18,19,19,20,20,21,21,22,22,23,23,24,24,25,25,26,26,27,27,28,28,29,29,30,30],"right_children":[2,4,6,8,10,12,14,16,18,20,22,24,26,28,30,32,34,36,38,40,42,44,46,48,50,52,54,56,58,60,62,-1,-1,-1,-1,-1,-1,-1,-1,-1,-1,-1,-1,-1,-1,-1,-1,-1,-1,-1,-1,-1,-1,-1,-1,-1,-1,-1,-1,-1,-1,-1,-1],"split_conditions":[2.3716428E0,3.785714E-2,7.314286E-2,-3.5932403E-2,3.545422E7,7.219553E7,3.2683384E0,2.1142E0,5.893221E8,4.7571428E-2,4.4E-2,7.2125435E1,1.2334364E8,2.8590949E0,9.21266E-2,1.5619624E0,-4.8187304E-2,7.361498E-1,1.957143E-2,1.9300378E7,1.5253487E-2,2.5061955E0,4.123545E-2,3.786167E0,6.183E0,1.9285714E-2,-8.294702E-3,4.326711E1,-1.0307456E-1,2.6875E1,4.548386E7,2.9949147E-2,7.573348E-2,3.5737433E-2,-6.673058E-2,3.0239651E-2,-5.577436E-3,6.099601E-4,4.9399924E-2,2.3479003E-3,-9.335684E-2,6.757396E-2,2.930132E-2,3.9424665E-2,-7.982162E-2,1.5413349E-3,2.1531647E-2,-1.757965E-2,3.2792126E-3,3.9288748E-2,-6.6595785E-2,3.5004336E-2,-3.8646515E-2,2.1415656E-2,-1.6592598E-2,3.1469114E-2,-7.8910224E-2,-4.2744037E-3,6.6220716E-2,3.1579755E-2,-1.0313066E-2,4.41455E-2,7.9724E-3],"split_indices":[11,5,5,8,6,6,10,0,6,5,5,4,6,10,8,11,8,10,5,6,7,10,8,10,0,5,9,4,7,4,6,0,0,0,0,0,0,0,0,0,0,0,0,0,0,0,0,0,0,0,0,0,0,0,0,0,0,0,0,0,0,0,0],"split_type":[0,0,0,0,0,0,0,0,0,0,0,0,0,0,0,0,0,0,0,0,0,0,0,0,0,0,0,0,0,0,0,0,0,0,0,0,0,0,0,0,0,0,0,0,0,0,0,0,0,0,0,0,0,0,0,0,0,0,0,0,0,0,0],"sum_hessian":[3.0017847E3,1.5076964E3,1.4940881E3,9.1254803E2,5.951483E2,9.4014734E2,5.5394086E2,6.585986E1,8.466882E2,1.2078562E2,4.743627E2,4.113459E2,5.2880145E2,4.8940872E1,5.05E2,6.078687E1,5.072991E0,7.879766E2,5.8711586E1,4.227075E1,7.851488E1,1.029355E2,3.714272E2,3.6670963E2,4.4636246E1,2.504753E2,2.7832614E2,1.1452418E1,3.7488453E1,3.896468E2,1.1535321E2,4.945784E1,1.1329032E1,1.9035814E0,3.1694093E0,4.3693874E1,7.442827E2,2.1561235E1,3.7150352E1,3.7634712E1,4.636037E0,5.2488796E1,2.602608E1,9.852808E1,4.4074216E0,2.1002524E2,1.6140195E2,2.2419048E2,1.4251915E2,4.169655E1,2.939698E0,8.570451E0,2.4190485E2,5.5386463E1,2.2293968E2,4.072762E0,7.3796563E0,2.9057577E0,3.4582695E1,3.946116E1,3.5018564E2,2.9152584E1,8.620063E1],"tree_param":{"num_deleted":"0","num_feature":"12","num_nodes":"63","size_leaf_vector":"1"}},{"base_weights":[1.4258504E-2,1.698987E-1,-1.0947452E-1,4.5496576E-2,4.0407872E-1,-1.1864624E0,-9.054782E-2,6.521519E-1,-1.2775168E-2,4.9137336E-1,4.5492314E-2,7.145739E-1,-1.4434408E0,2.189978E-1,-1.4213635E-1,1.1090415E0,3.5277414E-1,7.183731E-2,-4.889653E-1,1.1230755E0,4.0078327E-1,3.8111326E-1,-1.665883E0,6.586848E-2,-4.416456E-3,-8.9896895E-2,-5.506724E-2,-8.276802E-2,2.5200555E-1,1.3680235E-2,-2.8071094E-1,6.6885225E-2,1.0804082E-2,4.065545E-3,5.0728895E-2,-7.0640654E-3,1.2851055E-2,-3.548315E-2,2.2540798E-2,5.897934E-2,1.1527395E-2,-7.1304195E-2,2.292326E-2,-1.9104412E-3,6.254159E-2,-3.4969218E-2,-8.8555574E-2,4.6576377E-2,-7.211428E-2,7.106074E-2,9.807857E-3,5.007578E-2,-1.8581655E-3,-2.4786634E-2,3.7752194E-4],"categories":[],"categories_nodes":[],"categories_segments":[],"categories_sizes":[],"default_left":[0,0,0,0,0,0,0,0,0,0,0,0,0,0,0,0,0,0,0,0,0,0,0,0,0,0,0,0,0,0,0,0,0,0,0,0,0,0,0,0,0,0,0,0,0,0,0,0,0,0,0,0,0,0,0],"id":17,"left_children":[1,3,5,7,9,11,13,15,17,19,21,23,25,27,29,31,33,35,37,39,41,43,45,-1,-1,-1,47,-1,49,51,53,-1,-1,-1,-1,-1,-1,-1,-1,-1,-1,-1,-1,-1,-1,-1,-1,-1,-1,-1,-1,-1,-1,-1,-1],"loss_changes":[5.7643024E1,3.860107E1,3.388485E1,3.0652971E1,1.4369911E1,1.5060619E1,2.6218592E1,1.0002678E1,3.1941362E1,2.0704063E1,5.2970264E1,2.0951738E0,1.2514835E1,1.4934859E1,3.0367647E1,5.757847E0,8.428506E0,2.6607944E1,2.5126987E1,2.0385056E0,3.4885845E1,2.8126085E1,2.9963303E-1,0E0,0E0,0E0,9.889834E0,0E0,1.4835324E1,3.333102E1,4.6140167E1,0E0,0E0,0E0,0E0,0E0,0E0,0E0,0E0,0E0,0E0,0E0,0E0,0E0,0E0,0E0,0E0,0E0,0E0,0E0,0E0,0E0,0E0,0E0,0E0],"parents":[2147483647,0,0,1,1,2,2,3,3,4,4,5,5,6,6,7,7,8,8,9,9,10,10,11,11,12,12,13,13,14,14,15,15,16,16,17,17,18,18,19,19,20,20,21,21,22,22,26,26,28,28,29,29,30,30],"right_children":[2,4,6,8,10,12,14,16,18,20,22,24,26,28,30,32,34,36,38,40,42,44,46,-1,-1,-1,48,-1,50,52,54,-1,-1,-1,-1,-1,-1,-1,-1,-1,-1,-1,-1,-1,-1,-1,-1,-1,-1,-1,-1,-1,-1,-1,-1],"split_conditions":[2.0646572E0,3.785714E-2,2.2202E0,-3.5049543E-2,1.151259E8,2.1938758E0,-1.6542872E-2,9.952E-1,1.4152666E0,1.214E0,7.013881E-2,-3.661054E-3,2.3244834E0,2.5061955E0,6.764467E7,1.1576788E8,-4.067882E-4,2.8592293E-4,1.9182229E0,1.5575357E-2,1.29195E0,8.811732E8,7.234066E-2,6.586848E-2,-4.416456E-3,-8.9896895E-2,1.12487704E8,-8.276802E-2,2.4381E0,2.2995E0,1.2868282E8,6.6885225E-2,1.0804082E-2,4.065545E-3,5.0728895E-2,-7.0640654E-3,1.2851055E-2,-3.548315E-2,2.2540798E-2,5.897934E-2,1.1527395E-2,-7.1304195E-2,2.292326E-2,-1.9104412E-3,6.254159E-2,-3.4969218E-2,-8.8555574E-2,4.6576377E-2,-7.211428E-2,7.106074E-2,9.807857E-3,5.007578E-2,-1.8581655E-3,-2.4786634E-2,3.7752194E-4],"split_indices":[11,5,0,7,6,10,9,0,2,1,7,9,2,10,6,6,9,9,11,9,1,6,7,0,0,0,6,0,1,1,6,0,0,0,0,0,0,0,0,0,0,0,0,0,0,0,0,0,0,0,0,0,0,0,0],"split_type":[0,0,0,0,0,0,0,0,0,0,0,0,0,0,0,0,0,0,0,0,0,0,0,0,0,0,0,0,0,0,0,0,0,0,0,0,0,0,0,0,0,0,0,0,0,0,0,0,0,0,0,0,0,0,0],"sum_hessian":[2.9912593E3,1.3246488E3,1.6666106E3,8.6587115E2,4.587776E2,2.7717396E1,1.6388932E3,7.4988594E1,7.9088257E2,3.6866025E2,9.011734E1,3.0885677E0,2.4628828E1,2.336547E2,1.4052385E3,2.8614552E1,4.637404E1,6.722772E2,1.1860534E2,4.480801E1,3.2385223E2,7.599176E1,1.4125579E1,1.398133E0,1.6904346E0,1.938437E1,5.244458E0,3.192918E0,2.3046176E2,6.618923E2,7.4334625E2,2.2384441E1,6.2301106E0,3.3681282E1,1.2692759E1,3.1267383E2,3.596034E2,9.624749E1,2.235785E1,4.183741E1,2.9706008E0,9.186297E0,3.1466595E2,5.1916866E1,2.4074894E1,2.1376958E0,1.1987883E1,3.2567432E0,1.9877151E0,9.391855E0,2.2106992E2,3.1484491E1,6.304078E2,4.2534814E2,3.179981E2],"tree_param":{"num_deleted":"0","num_feature":"12","num_nodes":"55","size_leaf_vector":"1"}},{"base_weights":[9.247672E-3,1.5757886E-1,-9.1077365E-2,1.0505208E0,1.2974705E-1,6.23475E-1,-1.1920099E-1,-2.532557E-1,1.2820882E0,5.019505E-2,4.5835766E-1,8.1144243E-1,-3.2904458E-1,-2.0893736E-1,1.3880377E-1,4.898521E-1,-7.193989E-2,7.3532656E-2,7.137377E-1,1.3369234E0,2.9728137E-2,4.8925537E-1,-7.2396696E-2,-6.446188E-2,9.187584E-1,-6.9771826E-2,2.5568873E-1,-3.598661E-2,-4.1166607E-1,1.6584764E-1,-6.936675E-2,5.310277E-2,-1.6313853E-2,5.673162E-2,-6.0567588E-2,7.6848485E-2,1.0225768E-2,-8.448896E-3,9.079407E-3,6.435538E-2,2.1017373E-2,3.252478E-2,6.6218734E-2,-5.5126924E-2,3.747999E-2,5.097426E-4,-4.950654E-2,-3.308798E-3,-3.0885587E-2,5.134202E-3,4.9983494E-2],"categories":[],"categories_nodes":[],"categories_segments":[],"categories_sizes":[],"default_left":[0,0,0,0,0,0,0,0,0,0,0,0,0,0,0,0,0,0,0,0,0,0,0,0,0,0,0,0,0,0,0,0,0,0,0,0,0,0,0,0,0,0,0,0,0,0,0,0,0,0,0],"id":18,"left_children":[1,3,5,7,9,11,13,15,17,19,21,23,25,27,29,31,-1,-1,33,35,37,39,-1,-1,41,-1,43,45,47,49,-1,-1,-1,-1,-1,-1,-1,-1,-1,-1,-1,-1,-1,-1,-1,-1,-1,-1,-1,-1,-1],"loss_changes":[4.5165726E1,3.0295937E1,3.64591E1,1.1456913E1,3.1050415E1,1.2571346E1,4.0380028E1,6.339854E0,2.3236618E0,2.5192354E1,1.43466835E1,1.4188797E1,7.863117E0,4.5337734E1,1.8817268E1,2.531031E0,0E0,0E0,9.302319E0,3.0787964E0,2.8520248E1,1.2027214E1,0E0,0E0,5.1737633E0,0E0,6.6090946E0,3.0815342E1,4.234276E1,2.325011E1,0E0,0E0,0E0,0E0,0E0,0E0,0E0,0E0,0E0,0E0,0E0,0E0,0E0,0E0,0E0,0E0,0E0,0E0,0E0,0E0,0E0],"parents":[2147483647,0,0,1,1,2,2,3,3,4,4,5,5,6,6,7,7,8,8,9,9,10,10,11,11,12,12,13,13,14,14,15,15,18,18,19,19,20,20,21,21,24,24,26,26,27,27,28,28,29,29],"right_children":[2,4,6,8,10,12,14,16,18,20,22,24,26,28,30,32,-1,-1,34,36,38,40,-1,-1,42,-1,44,46,48,50,-1,-1,-1,-1,-1,-1,-1,-1,-1,-1,-1,-1,-1,-1,-1,-1,-1,-1,-1,-1,-1],"split_conditions":[2.0207834E0,-5.213837E-2,5.714286E0,-1.4066806E-1,2.8533941E-2,1.1076542E-2,3.793719E-2,7.042254E1,1.71825E0,1.3714286E1,2.5618744E0,2.2742257E0,3.0124E0,7.098778E7,7.80085E0,1.1549E0,-7.193989E-2,7.3532656E-2,5.945946E1,1.0588235E1,-4.867135E-4,5.279276E6,-7.2396696E-2,-6.446188E-2,-1.0843264E-2,-6.9771826E-2,2.4058025E-2,7.0498E0,3.3524199E0,7.4868E0,-6.936675E-2,5.310277E-2,-1.6313853E-2,5.673162E-2,-6.0567588E-2,7.6848485E-2,1.0225768E-2,-8.448896E-3,9.079407E-3,6.435538E-2,2.1017373E-2,3.252478E-2,6.6218734E-2,-5.5126924E-2,3.747999E-2,5.097426E-4,-4.950654E-2,-3.308798E-3,-3.0885587E-2,5.134202E-3,4.9983494E-2],"split_indices":[2,8,3,8,8,8,8,3,1,4,10,10,0,6,2,1,0,0,3,3,9,6,0,0,8,0,8,0,10,1,0,0,0,0,0,0,0,0,0,0,0,0,0,0,0,0,0,0,0,0,0],"split_type":[0,0,0,0,0,0,0,0,0,0,0,0,0,0,0,0,0,0,0,0,0,0,0,0,0,0,0,0,0,0,0,0,0,0,0,0,0,0,0,0,0,0,0,0,0,0,0,0,0,0,0],"sum_hessian":[3.0330952E3,1.223529E3,1.809566E3,3.5872387E1,1.1876567E3,6.772295E1,1.7418431E3,5.3963084E0,3.0476078E1,9.571073E2,2.3054942E2,5.6685005E1,1.1037946E1,1.2924927E3,4.493504E2,3.6778271E0,1.7184811E0,2.1691713E1,8.784366E0,1.3978458E1,9.4312885E2,2.276037E2,2.9457178E0,2.2197878E0,5.4465218E1,3.418003E0,7.6199427E0,6.98106E2,5.9438666E2,4.4240216E2,6.9482408E0,1.9848675E0,1.6929597E0,7.545296E0,1.2390687E0,1.15762E1,2.4022586E0,4.0850058E2,5.3462823E2,1.668916E1,2.1091454E2,3.4350513E1,2.0114706E1,1.7034076E0,5.916535E0,6.668206E2,3.1285418E1,2.2254768E2,3.71839E2,4.1229333E2,3.010885E1],"tree_param":{"num_deleted":"0","num_feature":"12","num_nodes":"51","size_leaf_vector":"1"}},{"base_weights":[9.991321E-3,1.4118606E-1,-1.167025E-1,-1.7511417E-1,2.08147E-1,-3.5278147E-1,-3.555888E-2,-3.9822724E-2,-8.574743E-1,9.13597E-1,1.8424599E-1,-1.3427674E0,-2.881813E-1,1.2059028E-1,-1.8557921E-1,-2.8212148E-1,5.6264824E-1,-1.2365874E0,-2.0714349E-1,1.3611398E0,-2.8023738E-1,1.0497772E-1,4.433166E-1,-7.6566285E-1,-7.203775E-2,1.0505568E0,-3.399097E-1,-4.870348E-2,3.486475E-1,-3.68357E-1,-8.240376E-3,-4.63207E-3,-4.086904E-2,-1.9021214E-3,6.138845E-2,-2.584363E-2,-9.506566E-2,4.7245637E-2,-3.1429525E-2,7.028289E-2,9.224508E-3,-5.803771E-2,2.1369223E-2,-1.167054E-3,1.4263511E-2,4.6704356E-2,1.7725224E-2,-5.9932213E-2,2.4910761E-2,8.744264E-2,-6.0903657E-2,-2.39212E-2,6.8682665E-3,1.1738214E-2,-2.1723704E-2,1.0175937E-2,4.9264383E-2,-3.6690336E-2,-8.334555E-3,4.5172735E-3,-2.3203367E-2],"categories":[],"categories_nodes":[],"categories_segments":[],"categories_sizes":[],"default_left":[0,0,0,0,0,0,0,0,0,0,0,0,0,0,0,0,0,0,0,0,0,0,0,0,0,0,0,0,0,0,0,0,0,0,0,0,0,0,0,0,0,0,0,0,0,0,0,0,0,0,0,0,0,0,0,0,0,0,0,0,0],"id":19,"left_children":[1,3,5,7,9,11,13,15,17,19,21,23,25,27,29,31,33,35,37,39,41,43,45,47,-1,49,51,53,55,57,59,-1,-1,-1,-1,-1,-1,-1,-1,-1,-1,-1,-1,-1,-1,-1,-1,-1,-1,-1,-1,-1,-1,-1,-1,-1,-1,-1,-1,-1,-1],"loss_changes":[4.9628517E1,3.1103046E1,2.908577E1,2.367428E1,2.0250168E1,2.4454884E1,2.652972E1,3.1597923E1,1.020853E1,2.1449585E1,2.4033245E1,2.2695541E-1,2.5697086E1,2.1447067E1,1.8715754E1,1.5569754E1,2.4860313E1,1.1748951E1,8.766557E0,1.2519455E0,7.711824E0,2.0808537E1,1.1629166E1,3.6333354E0,0E0,2.4082693E1,2.3406246E1,3.5035004E1,2.1660896E1,2.0835026E1,1.3259697E1,0E0,0E0,0E0,0E0,0E0,0E0,0E0,0E0,0E0,0E0,0E0,0E0,0E0,0E0,0E0,0E0,0E0,0E0,0E0,0E0,0E0,0E0,0E0,0E0,0E0,0E0,0E0,0E0,0E0,0E0],"parents":[2147483647,0,0,1,1,2,2,3,3,4,4,5,5,6,6,7,7,8,8,9,9,10,10,11,11,12,12,13,13,14,14,15,15,16,16,17,17,18,18,19,19,20,20,21,21,22,22,23,23,25,25,26,26,27,27,28,28,29,29,30,30],"right_children":[2,4,6,8,10,12,14,16,18,20,22,24,26,28,30,32,34,36,38,40,42,44,46,48,-1,50,52,54,56,58,60,-1,-1,-1,-1,-1,-1,-1,-1,-1,-1,-1,-1,-1,-1,-1,-1,-1,-1,-1,-1,-1,-1,-1,-1,-1,-1,-1,-1,-1,-1],"split_conditions":[2.4518E0,2.1071428E-2,4.257143E-2,3.3512607E-3,8.204E-1,2.54835E0,5E1,5.7081547E1,8.548387E1,-1.4048077E-4,2.8533941E-2,2.4238667E0,2.5975332E0,7.9071425E-2,9.883602E-3,-2.2243434E-3,-1.5624875E-3,6.9291336E1,7.198E-1,3.7088067E8,1.15247285E-2,2.9090068E-3,-1.4769047E-2,-3.164669E-3,-7.203775E-2,3.6642857E-2,1.4022322E8,3.95815E0,3.6975686E-3,3.498529E-3,6.8346E0,-4.63207E-3,-4.086904E-2,-1.9021214E-3,6.138845E-2,-2.584363E-2,-9.506566E-2,4.7245637E-2,-3.1429525E-2,7.028289E-2,9.224508E-3,-5.803771E-2,2.1369223E-2,-1.167054E-3,1.4263511E-2,4.6704356E-2,1.7725224E-2,-5.9932213E-2,2.4910761E-2,8.744264E-2,-6.0903657E-2,-2.39212E-2,6.8682665E-3,1.1738214E-2,-2.1723704E-2,1.0175937E-2,4.9264383E-2,-3.6690336E-2,-8.334555E-3,4.5172735E-3,-2.3203367E-2],"split_indices":[1,5,5,9,0,1,3,3,3,7,8,2,2,5,9,8,7,3,0,6,7,9,9,9,0,5,6,1,9,8,0,0,0,0,0,0,0,0,0,0,0,0,0,0,0,0,0,0,0,0,0,0,0,0,0,0,0,0,0,0,0],"split_type":[0,0,0,0,0,0,0,0,0,0,0,0,0,0,0,0,0,0,0,0,0,0,0,0,0,0,0,0,0,0,0,0,0,0,0,0,0,0,0,0,0,0,0,0,0,0,0,0,0,0,0,0,0,0,0,0,0,0,0,0,0],"sum_hessian":[2.9838E3,1.4658057E3,1.5179943E3,2.5581403E2,1.2099917E3,3.874374E2,1.1305569E3,2.143694E2,4.1444626E1,3.8431896E1,1.1715598E3,2.2521023E1,3.6491638E2,5.5405896E2,5.764979E2,1.5326271E2,6.11067E1,2.5612335E1,1.5832293E1,2.7851011E1,1.0580884E1,8.98155E2,2.7340475E2,4.5481615E0,1.7972862E1,1.28573475E1,3.5205905E2,3.184502E2,2.3560875E2,2.8336502E2,2.931329E2,1.140592E2,3.920351E1,3.260392E1,2.850278E1,1.3150999E1,1.2461335E1,3.9078448E0,1.1924448E1,2.6648163E1,1.2028489E0,4.4291677E0,6.1517167E0,5.2521594E2,3.729391E2,4.043666E1,2.3296811E2,3.4260674E0,1.1220942E0,1.0006432E1,2.8509161E0,2.7286578E2,7.9193245E1,1.8379062E2,1.3465958E2,1.9294467E2,4.2664078E1,9.982607E1,1.8353896E2,2.4166714E2,5.1465755E1],"tree_param":{"num_deleted":"0","num_feature":"12","num_nodes":"61","size_leaf_vector":"1"}},{"base_weights":[2.1243393E-2,1.5803017E-1,-1.1112255E-1,7.078634E-2,3.7430272E-1,2.6999316E-1,-1.7349827E-1,4.2308024E-1,-9.745053E-3,1.5926376E-1,5.392962E-1,3.0715278E-1,-6.2915586E-2,-2.2511886E-1,1.3671474E-1,1.0025581E0,2.7834612E-1,6.939777E-1,-6.0152818E-2,3.357404E-1,-1.003705E0,9.090345E-1,2.171373E-1,3.7459448E-1,-5.3627336E-1,-1.0284082E0,-1.9367093E-1,7.1298355E-1,1.1857242E-2,5.4816872E-2,-1.2514538E-2,2.2611255E-2,-9.496024E-3,1.7897211E-2,5.777895E-2,-4.360482E-3,5.31283E-2,4.6445258E-2,4.0683593E-3,2.6126204E-2,-7.0906036E-2,3.067327E-2,6.0979843E-2,-4.1553784E-2,2.074343E-2,1.1674987E-2,4.154804E-2,-5.635683E-2,3.1838994E-2,-6.66583E-2,-1.3308342E-2,-2.4493374E-3,-1.6232623E-2,-5.412181E-2,5.2249707E-2,-6.308506E-2,7.87734E-3],"categories":[],"categories_nodes":[],"categories_segments":[],"categories_sizes":[],"default_left":[0,0,0,0,0,0,0,0,0,0,0,0,0,0,0,0,0,0,0,0,0,0,0,0,0,0,0,0,0,0,0,0,0,0,0,0,0,0,0,0,0,0,0,0,0,0,0,0,0,0,0,0,0,0,0,0,0],"id":20,"left_children":[1,3,5,7,9,11,13,15,17,19,21,23,-1,25,27,29,31,33,35,37,39,41,43,45,47,49,51,53,55,-1,-1,-1,-1,-1,-1,-1,-1,-1,-1,-1,-1,-1,-1,-1,-1,-1,-1,-1,-1,-1,-1,-1,-1,-1,-1,-1,-1],"loss_changes":[5.4192856E1,2.7746098E1,3.6210003E1,2.979479E1,1.491708E1,1.255953E1,2.0974346E1,1.610873E1,3.0394484E1,3.830683E1,2.8253326E1,1.2149704E1,0E0,2.8136227E1,1.3461536E1,4.8172455E0,1.2928473E1,8.4702835E0,2.437564E1,2.4274174E1,1.6316603E1,9.431587E0,2.7072006E1,1.236853E1,1.1782991E1,9.407711E0,2.046333E1,2.0994074E1,2.8937298E1,0E0,0E0,0E0,0E0,0E0,0E0,0E0,0E0,0E0,0E0,0E0,0E0,0E0,0E0,0E0,0E0,0E0,0E0,0E0,0E0,0E0,0E0,0E0,0E0,0E0,0E0,0E0,0E0],"parents":[2147483647,0,0,1,1,2,2,3,3,4,4,5,5,6,6,7,7,8,8,9,9,10,10,11,11,13,13,14,14,15,15,16,16,17,17,18,18,19,19,20,20,21,21,22,22,23,23,24,24,25,25,26,26,27,27,28,28],"right_children":[2,4,6,8,10,12,14,16,18,20,22,24,-1,26,28,30,32,34,36,38,40,42,44,46,48,50,52,54,56,-1,-1,-1,-1,-1,-1,-1,-1,-1,-1,-1,-1,-1,-1,-1,-1,-1,-1,-1,-1,-1,-1,-1,-1,-1,-1,-1,-1],"split_conditions":[2.4518E0,1.6604725E-2,-1.691934E-2,-3.3861745E-2,8.123971E7,7.9932E0,6.823066E-2,1.0941E0,7.0615E-1,2.201E0,1.151259E8,5.2604168E1,-6.2915586E-2,2.5706666E0,4.0888996E7,1.5279833E0,7.883044E7,6.4823216E-1,2.4216E0,4.5454544E1,1.5296715E-2,1.63485E0,1.3292649E8,6.74325E0,2.1413621E8,1.2263459E8,6.764467E7,3.845E0,6.3393764E7,5.4816872E-2,-1.2514538E-2,2.2611255E-2,-9.496024E-3,1.7897211E-2,5.777895E-2,-4.360482E-3,5.31283E-2,4.6445258E-2,4.0683593E-3,2.6126204E-2,-7.0906036E-2,3.067327E-2,6.0979843E-2,-4.1553784E-2,2.074343E-2,1.1674987E-2,4.154804E-2,-5.635683E-2,3.1838994E-2,-6.66583E-2,-1.3308342E-2,-2.4493374E-3,-1.6232623E-2,-5.412181E-2,5.2249707E-2,-6.308506E-2,7.87734E-3],"split_indices":[1,7,9,7,6,1,7,1,1,0,6,3,0,2,6,2,6,11,1,3,8,2,6,1,6,6,6,0,6,0,0,0,0,0,0,0,0,0,0,0,0,0,0,0,0,0,0,0,0,0,0,0,0,0,0,0,0],"split_type":[0,0,0,0,0,0,0,0,0,0,0,0,0,0,0,0,0,0,0,0,0,0,0,0,0,0,0,0,0,0,0,0,0,0,0,0,0,0,0,0,0,0,0,0,0,0,0,0,0,0,0,0,0,0,0,0,0],"sum_hessian":[2.9911335E3,1.4709067E3,1.5202267E3,1.0490499E3,4.2185684E2,2.1334712E2,1.3068796E3,1.9439462E2,8.546553E2,1.8400507E2,2.3785179E2,2.0906294E2,4.28419E0,1.1206703E3,1.8620935E2,3.7665363E1,1.5672925E2,5.627367E1,7.983816E2,1.6037933E2,2.3625721E1,1.0989956E2,1.27952225E2,1.9409839E2,1.496455E1,4.1025833E1,1.0796444E3,3.2321575E1,1.5388777E2,3.515857E1,2.5067952E0,1.14315384E2,4.241387E1,3.3593754E1,2.2679918E1,7.804945E2,1.7887108E1,4.7339085E1,1.1304025E2,4.989455E0,1.8636265E1,5.7833485E1,5.2066074E1,1.9797686E1,1.0815454E2,1.4941531E2,4.4683067E1,9.977871E0,4.9866796E0,2.8772902E1,1.2252933E1,5.1364185E2,5.660026E2,4.691425E0,2.7630152E1,1.5010647E1,1.3887714E2],"tree_param":{"num_deleted":"0","num_feature":"12","num_nodes":"57","size_leaf_vector":"1"}},{"base_weights":[1.3551898E-2,1.3278522E-1,-1.4111404E-1,1.6018542E-2,3.0635324E-1,-2.3593304E-1,1.548757E-1,1.3100728E-1,-2.657545E-1,2.747903E-1,1.1224699E0,-3.68401E-3,-4.5429057E-1,8.894239E-1,8.547335E-2,8.869899E-1,7.366857E-2,-2.2098888E-1,-1.3280063E0,3.3130923E-1,-4.6175995E-1,3.7477422E-1,8.748341E-2,1.3936468E0,-4.735954E-2,1.8666287E-1,-5.434235E-1,4.148032E-2,1.024693E0,-7.990534E-2,3.4824005E-1,5.545489E-2,-4.1545364E-3,-3.540131E-3,1.511839E-2,-1.6019663E-2,1.2665463E-2,-8.0191396E-2,-1.1306977E-2,2.1938324E-2,7.904814E-3,-4.9815405E-2,7.2944225E-3,7.3695466E-2,-5.2113216E-2,2.6591344E-2,9.865433E-2,4.760379E-3,-2.418397E-2,2.627542E-2,-3.2341015E-2,-2.9910913E-2,1.4001705E-2,4.014162E-2,-5.9387203E-2,-7.244918E-3,5.537911E-2,1.1655893E-2,-2.2476101E-2,2.7687004E-2,-2.154412E-2],"categories":[],"categories_nodes":[],"categories_segments":[],"categories_sizes":[],"default_left":[0,0,0,0,0,0,0,0,0,0,0,0,0,0,0,0,0,0,0,0,0,0,0,0,0,0,0,0,0,0,0,0,0,0,0,0,0,0,0,0,0,0,0,0,0,0,0,0,0,0,0,0,0,0,0,0,0,0,0,0,0],"id":21,"left_children":[1,3,5,7,9,11,13,15,17,19,21,23,25,27,29,31,33,35,37,39,41,43,-1,45,47,49,51,53,55,57,59,-1,-1,-1,-1,-1,-1,-1,-1,-1,-1,-1,-1,-1,-1,-1,-1,-1,-1,-1,-1,-1,-1,-1,-1,-1,-1,-1,-1,-1,-1],"loss_changes":[5.5340782E1,3.4337475E1,3.6701042E1,3.2891174E1,1.7244759E1,5.0195843E1,1.6113194E1,3.1180897E1,1.3697559E1,2.751949E1,1.1091028E1,2.9400604E1,2.92471E1,3.0897293E0,1.2684656E1,1.1022175E1,2.2195202E1,1.3448626E1,3.1926136E0,1.1305443E1,1.54986E1,2.1315674E1,0E0,6.2421894E0,2.9099697E1,1.8140373E1,2.0387955E1,5.4449763E0,2.439577E0,2.0880405E1,1.8281271E1,0E0,0E0,0E0,0E0,0E0,0E0,0E0,0E0,0E0,0E0,0E0,0E0,0E0,0E0,0E0,0E0,0E0,0E0,0E0,0E0,0E0,0E0,0E0,0E0,0E0,0E0,0E0,0E0,0E0,0E0],"parents":[2147483647,0,0,1,1,2,2,3,3,4,4,5,5,6,6,7,7,8,8,9,9,10,10,11,11,12,12,13,13,14,14,15,15,16,16,17,17,18,18,19,19,20,20,21,21,23,23,24,24,25,25,26,26,27,27,28,28,29,29,30,30],"right_children":[2,4,6,8,10,12,14,16,18,20,22,24,26,28,30,32,34,36,38,40,42,44,-1,46,48,50,52,54,56,58,60,-1,-1,-1,-1,-1,-1,-1,-1,-1,-1,-1,-1,-1,-1,-1,-1,-1,-1,-1,-1,-1,-1,-1,-1,-1,-1,-1,-1,-1,-1],"split_conditions":[2.7404E0,3.8642857E-2,4.8467666E-2,1.4152666E0,2.7946334E0,6.722217E7,4.1304348E1,-3.3861745E-2,3.764286E-2,2.6062E0,-2.799801E-2,3.1785715E-2,2.077922E1,1.5942029E1,6.917563E1,1.4022322E8,5.7713055E1,2.54835E0,2.4058025E-2,6.2785715E-2,1.2263459E8,-8.998462E-2,8.748341E-2,1.6643018E7,1.2351543E-2,-5.837105E-3,3.210557E8,1.3084112E1,5.3932615E-2,5.15625E1,2.9237814E-2,5.545489E-2,-4.1545364E-3,-3.540131E-3,1.511839E-2,-1.6019663E-2,1.2665463E-2,-8.0191396E-2,-1.1306977E-2,2.1938324E-2,7.904814E-3,-4.9815405E-2,7.2944225E-3,7.3695466E-2,-5.2113216E-2,2.6591344E-2,9.865433E-2,4.760379E-3,-2.418397E-2,2.627542E-2,-3.2341015E-2,-2.9910913E-2,1.4001705E-2,4.014162E-2,-5.9387203E-2,-7.244918E-3,5.537911E-2,1.1655893E-2,-2.2476101E-2,2.7687004E-2,-2.154412E-2],"split_indices":[1,5,8,2,2,6,4,7,5,1,7,5,3,3,4,6,4,1,8,5,6,7,0,6,7,7,6,3,8,3,9,0,0,0,0,0,0,0,0,0,0,0,0,0,0,0,0,0,0,0,0,0,0,0,0,0,0,0,0,0,0],"split_type":[0,0,0,0,0,0,0,0,0,0,0,0,0,0,0,0,0,0,0,0,0,0,0,0,0,0,0,0,0,0,0,0,0,0,0,0,0,0,0,0,0,0,0,0,0,0,0,0,0,0,0,0,0,0,0,0,0,0,0,0,0],"sum_hessian":[2.9988938E3,1.6935009E3,1.3053931E3,1.01306244E3,6.804384E2,9.8882904E2,3.1656406E2,7.1983856E2,2.9322382E2,6.563895E2,2.4048872E1,4.7966528E2,5.0916376E2,2.630792E1,2.9025613E2,4.972815E1,6.701104E2,2.8252563E2,1.0698207E1,6.101222E2,4.6267345E1,1.1699365E1,1.2349507E1,1.3601373E1,4.660639E2,6.202788E1,4.471359E2,3.7991757E0,2.2508745E1,1.785667E2,1.1168944E2,4.0347054E1,9.381097E0,4.1110342E2,2.5900702E2,2.338412E2,4.8684414E1,8.19201E0,2.5061965E0,3.75585E2,2.3453719E2,2.4273949E1,2.1993397E1,6.5661526E0,5.1332116E0,6.239294E0,7.3620787E0,3.518719E2,1.14192024E2,4.4362274E1,1.7665606E1,4.194952E2,2.7640667E1,2.5602791E0,1.2388966E0,1.44012E0,2.1068624E1,9.688524E1,8.168146E1,8.860769E1,2.3081743E1],"tree_param":{"num_deleted":"0","num_feature":"12","num_nodes":"61","size_leaf_vector":"1"}},{"base_weights":[8.589675E-3,9.2637055E-2,-1.5038906E-1,8.106031E-2,1.4360723E0,-8.560983E-1,-1.0509749E-1,6.1789278E-2,7.777248E-1,1.5865715E0,1.9028481E-3,-2.577863E-1,-1.114472E0,1.1855271E-1,-2.8834075E-1,-7.89733E-4,3.1887925E-1,9.719067E-1,-9.485545E-2,1.402872E-2,1.680328E0,-9.865222E-1,4.852043E-1,9.199646E-2,-1.3032445E0,1.6455257E-1,-1.2418842E0,-3.9632428E-1,2.4061495E-1,3.866328E-2,-1.1485397E-3,1.7181693E-2,-8.9310326E-2,-5.978914E-2,5.8504947E-2,8.932985E-2,1.5359843E-2,2.2833334E-2,-6.064104E-2,5.4885127E-2,-3.5882063E-2,5.1399656E-2,-6.282053E-2,-6.826689E-2,1.54416775E-2,-6.7740254E-2,9.642136E-3,1.6886123E-2,-7.046425E-2,1.7832479E-2,-2.393495E-2,1.728349E-2,-7.528693E-2],"categories":[],"categories_nodes":[],"categories_segments":[],"categories_sizes":[],"default_left":[0,0,0,0,0,0,0,0,0,0,0,0,0,0,0,0,0,0,0,0,0,0,0,0,0,0,0,0,0,0,0,0,0,0,0,0,0,0,0,0,0,0,0,0,0,0,0,0,0,0,0,0,0],"id":22,"left_children":[1,3,5,7,9,11,13,15,17,19,-1,21,23,25,27,29,31,33,-1,-1,35,37,39,41,43,45,47,49,51,-1,-1,-1,-1,-1,-1,-1,-1,-1,-1,-1,-1,-1,-1,-1,-1,-1,-1,-1,-1,-1,-1,-1,-1],"loss_changes":[3.973052E1,3.0134335E1,3.2778847E1,2.5856365E1,3.423439E0,9.278313E0,3.9683487E1,3.0224802E1,2.8775263E1,1.3559532E0,0E0,1.1287587E1,9.893684E0,2.7514647E1,3.0486126E1,2.597579E1,1.9778534E1,2.2451595E1,0E0,0E0,1.4538116E0,3.9529982E0,8.564209E0,9.7986E0,4.1428146E0,1.8443714E1,4.281168E0,2.7601051E1,1.7183672E1,0E0,0E0,0E0,0E0,0E0,0E0,0E0,0E0,0E0,0E0,0E0,0E0,0E0,0E0,0E0,0E0,0E0,0E0,0E0,0E0,0E0,0E0,0E0,0E0],"parents":[2147483647,0,0,1,1,2,2,3,3,4,4,5,5,6,6,7,7,8,8,9,9,11,11,12,12,13,13,14,14,15,15,16,16,17,17,20,20,21,21,22,22,23,23,24,24,25,25,26,26,27,27,28,28],"right_children":[2,4,6,8,10,12,14,16,18,20,-1,22,24,26,28,30,32,34,-1,-1,36,38,40,42,44,46,48,50,52,-1,-1,-1,-1,-1,-1,-1,-1,-1,-1,-1,-1,-1,-1,-1,-1,-1,-1,-1,-1,-1,-1,-1,-1],"split_conditions":[3.585566E0,3.3887243E0,3.525407E0,7.0637274E8,5.6782333E1,3.51595E0,6.764467E7,8.469639E-3,1.5174E0,-9.670243E-3,1.9028481E-3,1.2338204E7,-1.2586174E-2,7.9932E0,2.2062515E8,1.6517857E1,4.891029E8,9.790432E-1,-9.485545E-2,1.402872E-2,1.15247285E-2,6.245146E-3,2.6455691E-2,2.0318202E7,7.6951675E1,3.6832E0,2.1145374E1,-2.2831906E-2,8.846154E1,3.866328E-2,-1.1485397E-3,1.7181693E-2,-8.9310326E-2,-5.978914E-2,5.8504947E-2,8.932985E-2,1.5359843E-2,2.2833334E-2,-6.064104E-2,5.4885127E-2,-3.5882063E-2,5.1399656E-2,-6.282053E-2,-6.826689E-2,1.54416775E-2,-6.7740254E-2,9.642136E-3,1.6886123E-2,-7.046425E-2,1.7832479E-2,-2.393495E-2,1.728349E-2,-7.528693E-2],"split_indices":[10,11,11,6,4,2,6,9,0,9,0,6,9,1,6,4,6,11,0,0,7,7,9,6,4,1,4,9,4,0,0,0,0,0,0,0,0,0,0,0,0,0,0,0,0,0,0,0,0,0,0,0,0],"split_type":[0,0,0,0,0,0,0,0,0,0,0,0,0,0,0,0,0,0,0,0,0,0,0,0,0,0,0,0,0,0,0,0,0,0,0,0,0,0,0,0,0,0,0,0,0,0,0,0,0,0,0,0,0],"sum_hessian":[2.9714097E3,1.9440597E3,1.0273499E3,1.9285016E3,1.5558078E1,6.087808E1,9.664718E2,1.877651E3,5.0850636E1,1.39242325E1,1.6338451E0,1.8963142E1,4.1914936E1,4.3540668E2,5.310651E2,1.5108801E3,3.6677078E2,4.80025E1,2.848137E0,1.2000828E0,1.272415E1,9.407934E0,9.555209E0,5.7403445E0,3.617459E1,4.2201627E2,1.339041E1,4.412392E2,8.982592E1,4.114587E1,1.4697343E3,3.6333493E2,3.4358485E0,3.5995574E0,4.440294E1,1.153066E1,1.1934896E0,1.1372558E0,8.2706785E0,6.3891945E0,3.166015E0,3.528595E0,2.2117496E0,3.4980293E1,1.1942959E0,6.8571095E0,4.1515918E2,1.1855955E0,1.2204815E1,4.3182774E1,3.9805643E2,8.548546E1,4.340459E0],"tree_param":{"num_deleted":"0","num_feature":"12","num_nodes":"53","size_leaf_vector":"1"}}]},"name":"gbtree"},"learner_model_param":{"base_score":"4.7905722E-1","boost_from_average":"1","num_class":"0","num_feature":"12","num_target":"1"},"objective":{"name":"binary:logistic","reg_loss_param":{"scale_pos_weight":"2.83366919"}}},"version":[3,0,3]}